{"learner":{"attributes":{"best_iteration":"593","best_ntree_limit":"594","best_score":"3.767295","scikit_learn":"{\"n_estimators\": 1000, \"objective\": \"reg:squarederror\", \"max_depth\": 5, \"learning_rate\": 0.3, \"verbosity\": null, \"booster\": null, \"tree_method\": null, \"gamma\": null, \"min_child_weight\": 2, \"max_delta_step\": null, \"subsample\": null, \"colsample_bytree\": null, \"colsample_bylevel\": null, \"colsample_bynode\": null, \"reg_alpha\": null, \"reg_lambda\": null, \"scale_pos_weight\": null, \"base_score\": null, \"missing\": NaN, \"num_parallel_tree\": null, \"random_state\": null, \"n_jobs\": null, \"monotone_constraints\": null, \"interaction_constraints\": null, \"importance_type\": null, \"gpu_id\": null, \"validate_parameters\": null, \"predictor\": null, \"enable_categorical\": false, \"evals_result_\": {\"validation_0\": {\"rmse\": [181.309296, 127.252731, 89.355835, 62.82449, 44.276176, 31.343105, 22.375383, 16.211246, 12.049671, 9.312226, 7.566704, 6.514073, 5.874283, 5.506647, 5.281791, 5.133722, 5.04017, 4.962919, 4.878699, 4.839536, 4.803528, 4.779277, 4.752499, 4.665362, 4.609397, 4.590321, 4.53539, 4.470275, 4.439429, 4.425414, 4.368357, 4.330055, 4.285467, 4.222227, 4.211496, 4.192729, 4.106186, 4.088499, 4.079948, 4.049387, 3.988551, 3.925394, 3.904147, 3.887147, 3.863745, 3.831243, 3.791393, 3.775086, 3.764554, 3.758655, 3.731776, 3.677804, 3.668864, 3.655444, 3.612977, 3.599237, 3.58559, 3.5776, 3.572275, 3.540627, 3.519459, 3.501976, 3.465679, 3.456111, 3.416663, 3.401749, 3.377593, 3.363909, 3.334296, 3.311373, 3.280499, 3.265962, 3.254099, 3.236305, 3.219331, 3.211726, 3.199218, 3.19159, 3.187448, 3.168946, 3.157967, 3.147062, 3.142693, 3.140672, 3.136057, 3.120699, 3.10579, 3.094242, 3.081313, 3.069599, 3.063032, 3.043895, 3.03141, 3.014814, 3.008796, 3.002609, 2.984892, 2.977477, 2.967654, 2.961112, 2.949137, 2.941018, 2.932792, 2.920889, 2.90812, 2.898407, 2.882041, 2.879672, 2.87618, 2.859619, 2.852914, 2.847231, 2.831956, 2.815162, 2.806317, 2.799019, 2.794003, 2.791423, 2.774992, 2.760165, 2.741537, 2.737772, 2.71662, 2.711883, 2.701469, 2.690164, 2.680607, 2.671501, 2.668088, 2.663427, 2.646484, 2.642496, 2.636075, 2.626981, 2.609889, 2.605084, 2.591145, 2.58553, 2.580528, 2.576123, 2.565568, 2.556039, 2.548759, 2.543877, 2.539017, 2.520257, 2.509562, 2.500946, 2.499014, 2.495691, 2.492991, 2.485834, 2.476584, 2.472886, 2.465409, 2.450845, 2.446278, 2.443813, 2.432358, 2.42817, 2.418454, 2.410172, 2.403675, 2.392318, 2.38649, 2.379067, 2.373327, 2.364233, 2.35992, 2.349895, 2.344645, 2.338652, 2.33538, 2.328789, 2.327153, 2.326609, 2.321462, 2.31708, 2.30965, 2.304353, 2.300185, 2.287859, 2.284961, 2.276726, 2.270332, 2.267934, 2.259267, 2.255696, 2.251273, 2.243844, 2.24091, 2.231664, 2.227586, 2.219795, 2.217674, 2.21311, 2.206237, 2.202047, 2.197306, 2.194595, 2.188967, 2.186142, 2.182039, 2.178302, 2.176077, 2.173327, 2.166908, 2.161698, 2.152973, 2.150243, 2.145858, 2.142179, 2.139696, 2.133036, 2.127887, 2.125044, 2.122784, 2.119237, 2.115793, 2.112432, 2.11058, 2.108698, 2.092858, 2.089889, 2.085217, 2.084132, 2.076473, 2.07523, 2.070315, 2.067704, 2.061644, 2.055168, 2.049829, 2.044002, 2.041311, 2.03814, 2.033125, 2.030352, 2.020484, 2.018929, 2.015244, 2.009847, 2.008567, 2.006277, 2.005507, 2.005137, 2.00408, 2.002058, 1.999954, 1.996061, 1.995722, 1.993909, 1.991079, 1.987683, 1.980374, 1.979305, 1.975073, 1.96844, 1.964967, 1.961756, 1.958372, 1.955025, 1.95148, 1.949149, 1.944656, 1.941047, 1.938775, 1.936457, 1.934971, 1.933058, 1.928371, 1.926446, 1.925414, 1.92457, 1.92075, 1.919028, 1.915178, 1.909787, 1.907539, 1.905758, 1.900693, 1.895398, 1.894337, 1.893705, 1.88406, 1.87251, 1.870642, 1.863347, 1.858233, 1.854465, 1.851972, 1.848838, 1.845291, 1.841841, 1.839326, 1.834182, 1.832554, 1.831075, 1.829576, 1.827008, 1.822528, 1.819181, 1.815963, 1.813769, 1.812147, 1.807837, 1.806281, 1.804674, 1.803518, 1.799941, 1.796751, 1.792163, 1.78783, 1.785409, 1.779015, 1.776304, 1.772214, 1.770319, 1.769873, 1.768223, 1.763981, 1.761334, 1.760019, 1.758318, 1.756822, 1.755116, 1.75213, 1.750358, 1.748826, 1.747211, 1.743921, 1.742221, 1.739768, 1.735982, 1.733606, 1.732166, 1.730839, 1.729599, 1.727401, 1.72682, 1.724352, 1.723486, 1.722028, 1.720181, 1.719596, 1.718678, 1.717288, 1.712254, 1.709312, 1.707566, 1.705401, 1.704008, 1.702055, 1.701416, 1.701049, 1.696951, 1.695479, 1.692461, 1.690439, 1.688461, 1.686967, 1.684176, 1.682243, 1.680642, 1.679805, 1.676041, 1.672458, 1.668641, 1.6666, 1.665686, 1.664374, 1.661933, 1.659938, 1.658006, 1.652727, 1.649769, 1.648348, 1.647742, 1.645261, 1.643275, 1.642088, 1.640593, 1.636402, 1.633895, 1.631753, 1.630458, 1.628687, 1.62799, 1.626797, 1.626209, 1.624885, 1.623952, 1.621389, 1.620976, 1.616194, 1.613616, 1.611166, 1.607582, 1.601799, 1.601571, 1.600237, 1.597026, 1.594292, 1.593081, 1.591828, 1.589956, 1.587477, 1.587226, 1.586912, 1.586009, 1.584687, 1.582342, 1.581078, 1.580758, 1.578773, 1.577385, 1.574658, 1.570952, 1.569885, 1.567629, 1.566707, 1.564658, 1.561572, 1.561095, 1.560614, 1.559444, 1.556996, 1.555241, 1.553825, 1.549778, 1.5487, 1.547882, 1.545849, 1.544768, 1.542124, 1.54095, 1.539433, 1.537962, 1.537609, 1.536441, 1.535725, 1.532411, 1.531376, 1.530533, 1.528104, 1.526552, 1.524795, 1.522963, 1.521047, 1.51935, 1.519146, 1.517702, 1.515488, 1.514694, 1.513642, 1.512953, 1.511476, 1.510695, 1.508456, 1.506854, 1.50604, 1.505486, 1.503873, 1.501598, 1.500398, 1.499043, 1.49809, 1.494957, 1.492949, 1.492235, 1.491742, 1.490935, 1.489186, 1.482363, 1.480862, 1.479988, 1.478741, 1.477881, 1.477389, 1.475955, 1.475303, 1.473264, 1.47227, 1.471776, 1.471669, 1.470987, 1.469153, 1.468366, 1.467544, 1.467133, 1.465841, 1.46438, 1.464155, 1.463026, 1.462646, 1.46116, 1.459358, 1.458486, 1.456178, 1.454719, 1.45284, 1.451576, 1.451126, 1.449247, 1.448105, 1.447518, 1.445715, 1.444728, 1.443926, 1.441186, 1.43896, 1.437519, 1.436698, 1.435053, 1.434576, 1.432859, 1.432191, 1.429337, 1.428395, 1.427052, 1.425758, 1.424887, 1.424577, 1.423463, 1.42165, 1.420685, 1.41934, 1.418078, 1.415147, 1.414685, 1.414283, 1.412927, 1.410945, 1.409842, 1.408397, 1.408079, 1.407907, 1.406773, 1.405921, 1.405596, 1.402834, 1.40149, 1.401008, 1.399532, 1.398746, 1.397348, 1.396595, 1.395756, 1.395231, 1.394675, 1.382981, 1.382911, 1.382805, 1.381937, 1.38175, 1.380706, 1.380201, 1.379218, 1.378919, 1.377116, 1.376204, 1.375571, 1.37333, 1.371576, 1.3706, 1.368303, 1.367949, 1.367832, 1.366449, 1.365518, 1.36457, 1.363879, 1.362391, 1.361289, 1.359683, 1.358307, 1.357818, 1.357114, 1.356904, 1.356092, 1.355215, 1.354403, 1.353381, 1.352241, 1.351673, 1.349596, 1.349283, 1.34814, 1.347528, 1.345975, 1.344937, 1.343604, 1.342351, 1.341751, 1.340821, 1.340134, 1.338787, 1.337827, 1.337663, 1.335664, 1.334858, 1.334331, 1.33268, 1.331522, 1.330625, 1.330348, 1.327024, 1.326002, 1.3248, 1.324218, 1.323179, 1.321344, 1.320217, 1.319787]}, \"validation_1\": {\"rmse\": [299.309357, 213.577057, 152.157837, 109.108536, 78.5364, 57.521759, 42.059944, 31.011425, 23.222755, 17.698635, 13.72122, 11.073747, 9.477295, 8.174581, 7.350422, 6.628506, 6.265577, 5.843813, 5.641955, 5.534173, 5.501058, 5.392465, 5.372329, 5.362898, 5.361548, 5.32201, 5.351465, 5.349571, 5.35052, 5.246368, 5.247818, 5.241832, 5.249685, 5.248799, 5.248041, 5.283056, 5.277745, 5.258749, 5.259113, 5.258185, 5.264191, 5.277202, 5.209129, 5.207353, 5.133553, 5.127797, 5.134122, 5.135038, 5.13838, 5.078822, 5.085879, 5.081512, 5.072458, 5.072597, 5.039809, 5.035301, 5.026836, 5.023081, 5.024462, 5.01138, 4.991609, 4.980114, 4.934579, 4.919863, 4.922495, 4.918688, 4.922385, 4.917315, 4.918768, 4.894278, 4.900081, 4.864735, 4.851738, 4.817554, 4.809785, 4.811552, 4.786344, 4.782228, 4.770078, 4.74602, 4.739694, 4.741176, 4.742559, 4.709463, 4.740312, 4.734941, 4.73602, 4.724676, 4.727056, 4.729605, 4.728405, 4.726498, 4.725074, 4.724319, 4.705132, 4.700301, 4.700829, 4.698378, 4.697743, 4.696826, 4.674132, 4.660378, 4.653796, 4.624872, 4.58172, 4.575154, 4.574329, 4.572464, 4.568789, 4.515674, 4.495294, 4.497353, 4.461357, 4.464149, 4.46469, 4.466386, 4.461104, 4.462462, 4.46462, 4.465422, 4.467358, 4.466127, 4.467099, 4.465894, 4.462401, 4.462493, 4.463273, 4.458839, 4.457196, 4.451888, 4.452242, 4.451237, 4.440736, 4.440794, 4.439431, 4.434984, 4.43105, 4.428815, 4.425992, 4.420066, 4.390877, 4.392877, 4.380479, 4.375097, 4.377294, 4.378095, 4.379269, 4.380764, 4.358046, 4.358799, 4.357636, 4.347663, 4.347493, 4.347324, 4.345083, 4.310516, 4.291925, 4.288946, 4.288393, 4.289669, 4.290112, 4.280375, 4.279435, 4.279246, 4.272137, 4.27027, 4.26475, 4.264431, 4.263514, 4.267098, 4.26745, 4.261103, 4.253487, 4.255665, 4.256959, 4.238609, 4.236387, 4.236529, 4.211415, 4.214307, 4.213454, 4.21579, 4.214411, 4.218639, 4.219419, 4.219638, 4.202673, 4.199095, 4.198411, 4.195748, 4.195879, 4.197101, 4.194319, 4.197384, 4.196642, 4.193775, 4.19243, 4.191002, 4.192394, 4.190114, 4.189135, 4.173432, 4.173411, 4.170066, 4.169576, 4.171034, 4.16055, 4.158844, 4.159173, 4.151405, 4.151933, 4.146742, 4.144633, 4.138463, 4.135087, 4.131266, 4.12145, 4.121229, 4.150507, 4.148372, 4.134916, 4.135404, 4.134269, 4.133811, 4.134048, 4.133546, 4.118, 4.116549, 4.110027, 4.108371, 4.108679, 4.106802, 4.104579, 4.104685, 4.103961, 4.103001, 4.102761, 4.101801, 4.098226, 4.097548, 4.086609, 4.086714, 4.086601, 4.086077, 4.071586, 4.061844, 4.066853, 4.056814, 4.056111, 4.052262, 4.049035, 4.045626, 4.046178, 4.04638, 4.045765, 4.04537, 4.044672, 4.042943, 4.04037, 4.039662, 4.040241, 4.027301, 4.026715, 4.027073, 4.018481, 4.014659, 4.013972, 4.015182, 4.01446, 4.013797, 4.012294, 4.011487, 4.011929, 4.012162, 4.011945, 4.010581, 3.998745, 3.996573, 3.995103, 3.993909, 3.994516, 3.993948, 3.994026, 3.99398, 3.990217, 3.988975, 3.987864, 3.987111, 3.983505, 3.976491, 3.976514, 3.975415, 3.976658, 3.976845, 3.977026, 3.974907, 3.974532, 3.975106, 3.970981, 3.970887, 3.968021, 3.961859, 3.96148, 3.960707, 3.959888, 3.955345, 3.95513, 3.953665, 3.95441, 3.953826, 3.953104, 3.951295, 3.942217, 3.941952, 3.937804, 3.935763, 3.935999, 3.938056, 3.938087, 3.937726, 3.937813, 3.938588, 3.938071, 3.937346, 3.935935, 3.935763, 3.935051, 3.932758, 3.932315, 3.931912, 3.93048, 3.929509, 3.929154, 3.928996, 3.931609, 3.931368, 3.931343, 3.928473, 3.929457, 3.929431, 3.929312, 3.929443, 3.92931, 3.927659, 3.929532, 3.928145, 3.928118, 3.927727, 3.928056, 3.927452, 3.927466, 3.927872, 3.927592, 3.921591, 3.921562, 3.922893, 3.922572, 3.917085, 3.91748, 3.917258, 3.916904, 3.916671, 3.913368, 3.913658, 3.913851, 3.913544, 3.913514, 3.911669, 3.911982, 3.912519, 3.911788, 3.908246, 3.905684, 3.905441, 3.908871, 3.909315, 3.908254, 3.908192, 3.91034, 3.907853, 3.906, 3.907915, 3.90679, 3.906372, 3.905442, 3.90341, 3.902855, 3.902104, 3.897101, 3.896621, 3.894898, 3.894392, 3.886722, 3.887724, 3.886827, 3.882984, 3.882925, 3.883156, 3.882282, 3.882018, 3.881744, 3.87943, 3.873647, 3.872757, 3.872778, 3.872295, 3.870997, 3.871125, 3.87104, 3.868811, 3.867763, 3.867699, 3.866599, 3.866517, 3.865793, 3.865191, 3.864016, 3.864809, 3.864606, 3.864389, 3.862882, 3.862782, 3.86308, 3.862832, 3.862499, 3.861508, 3.860889, 3.856659, 3.855273, 3.853461, 3.853199, 3.85314, 3.85335, 3.853046, 3.853344, 3.852649, 3.853122, 3.851346, 3.855992, 3.855603, 3.855432, 3.855379, 3.855671, 3.855206, 3.855139, 3.855236, 3.851697, 3.851711, 3.847781, 3.847266, 3.847158, 3.846037, 3.844443, 3.84383, 3.843345, 3.843758, 3.84376, 3.843183, 3.842895, 3.844115, 3.843874, 3.840203, 3.839943, 3.840051, 3.839656, 3.838739, 3.838951, 3.838966, 3.839499, 3.839745, 3.839507, 3.839614, 3.84107, 3.839969, 3.838733, 3.838493, 3.836375, 3.832634, 3.83344, 3.832627, 3.832149, 3.832885, 3.821078, 3.821663, 3.815789, 3.815988, 3.815243, 3.814401, 3.813545, 3.811535, 3.811254, 3.811071, 3.811114, 3.811171, 3.811537, 3.813268, 3.811955, 3.811669, 3.803834, 3.803374, 3.803408, 3.802258, 3.804164, 3.803921, 3.803576, 3.803971, 3.804081, 3.803649, 3.803409, 3.801596, 3.801175, 3.80104, 3.800493, 3.800657, 3.801159, 3.80046, 3.800261, 3.80001, 3.798937, 3.797472, 3.79604, 3.796251, 3.795861, 3.796905, 3.795613, 3.795593, 3.795151, 3.79473, 3.793854, 3.793724, 3.793613, 3.793734, 3.79328, 3.792529, 3.792084, 3.788927, 3.78891, 3.788745, 3.78858, 3.788475, 3.787949, 3.787754, 3.787901, 3.790624, 3.790108, 3.78948, 3.790548, 3.789455, 3.789159, 3.789509, 3.789, 3.788992, 3.789018, 3.788452, 3.787957, 3.787311, 3.787594, 3.787306, 3.786481, 3.774505, 3.774942, 3.774625, 3.776457, 3.775115, 3.775034, 3.775981, 3.775931, 3.776052, 3.776399, 3.776359, 3.776047, 3.776522, 3.773285, 3.772765, 3.771487, 3.771269, 3.771869, 3.771534, 3.770439, 3.770274, 3.769538, 3.769095, 3.769828, 3.769763, 3.770084, 3.769487, 3.769348, 3.768795, 3.768599, 3.768257, 3.76801, 3.768009, 3.767501, 3.767295, 3.767416, 3.768587, 3.769321, 3.768684, 3.771829, 3.771791, 3.771163, 3.771108, 3.77131, 3.771918, 3.770947, 3.770851, 3.770642, 3.770429, 3.768416, 3.768261, 3.768261, 3.768532, 3.769115, 3.76913]}}, \"_estimator_type\": \"regressor\"}"},"feature_names":["Year","Month","Day","High","Low","Open","Volume","Ticker_Num","Daily Return %"],"feature_types":["int","int","int","float","float","float","float","int","float"],"gradient_booster":{"model":{"gbtree_model_param":{"num_trees":"614","size_leaf_vector":"0"},"tree_info":[0,0,0,0,0,0,0,0,0,0,0,0,0,0,0,0,0,0,0,0,0,0,0,0,0,0,0,0,0,0,0,0,0,0,0,0,0,0,0,0,0,0,0,0,0,0,0,0,0,0,0,0,0,0,0,0,0,0,0,0,0,0,0,0,0,0,0,0,0,0,0,0,0,0,0,0,0,0,0,0,0,0,0,0,0,0,0,0,0,0,0,0,0,0,0,0,0,0,0,0,0,0,0,0,0,0,0,0,0,0,0,0,0,0,0,0,0,0,0,0,0,0,0,0,0,0,0,0,0,0,0,0,0,0,0,0,0,0,0,0,0,0,0,0,0,0,0,0,0,0,0,0,0,0,0,0,0,0,0,0,0,0,0,0,0,0,0,0,0,0,0,0,0,0,0,0,0,0,0,0,0,0,0,0,0,0,0,0,0,0,0,0,0,0,0,0,0,0,0,0,0,0,0,0,0,0,0,0,0,0,0,0,0,0,0,0,0,0,0,0,0,0,0,0,0,0,0,0,0,0,0,0,0,0,0,0,0,0,0,0,0,0,0,0,0,0,0,0,0,0,0,0,0,0,0,0,0,0,0,0,0,0,0,0,0,0,0,0,0,0,0,0,0,0,0,0,0,0,0,0,0,0,0,0,0,0,0,0,0,0,0,0,0,0,0,0,0,0,0,0,0,0,0,0,0,0,0,0,0,0,0,0,0,0,0,0,0,0,0,0,0,0,0,0,0,0,0,0,0,0,0,0,0,0,0,0,0,0,0,0,0,0,0,0,0,0,0,0,0,0,0,0,0,0,0,0,0,0,0,0,0,0,0,0,0,0,0,0,0,0,0,0,0,0,0,0,0,0,0,0,0,0,0,0,0,0,0,0,0,0,0,0,0,0,0,0,0,0,0,0,0,0,0,0,0,0,0,0,0,0,0,0,0,0,0,0,0,0,0,0,0,0,0,0,0,0,0,0,0,0,0,0,0,0,0,0,0,0,0,0,0,0,0,0,0,0,0,0,0,0,0,0,0,0,0,0,0,0,0,0,0,0,0,0,0,0,0,0,0,0,0,0,0,0,0,0,0,0,0,0,0,0,0,0,0,0,0,0,0,0,0,0,0,0,0,0,0,0,0,0,0,0,0,0,0,0,0,0,0,0,0,0,0,0,0,0,0,0,0,0,0,0,0,0,0,0,0,0,0,0,0,0,0,0,0,0,0,0,0,0,0,0,0,0,0,0,0,0,0,0,0,0,0,0,0,0,0,0,0,0,0,0,0,0,0,0,0,0,0,0,0,0,0,0,0,0,0,0,0,0,0,0,0,0,0,0,0,0,0,0,0,0,0,0,0,0,0,0,0,0,0,0,0,0,0,0,0,0,0,0,0,0,0,0],"trees":[{"base_weights":[1.2306191E2,1.0390073E2,1.9043069E3,7.4309044E1,2.9871445E2,1.5338407E3,3.3758198E3,4.7902992E1,1.25265686E2,2.6006955E2,5.880332E2,1.2216666E3,1.9275166E3,3.0501907E3,4.1294756E3,3.0200954E1,6.551848E1,1.0577179E2,1.5364668E2,2.2430421E2,3.3568423E2,5.1105106E2,8.007585E2,1.1357351E3,1.4199802E3,1.7960997E3,2.1875767E3,2.6927913E3,3.2218103E3,3.8799622E3,4.643E3,1.9604708E1,3.9057205E1,5.684454E1,7.581754E1,9.632101E1,1.1726483E2,1.4264796E2,1.7081973E2,2.0517963E2,2.5162271E2,3.082972E2,3.765356E2,4.7129633E2,5.88096E2,7.2246814E2,8.9962524E2,1.0712733E3,1.1883551E3,1.3322478E3,1.474825E3,1.7068489E3,1.8823896E3,2.0765298E3,2.34097E3],"categories":[],"categories_nodes":[],"categories_segments":[],"categories_sizes":[],"default_left":[true,true,true,true,true,true,true,true,true,true,true,true,true,true,true,true,true,true,true,true,true,true,true,true,true,true,true,false,false,false,false,false,false,false,false,false,false,false,false,false,false,false,false,false,false,false,false,false,false,false,false,false,false,false,false],"id":0,"left_children":[1,3,5,7,9,11,13,15,17,19,21,23,25,27,29,31,33,35,37,39,41,43,45,47,49,51,53,-1,-1,-1,-1,-1,-1,-1,-1,-1,-1,-1,-1,-1,-1,-1,-1,-1,-1,-1,-1,-1,-1,-1,-1,-1,-1,-1,-1],"loss_changes":[1.8924286E10,3.162411E9,3.2117268E9,6.407959E8,8.086359E8,5.772206E8,2.784635E8,9.781376E7,8.991616E7,1.7250816E8,1.391639E8,4.3257344E7,6.729421E7,4.2356224E7,2.7471872E7,1.4681824E7,1.4041152E7,1.0455808E7,1.2476928E7,2.2584832E7,2.2808064E7,1.8899584E7,1.6866432E7,4.975104E6,1.845888E6,7.491584E6,6.977536E6,0E0,0E0,0E0,0E0,0E0,0E0,0E0,0E0,0E0,0E0,0E0,0E0,0E0,0E0,0E0,0E0,0E0,0E0,0E0,0E0,0E0,0E0,0E0,0E0,0E0,0E0,0E0,0E0],"parents":[2147483647,0,0,1,1,2,2,3,3,4,4,5,5,6,6,7,7,8,8,9,9,10,10,11,11,12,12,13,13,14,14,15,15,16,16,17,17,18,18,19,19,20,20,21,21,22,22,23,23,24,24,25,25,26,26],"right_children":[2,4,6,8,10,12,14,16,18,20,22,24,26,28,30,32,34,36,38,40,42,44,46,48,50,52,54,-1,-1,-1,-1,-1,-1,-1,-1,-1,-1,-1,-1,-1,-1,-1,-1,-1,-1,-1,-1,-1,-1,-1,-1,-1,-1,-1,-1],"split_conditions":[1.01926E3,1.9475333E2,2.4992349E3,9.27986E1,4.38715E2,1.5463049E3,3.54579E3,5.2086666E1,1.36775E2,2.8878998E2,6.6874E2,1.29199E3,2.0148201E3,2.89993E3,4.33806E3,3.2593002E1,7.212125E1,1.1381793E2,1.6584564E2,2.3808499E2,3.52285E2,5.48805E2,8.0230505E2,1.1168501E3,1.3854651E3,1.7799099E3,2.2503052E3,8.078374E2,9.6654315E2,1.1639886E3,1.3929E3,5.8814125E0,1.1717162E1,1.7053362E1,2.2745264E1,2.8896303E1,3.517945E1,4.279439E1,5.1245922E1,6.155389E1,7.548682E1,9.248917E1,1.12960686E2,1.413889E2,1.764288E2,2.1674045E2,2.6988757E2,3.2138202E2,3.5650653E2,3.9967435E2,4.424475E2,5.120547E2,5.647169E2,6.22959E2,7.02291E2],"split_indices":[3,3,3,3,3,4,4,3,3,3,3,3,3,4,3,3,3,3,3,3,3,3,4,4,4,4,3,0,0,0,0,0,0,0,0,0,0,0,0,0,0,0,0,0,0,0,0,0,0,0,0,0,0,0,0],"split_type":[0,0,0,0,0,0,0,0,0,0,0,0,0,0,0,0,0,0,0,0,0,0,0,0,0,0,0,0,0,0,0,0,0,0,0,0,0,0,0,0,0,0,0,0,0,0,0,0,0,0,0,0,0,0,0],"sum_hessian":[5.54469E5,5.48569E5,5.9E3,4.76232E5,7.2337E4,4.715E3,1.185E3,3.13682E5,1.6255E5,6.3815E4,8.522E3,2.632E3,2.083E3,8.31E2,3.54E2,1.56458E5,1.57224E5,9.6365E4,6.6185E4,4.3326E4,2.0489E4,6.26E3,2.262E3,1.841E3,7.91E2,1.389E3,6.94E2,2.75E2,5.56E2,2.44E2,1.1E2,7.1233E4,8.5225E4,8.5349E4,7.1875E4,5.2886E4,4.3479E4,4.0351E4,2.5834E4,2.549E4,1.7836E4,1.2271E4,8.218E3,4.134E3,2.126E3,1.267E3,9.95E2,8.37E2,1.004E3,3.14E2,4.77E2,6.93E2,6.96E2,4.11E2,2.83E2],"tree_param":{"num_deleted":"0","num_feature":"9","num_nodes":"55","size_leaf_vector":"0"}},{"base_weights":[8.616068E1,7.245748E1,1.3105116E3,5.082837E1,2.0059196E2,1.046858E3,2.32917E3,3.1550272E1,8.265508E1,1.7244923E2,3.7626105E2,8.349133E2,1.3248656E3,2.0721216E3,2.8444614E3,1.821035E1,4.1605892E1,6.87861E1,1.0159542E2,1.4764703E2,2.1797238E2,3.2691394E2,5.153257E2,7.71632E2,9.559166E2,1.2301298E3,1.4845822E3,1.7972028E3,2.2023157E3,2.6241614E3,3.1889775E3,9.385153E0,2.2604206E1,3.480468E1,4.7894463E1,6.194117E1,7.551199E1,9.2157875E1,1.11697876E2,1.3493985E2,1.6307306E2,1.9841917E2,2.4306822E2,3.0011084E2,3.7340842E2,4.663113E2,5.9014905E2,7.218071E2,8.0497943E2,9.007492E2,1.0097573E3,1.1216187E3,1.2749838E3,1.4198129E3,1.5902999E3,2.085351E3,2.2988196E3],"categories":[],"categories_nodes":[],"categories_segments":[],"categories_sizes":[],"default_left":[true,true,true,true,true,true,true,true,true,true,true,true,true,true,true,true,true,true,true,true,true,true,true,true,true,true,true,false,true,false,false,false,false,false,false,false,false,false,false,false,false,false,false,false,false,false,false,false,false,false,false,false,false,false,false,false,false],"id":1,"left_children":[1,3,5,7,9,11,13,15,17,19,21,23,25,27,29,31,33,35,37,39,41,43,45,47,49,51,53,-1,55,-1,-1,-1,-1,-1,-1,-1,-1,-1,-1,-1,-1,-1,-1,-1,-1,-1,-1,-1,-1,-1,-1,-1,-1,-1,-1,-1,-1],"loss_changes":[9.302535E9,1.5196623E9,1.6457943E9,2.8784474E8,3.9144013E8,2.8625766E8,1.61131E8,3.919152E7,4.6480896E7,7.703616E7,7.486541E7,2.047296E7,3.0069504E7,2.6286848E7,2.328064E7,4.869356E6,7.123488E6,4.698944E6,7.121984E6,8.639808E6,1.1763584E7,9.94848E6,1.0220992E7,2.449536E6,1.903296E6,5.038464E6,3.083008E6,0E0,1.628928E6,0E0,0E0,0E0,0E0,0E0,0E0,0E0,0E0,0E0,0E0,0E0,0E0,0E0,0E0,0E0,0E0,0E0,0E0,0E0,0E0,0E0,0E0,0E0,0E0,0E0,0E0,0E0,0E0],"parents":[2147483647,0,0,1,1,2,2,3,3,4,4,5,5,6,6,7,7,8,8,9,9,10,10,11,11,12,12,13,13,14,14,15,15,16,16,17,17,18,18,19,19,20,20,21,21,22,22,23,23,24,24,25,25,26,26,28,28],"right_children":[2,4,6,8,10,12,14,16,18,20,22,24,26,28,30,32,34,36,38,40,42,44,46,48,50,52,54,-1,56,-1,-1,-1,-1,-1,-1,-1,-1,-1,-1,-1,-1,-1,-1,-1,-1,-1,-1,-1,-1,-1,-1,-1,-1,-1,-1,-1,-1],"split_conditions":[9.69E2,1.8569167E2,2.3696802E3,8.590819E1,3.97595E2,1.5397151E3,3.488705E3,4.5306E1,1.274825E2,2.68445E2,5.926E2,1.208625E3,1.9065E3,2.84398E3,4.0174E3,2.4435001E1,6.3211693E1,1.0389166E2,1.51905E2,2.20435E2,3.22745E2,4.93285E2,7.5869E2,1.0970701E3,1.37425E3,1.689125E3,2.153255E3,5.391608E2,3.189475E3,7.872485E2,9.566933E2,2.815546E0,6.781262E0,1.0441404E1,1.436834E1,1.8582352E1,2.2653599E1,2.7647364E1,3.3509365E1,4.0481956E1,4.892192E1,5.9525753E1,7.292047E1,9.003326E1,1.1202253E2,1.398934E2,1.7704472E2,2.1654214E2,2.4149384E2,2.7022476E2,3.0292722E2,3.364856E2,3.8249515E2,4.2594388E2,4.7709E2,6.2560535E2,6.896459E2],"split_indices":[3,3,4,3,3,3,3,3,3,3,4,4,4,3,4,3,3,3,3,3,3,3,3,3,3,4,3,0,3,0,0,0,0,0,0,0,0,0,0,0,0,0,0,0,0,0,0,0,0,0,0,0,0,0,0,0,0],"split_type":[0,0,0,0,0,0,0,0,0,0,0,0,0,0,0,0,0,0,0,0,0,0,0,0,0,0,0,0,0,0,0,0,0,0,0,0,0,0,0,0,0,0,0,0,0,0,0,0,0,0,0,0,0,0,0,0,0],"sum_hessian":[5.54469E5,5.48333E5,6.136E3,4.69143E5,7.919E4,4.876E3,1.26E3,2.92171E5,1.76972E5,6.8257E4,1.0933E4,2.769E3,2.107E3,8.44E2,4.16E2,1.25579E5,1.66592E5,1.02166E5,7.4806E4,4.4187E4,2.407E4,8.072E3,2.861E3,1.823E3,9.46E2,1.328E3,7.79E2,2.76E2,5.68E2,2.59E2,1.57E2,4.1742E4,8.3837E4,8.0037E4,8.6555E4,5.064E4,5.1526E4,3.8681E4,3.6125E4,2.4234E4,1.9953E4,1.3534E4,1.0536E4,5.125E3,2.947E3,1.733E3,1.128E3,7.4E2,1.083E3,4.76E2,4.7E2,3.96E2,9.32E2,4.92E2,2.87E2,2.67E2,3.01E2],"tree_param":{"num_deleted":"0","num_feature":"9","num_nodes":"57","size_leaf_vector":"0"}},{"base_weights":[6.0325333E1,5.054927E1,9.0416864E2,3.4956932E1,1.3625902E2,7.3353595E2,1.6800256E3,2.124624E1,5.576184E1,1.1609303E2,2.4646376E2,5.8886176E2,9.585718E2,1.534394E3,2.1218252E3,1.13343935E1,2.7462738E1,4.6265614E1,6.861584E1,9.9648636E1,1.4563435E2,2.1545712E2,3.395793E2,5.395124E2,6.9350714E2,8.964528E2,1.0964174E3,1.4388348E3,1.6915583E3,2.0036512E3,2.4310925E3,4.6151333E0,1.3874435E1,2.2774143E1,3.1719854E1,4.196948E1,5.0905403E1,6.222679E1,7.5226685E1,9.078891E1,1.0905537E2,1.3382542E2,1.6223825E2,1.9866608E2,2.4730923E2,3.0719702E2,3.8431897E2,5.0152823E2,5.6809503E2,6.564017E2,7.445435E2,8.53213E2,9.510497E2,1.041247E3,1.1612675E3,1.297541E3,1.4796285E3],"categories":[],"categories_nodes":[],"categories_segments":[],"categories_sizes":[],"default_left":[true,true,true,true,true,true,true,true,true,true,true,true,true,true,true,true,true,true,true,true,true,true,true,true,true,true,true,true,false,false,false,false,false,false,false,false,false,false,false,false,false,false,false,false,false,false,false,false,false,false,false,false,false,false,false,false,false],"id":2,"left_children":[1,3,5,7,9,11,13,15,17,19,21,23,25,27,29,31,33,35,37,39,41,43,45,47,49,51,53,55,-1,-1,-1,-1,-1,-1,-1,-1,-1,-1,-1,-1,-1,-1,-1,-1,-1,-1,-1,-1,-1,-1,-1,-1,-1,-1,-1,-1,-1],"loss_changes":[4.5740355E9,7.325124E8,8.3942246E8,1.3228512E8,1.8746534E8,1.6895923E8,7.034906E7,1.722404E7,2.2483264E7,3.4630976E7,3.7601856E7,1.6006784E7,1.6450944E7,1.054208E7,5.398656E6,1.838876E6,3.42824E6,2.109792E6,3.301184E6,3.80864E6,4.978368E6,5.187936E6,4.602048E6,2.06016E6,1.4296E6,2.514816E6,1.037696E6,1.215616E6,0E0,0E0,0E0,0E0,0E0,0E0,0E0,0E0,0E0,0E0,0E0,0E0,0E0,0E0,0E0,0E0,0E0,0E0,0E0,0E0,0E0,0E0,0E0,0E0,0E0,0E0,0E0,0E0,0E0],"parents":[2147483647,0,0,1,1,2,2,3,3,4,4,5,5,6,6,7,7,8,8,9,9,10,10,11,11,12,12,13,13,14,14,15,15,16,16,17,17,18,18,19,19,20,20,21,21,22,22,23,23,24,24,25,25,26,26,27,27],"right_children":[2,4,6,8,10,12,14,16,18,20,22,24,26,28,30,32,34,36,38,40,42,44,46,48,50,52,54,56,-1,-1,-1,-1,-1,-1,-1,-1,-1,-1,-1,-1,-1,-1,-1,-1,-1,-1,-1,-1,-1,-1,-1,-1,-1,-1,-1,-1,-1],"split_conditions":[9.1312E2,1.7933167E2,2.578795E3,8.222126E1,3.77365E2,1.598245E3,3.717475E3,4.1334435E1,1.22435E2,2.57385E2,5.7943E2,1.2543E3,2.06251E3,3.194855E3,4.4885947E3,2.03125E1,5.937108E1,1.00405E2,1.4646635E2,2.10555E2,3.09885E2,4.69465E2,6.97275E2,1.069585E3,1.4298884E3,1.8687151E3,2.2449102E3,2.710775E3,5.0746753E2,6.010954E2,7.2932776E2,1.3845401E0,4.1623306E0,6.8322434E0,9.515957E0,1.2590844E1,1.5271622E1,1.8668037E1,2.2568007E1,2.7236673E1,3.271661E1,4.014763E1,4.867148E1,5.9599827E1,7.419277E1,9.215911E1,1.1529569E2,1.5045848E2,1.7042851E2,1.9692052E2,2.2336307E2,2.5596391E2,2.853149E2,3.1237408E2,3.4838025E2,3.8926233E2,4.4388858E2],"split_indices":[4,3,3,3,3,4,4,3,3,3,3,3,3,4,4,3,3,3,3,3,3,3,4,4,4,3,4,4,0,0,0,0,0,0,0,0,0,0,0,0,0,0,0,0,0,0,0,0,0,0,0,0,0,0,0,0,0],"split_type":[0,0,0,0,0,0,0,0,0,0,0,0,0,0,0,0,0,0,0,0,0,0,0,0,0,0,0,0,0,0,0,0,0,0,0,0,0,0,0,0,0,0,0,0,0,0,0,0,0,0,0,0,0,0,0,0,0],"sum_hessian":[5.54469E5,5.4812E5,6.349E3,4.63755E5,8.4365E4,5.206E3,1.143E3,2.79538E5,1.84217E5,7.1317E4,1.3048E4,3.171E3,2.035E3,8.63E2,2.8E2,1.07746E5,1.71792E5,1.05949E5,7.8268E4,4.5817E4,2.55E4,9.791E3,3.257E3,2.159E3,1.012E3,1.408E3,6.27E2,5.43E2,3.2E2,2.08E2,7.2E1,2.9558E4,7.8188E4,8.1756E4,9.0036E4,5.5017E4,5.0932E4,3.9807E4,3.8461E4,2.36E4,2.2217E4,1.4907E4,1.0593E4,6.416E3,3.375E3,1.894E3,1.363E3,9.35E2,1.224E3,5.94E2,4.18E2,7.95E2,6.13E2,3.48E2,2.79E2,1.29E2,4.14E2],"tree_param":{"num_deleted":"0","num_feature":"9","num_nodes":"57","size_leaf_vector":"0"}},{"base_weights":[4.2237103E1,3.5354065E1,6.312014E2,2.4116606E1,9.352299E1,4.9901822E2,1.1253204E3,1.4298706E1,3.778635E1,7.941429E1,1.6861694E2,3.9907736E2,6.366312E2,9.791677E2,1.374486E3,7.182995E0,1.827214E1,3.1443716E1,4.678829E1,6.8096725E1,9.956122E1,1.47414E2,2.326331E2,3.6518643E2,4.5355173E2,5.8530664E2,7.0438403E2,8.4376654E2,1.0450349E3,1.2340453E3,1.5428966E3,1.2774445E0,8.575917E0,1.5233872E1,2.1155071E1,2.8565905E1,3.4685394E1,4.2511242E1,5.1126026E1,6.227549E1,7.445407E1,9.1670395E1,1.1094978E2,1.3615793E2,1.6938638E2,2.0918472E2,2.6243042E2,3.4411404E2,3.7994647E2,4.3256146E2,4.8647864E2,5.3559143E2,6.11663E2,6.7889386E2,7.5045795E2,9.8465063E2,1.0941107E3,1.4556914E3,1.7269619E3],"categories":[],"categories_nodes":[],"categories_segments":[],"categories_sizes":[],"default_left":[true,true,true,true,true,true,true,true,true,true,true,true,true,true,true,true,true,true,true,true,true,true,true,true,true,true,true,false,true,false,true,false,false,false,false,false,false,false,false,false,false,false,false,false,false,false,false,false,false,false,false,false,false,false,false,false,false,false,false],"id":3,"left_children":[1,3,5,7,9,11,13,15,17,19,21,23,25,27,29,31,33,35,37,39,41,43,45,47,49,51,53,-1,55,-1,57,-1,-1,-1,-1,-1,-1,-1,-1,-1,-1,-1,-1,-1,-1,-1,-1,-1,-1,-1,-1,-1,-1,-1,-1,-1,-1,-1,-1],"loss_changes":[2.247723E9,3.5825254E8,4.1777613E8,6.1645456E7,9.400045E7,6.92681E7,4.785229E7,7.558332E6,1.0961024E7,1.702656E7,1.9014496E7,5.245536E6,6.977216E6,6.743552E6,9.850944E6,7.87963E5,1.502228E6,1.04984E6,1.470176E6,1.765664E6,2.40432E6,2.58496E6,2.383568E6,4.32832E5,5.63648E5,1.264448E6,5.60416E5,0E0,6.14784E5,0E0,1.049504E6,0E0,0E0,0E0,0E0,0E0,0E0,0E0,0E0,0E0,0E0,0E0,0E0,0E0,0E0,0E0,0E0,0E0,0E0,0E0,0E0,0E0,0E0,0E0,0E0,0E0,0E0,0E0,0E0],"parents":[2147483647,0,0,1,1,2,2,3,3,4,4,5,5,6,6,7,7,8,8,9,9,10,10,11,11,12,12,13,13,14,14,15,15,16,16,17,17,18,18,19,19,20,20,21,21,22,22,23,23,24,24,25,25,26,26,28,28,30,30],"right_children":[2,4,6,8,10,12,14,16,18,20,22,24,26,28,30,32,34,36,38,40,42,44,46,48,50,52,54,-1,56,-1,58,-1,-1,-1,-1,-1,-1,-1,-1,-1,-1,-1,-1,-1,-1,-1,-1,-1,-1,-1,-1,-1,-1,-1,-1,-1,-1,-1,-1],"split_conditions":[8.87235E2,1.74555E2,2.36246E3,7.89825E1,3.59995E2,1.5037825E3,3.2940698E3,3.8445E1,1.19599236E2,2.5135501E2,5.6704004E2,1.167915E3,1.859855E3,2.7035E3,3.8677852E3,1.6785E1,5.69625E1,9.7515E1,1.42795E2,2.0617499E2,3.03365E2,4.5812E2,6.7593005E2,1.035635E3,1.317975E3,1.660095E3,2.09575E3,2.5312997E2,3.0407002E3,3.702136E2,4.7078203E3,3.8323337E-1,2.5727754E0,4.570162E0,6.346522E0,8.569772E0,1.0405619E1,1.2753373E1,1.5337809E1,1.8682648E1,2.2336222E1,2.750112E1,3.3284935E1,4.084738E1,5.0815918E1,6.275542E1,7.8729126E1,1.03234215E2,1.1398395E2,1.2976845E2,1.459436E2,1.6067743E2,1.8349892E2,2.0366817E2,2.2513739E2,2.953952E2,3.2823322E2,4.3670743E2,5.180886E2],"split_indices":[4,3,3,3,4,3,4,3,3,3,3,4,4,3,4,3,3,3,3,3,3,3,4,4,4,4,3,0,4,0,3,0,0,0,0,0,0,0,0,0,0,0,0,0,0,0,0,0,0,0,0,0,0,0,0,0,0,0,0],"split_type":[0,0,0,0,0,0,0,0,0,0,0,0,0,0,0,0,0,0,0,0,0,0,0,0,0,0,0,0,0,0,0,0,0,0,0,0,0,0,0,0,0,0,0,0,0,0,0,0,0,0,0,0,0,0,0,0,0,0,0],"sum_hessian":[5.54469E5,5.48065E5,6.404E3,4.5933E5,8.8735E4,5.054E3,1.35E3,2.6733E5,1.92E5,7.4702E4,1.4033E4,2.93E3,2.124E3,8.54E2,4.96E2,9.579E4,1.7154E5,1.1264E5,7.936E4,4.7835E4,2.6867E4,1.0544E4,3.489E3,1.811E3,1.119E3,1.214E3,9.1E2,2.84E2,5.7E2,2.75E2,2.21E2,1.8282E4,7.7508E4,8.3523E4,8.8017E4,5.9674E4,5.2966E4,3.9965E4,3.9395E4,2.4976E4,2.2859E4,1.5876E4,1.0991E4,6.977E3,3.567E3,1.957E3,1.532E3,7.56E2,1.055E3,6.92E2,4.27E2,4.28E2,7.86E2,5.96E2,3.14E2,2.65E2,3.05E2,1.56E2,6.5E1],"tree_param":{"num_deleted":"0","num_feature":"9","num_nodes":"59","size_leaf_vector":"0"}},{"base_weights":[2.9572939E1,2.473038E1,4.409494E2,1.6733416E1,6.46781E1,3.5845422E2,8.320231E2,9.789133E0,2.5969067E1,5.326344E1,1.0969913E2,2.881177E2,4.7325626E2,7.632671E2,1.0715321E3,4.6687703E0,1.2418312E1,2.1613836E1,3.2211594E1,4.5378304E1,6.375954E1,9.458849E1,1.5468227E2,2.564284E2,3.323471E2,4.3462402E2,5.292871E2,7.1308246E2,8.402844E2,1.0258405E3,1.2900884E3,-3.064623E-1,5.505977E0,1.1256426E1,1.6024338E1,2.0528803E1,2.591668E1,3.0581528E1,3.7906796E1,4.2999256E1,4.905229E1,5.8300903E1,7.070335E1,8.712025E1,1.081422E2,1.365548E2,1.777005E2,2.4118587E2,2.6811594E2,3.0748032E2,3.56518E2,3.997223E2,4.4807935E2,4.9754492E2,5.648154E2,6.7165576E2,7.465672E2],"categories":[],"categories_nodes":[],"categories_segments":[],"categories_sizes":[],"default_left":[true,true,true,true,true,true,true,true,true,true,true,true,true,true,true,true,true,true,true,true,true,true,true,true,true,true,true,true,false,false,false,false,false,false,false,false,false,false,false,false,false,false,false,false,false,false,false,false,false,false,false,false,false,false,false,false,false],"id":4,"left_children":[1,3,5,7,9,11,13,15,17,19,21,23,25,27,29,31,33,35,37,39,41,43,45,47,49,51,53,55,-1,-1,-1,-1,-1,-1,-1,-1,-1,-1,-1,-1,-1,-1,-1,-1,-1,-1,-1,-1,-1,-1,-1,-1,-1,-1,-1,-1,-1],"loss_changes":[1.104557E9,1.7506966E8,2.0782195E8,2.928468E7,4.696819E7,4.289408E7,1.7675328E7,3.508782E6,5.327368E6,6.032272E6,1.2551424E7,4.549824E6,4.14896E6,2.786624E6,1.153152E6,3.6833475E5,7.21358E5,5.38428E5,7.46496E5,3.61872E5,1.181472E6,1.3916E6,1.914752E6,2.79336E5,7.18032E5,3.8584E5,6.44864E5,2.43456E5,0E0,0E0,0E0,0E0,0E0,0E0,0E0,0E0,0E0,0E0,0E0,0E0,0E0,0E0,0E0,0E0,0E0,0E0,0E0,0E0,0E0,0E0,0E0,0E0,0E0,0E0,0E0,0E0,0E0],"parents":[2147483647,0,0,1,1,2,2,3,3,4,4,5,5,6,6,7,7,8,8,9,9,10,10,11,11,12,12,13,13,14,14,15,15,16,16,17,17,18,18,19,19,20,20,21,21,22,22,23,23,24,24,25,25,26,26,27,27],"right_children":[2,4,6,8,10,12,14,16,18,20,22,24,26,28,30,32,34,36,38,40,42,44,46,48,50,52,54,56,-1,-1,-1,-1,-1,-1,-1,-1,-1,-1,-1,-1,-1,-1,-1,-1,-1,-1,-1,-1,-1,-1,-1,-1,-1,-1,-1,-1,-1],"split_conditions":[8.8849E2,1.71845E2,2.554885E3,7.725079E1,3.38235E2,1.65774E3,3.9080898E3,3.6855E1,1.17945E2,2.30545E2,5.1698E2,1.19999E3,1.981485E3,3.294E3,4.77277E3,1.4771667E1,6.614938E1,1.07854996E2,1.56295E2,2.02625E2,2.75805E2,4.12435E2,6.2181995E2,1.066785E3,1.3429451E3,1.77036E3,2.143605E3,3.06712E3,2.5208534E2,3.0775214E2,3.8702652E2,-9.193869E-2,1.6517932E0,3.3769279E0,4.8073015E0,6.1586413E0,7.775004E0,9.1744585E0,1.1372039E1,1.2899777E1,1.4715688E1,1.7490273E1,2.1211004E1,2.6136076E1,3.244266E1,4.096644E1,5.3310154E1,7.235577E1,8.0434784E1,9.2244095E1,1.0695541E2,1.19916695E2,1.3442381E2,1.4926349E2,1.6944464E2,2.0149673E2,2.2397017E2],"split_indices":[3,3,4,3,3,3,3,3,3,3,3,3,3,3,5,3,3,3,3,3,3,3,4,3,4,3,4,3,0,0,0,0,0,0,0,0,0,0,0,0,0,0,0,0,0,0,0,0,0,0,0,0,0,0,0,0,0],"split_type":[0,0,0,0,0,0,0,0,0,0,0,0,0,0,0,0,0,0,0,0,0,0,0,0,0,0,0,0,0,0,0,0,0,0,0,0,0,0,0,0,0,0,0,0,0,0,0,0,0,0,0,0,0,0,0,0,0],"sum_hessian":[5.54469E5,5.48019E5,6.45E3,4.56613E5,9.1406E4,5.328E3,1.122E3,2.6064E5,1.95973E5,7.292E4,1.8486E4,3.306E3,2.022E3,8.75E2,2.47E2,8.8428E4,1.72212E5,1.15439E5,8.0534E4,4.1642E4,3.1278E4,1.384E4,4.646E3,1.93E3,1.376E3,1.202E3,8.2E2,5.36E2,3.39E2,2.09E2,3.8E1,1.2737E4,7.5691E4,1.30249E5,4.1963E4,9.2196E4,2.3243E4,6.2618E4,1.7916E4,2.5283E4,1.6359E4,1.7517E4,1.3761E4,8.928E3,4.912E3,2.603E3,2.043E3,8.47E2,1.083E3,6.85E2,6.91E2,3.43E2,8.59E2,4.41E2,3.79E2,2.49E2,2.87E2],"tree_param":{"num_deleted":"0","num_feature":"9","num_nodes":"57","size_leaf_vector":"0"}},{"base_weights":[2.0705675E1,1.7293753E1,3.0771304E2,1.176728E1,4.5471886E1,2.4266951E2,5.5289E2,7.64449E0,1.964172E1,3.9355827E1,8.642773E1,1.933698E2,3.1076923E2,5.0103476E2,7.3530597E2,4.321814E0,1.0480272E1,1.7026077E1,2.4267265E1,3.3890186E1,5.120849E1,7.680917E1,1.16667274E2,1.7486984E2,2.1731787E2,2.80963E2,3.405636E2,4.4563196E2,5.566429E2,6.7805005E2,8.5172076E2,1.8488828E0,5.86638E0,9.031645E0,1.2282651E1,1.5023617E1,1.8751722E1,2.1781225E1,2.6001144E1,3.0915396E1,3.840073E1,4.759881E1,5.894836E1,7.210773E1,9.170153E1,1.0709896E2,1.3607059E2,1.6828128E2,1.8077226E2,2.0901936E2,2.3266757E2,2.6616788E2,2.9586966E2,3.286535E2,3.6453464E2,4.094889E2,4.7809183E2,5.30219E2,5.885737E2],"categories":[],"categories_nodes":[],"categories_segments":[],"categories_sizes":[],"default_left":[true,true,true,true,true,true,true,true,true,true,true,true,true,true,true,true,true,true,true,true,true,true,true,true,true,true,true,true,true,false,false,false,false,false,false,false,false,false,false,false,false,false,false,false,false,false,false,false,false,false,false,false,false,false,false,false,false,false,false],"id":5,"left_children":[1,3,5,7,9,11,13,15,17,19,21,23,25,27,29,31,33,35,37,39,41,43,45,47,49,51,53,55,57,-1,-1,-1,-1,-1,-1,-1,-1,-1,-1,-1,-1,-1,-1,-1,-1,-1,-1,-1,-1,-1,-1,-1,-1,-1,-1,-1,-1,-1,-1],"loss_changes":[5.429577E8,8.533045E7,1.0374573E8,1.4872268E7,2.250224E7,1.7229984E7,1.2543424E7,2.833128E6,1.904264E6,5.062624E6,3.386248E6,1.28668E6,1.823408E6,3.036128E6,1.422128E6,5.2884425E5,4.23462E5,3.47222E5,2.44544E5,7.16752E5,6.86436E5,6.13656E5,5.08048E5,3.538E4,1.16836E5,1.6076E5,1.87392E5,4.36584E5,1.33424E5,0E0,0E0,0E0,0E0,0E0,0E0,0E0,0E0,0E0,0E0,0E0,0E0,0E0,0E0,0E0,0E0,0E0,0E0,0E0,0E0,0E0,0E0,0E0,0E0,0E0,0E0,0E0,0E0,0E0,0E0],"parents":[2147483647,0,0,1,1,2,2,3,3,4,4,5,5,6,6,7,7,8,8,9,9,10,10,11,11,12,12,13,13,14,14,15,15,16,16,17,17,18,18,19,19,20,20,21,21,22,22,23,23,24,24,25,25,26,26,27,27,28,28],"right_children":[2,4,6,8,10,12,14,16,18,20,22,24,26,28,30,32,34,36,38,40,42,44,46,48,50,52,54,56,58,-1,-1,-1,-1,-1,-1,-1,-1,-1,-1,-1,-1,-1,-1,-1,-1,-1,-1,-1,-1,-1,-1,-1,-1,-1,-1,-1,-1,-1,-1],"split_conditions":[8.51915E2,1.733187E2,2.2847349E3,8.8445E1,3.86975E2,1.45473E3,3.7599849E3,4.8087982E1,1.3159125E2,2.63305E2,5.92845E2,1.1682151E3,1.8154199E3,3.108505E3,4.3608447E3,2.778498E1,6.850136E1,2.0185E3,2.0185E3,2.15215E2,3.31865E2,5.06475E2,7.35995E2,1.02972E3,1.32386E3,1.732765E3,2.03752E3,2.5994849E3,3.259005E3,2.0341502E2,2.5551624E2,5.5466485E-1,1.7599142E0,2.7094936E0,3.6847954E0,4.5070853E0,5.625517E0,6.534368E0,7.8003435E0,9.274619E0,1.152022E1,1.4279643E1,1.768451E1,2.1632318E1,2.751046E1,3.212969E1,4.082118E1,5.0484386E1,5.423168E1,6.270581E1,6.980028E1,7.9850365E1,8.87609E1,9.8596054E1,1.093604E2,1.2284667E2,1.4342755E2,1.590657E2,1.7657213E2],"split_indices":[4,3,4,3,3,4,3,3,3,3,3,3,4,3,4,3,3,0,0,3,3,3,3,4,3,3,4,4,4,0,0,0,0,0,0,0,0,0,0,0,0,0,0,0,0,0,0,0,0,0,0,0,0,0,0,0,0,0,0],"split_type":[0,0,0,0,0,0,0,0,0,0,0,0,0,0,0,0,0,0,0,0,0,0,0,0,0,0,0,0,0,0,0,0,0,0,0,0,0,0,0,0,0,0,0,0,0,0,0,0,0,0,0,0,0,0,0,0,0,0,0],"sum_hessian":[5.54469E5,5.47956E5,6.513E3,4.5811E5,8.9846E4,5.149E3,1.364E3,3.00684E5,1.57426E5,7.8174E4,1.1672E4,2.989E3,2.16E3,1.065E3,2.99E2,1.38457E5,1.62227E5,1.00564E5,5.6862E4,5.3505E4,2.4669E4,8.858E3,2.814E3,1.691E3,1.298E3,1.085E3,1.075E3,5.38E2,5.27E2,2.05E2,9.4E1,5.3232E4,8.5225E4,8.9943E4,7.2284E4,4.6553E4,5.4011E4,2.3369E4,3.3493E4,3.2246E4,2.1259E4,1.6828E4,7.841E3,6.737E3,2.121E3,1.889E3,9.25E2,8.13E2,8.78E2,8.52E2,4.46E2,5.54E2,5.31E2,7.28E2,3.47E2,2.61E2,2.77E2,2.98E2,2.29E2],"tree_param":{"num_deleted":"0","num_feature":"9","num_nodes":"59","size_leaf_vector":"0"}},{"base_weights":[1.4497368E1,1.2095387E1,2.1483769E2,7.857254E0,3.0188967E1,1.7029762E2,3.9132062E2,4.7047725E0,1.2166881E1,2.510799E1,5.307812E1,1.358649E2,2.1999007E2,3.5440448E2,5.165639E2,2.6617055E0,6.3726983E0,9.880798E0,1.4748736E1,2.1500418E1,3.105504E1,4.6280968E1,7.50306E1,1.2267874E2,1.5397636E2,2.0135805E2,2.4580827E2,3.0313763E2,3.822973E2,4.9658044E2,7.1571985E2,6.720686E-1,3.5159075E0,5.299067E0,7.5193195E0,8.333808E0,1.1267113E1,1.37336855E1,1.6907454E1,1.837085E1,2.3401918E1,2.626307E1,3.326509E1,4.2466984E1,5.4246338E1,6.629342E1,8.564555E1,1.17270744E2,1.268591E2,1.4712039E2,1.6490625E2,1.8971988E2,2.1325716E2,2.3742355E2,2.6365787E2,5.988965E1,3.0430963E2,3.6504935E2,4.1490723E2,4.4586697E2,5.2171155E2],"categories":[],"categories_nodes":[],"categories_segments":[],"categories_sizes":[],"default_left":[true,true,true,true,true,true,true,true,true,true,true,true,true,true,true,true,true,true,true,true,true,true,true,false,true,true,true,false,true,true,false,false,false,false,false,false,false,false,false,false,false,false,false,false,false,false,false,false,false,false,false,false,false,false,false,false,false,false,false,false,false],"id":6,"left_children":[1,3,5,7,9,11,13,15,17,19,21,23,25,27,29,31,33,35,37,39,41,43,45,47,49,51,53,55,57,59,-1,-1,-1,-1,-1,-1,-1,-1,-1,-1,-1,-1,-1,-1,-1,-1,-1,-1,-1,-1,-1,-1,-1,-1,-1,-1,-1,-1,-1,-1,-1],"loss_changes":[2.668159E8,4.2014536E7,5.156941E7,6.031076E6,1.2091576E7,8.947968E6,5.933808E6,8.73652E5,1.106784E6,1.824972E6,2.814888E6,7.21932E5,9.82824E5,1.349832E6,8.34552E5,1.9584381E5,1.73722E5,2.13233E5,1.9275E5,3.14776E5,3.39368E5,4.35924E5,4.08336E5,2.5816E4,7.3378E4,1.32924E5,7.1352E4,8.6116E4,2.1976E5,1.17872E5,0E0,0E0,0E0,0E0,0E0,0E0,0E0,0E0,0E0,0E0,0E0,0E0,0E0,0E0,0E0,0E0,0E0,0E0,0E0,0E0,0E0,0E0,0E0,0E0,0E0,0E0,0E0,0E0,0E0,0E0,0E0],"parents":[2147483647,0,0,1,1,2,2,3,3,4,4,5,5,6,6,7,7,8,8,9,9,10,10,11,11,12,12,13,13,14,14,15,15,16,16,17,17,18,18,19,19,20,20,21,21,22,22,23,23,24,24,25,25,26,26,27,27,28,28,29,29],"right_children":[2,4,6,8,10,12,14,16,18,20,22,24,26,28,30,32,34,36,38,40,42,44,46,48,50,52,54,56,58,60,-1,-1,-1,-1,-1,-1,-1,-1,-1,-1,-1,-1,-1,-1,-1,-1,-1,-1,-1,-1,-1,-1,-1,-1,-1,-1,-1,-1,-1,-1,-1],"split_conditions":[8.5683997E2,1.60445E2,2.382505E3,7.610567E1,3.26315E2,1.4730549E3,3.763875E3,4.3107143E1,1.09065E2,2.27755E2,5.18885E2,1.1496069E3,1.90359E3,2.9013901E3,4.795005E3,2.1991667E1,2.0185E3,2.0185E3,2.0195E3,2.0185E3,2.0185E3,4.17945E2,6.32995E2,-4.3113533E-4,1.295935E3,1.73201E3,2.0773599E3,-1.0544017E-1,3.35013E3,4.0331802E3,2.1471596E2,2.016206E-1,1.0547723E0,1.5897201E0,2.255796E0,2.5001426E0,3.3801339E0,4.1201057E0,5.072236E0,5.5112553E0,7.020576E0,7.878921E0,9.979527E0,1.2740096E1,1.6273903E1,1.9888027E1,2.5693666E1,3.5181225E1,3.805773E1,4.413612E1,4.9471878E1,5.6915966E1,6.397715E1,7.1227066E1,7.909737E1,1.7966896E1,9.129289E1,1.0951481E2,1.24472176E2,1.337601E2,1.5651347E2],"split_indices":[3,3,3,3,4,4,3,3,3,3,3,4,3,3,4,3,0,0,0,0,0,3,3,8,4,4,4,8,3,3,0,0,0,0,0,0,0,0,0,0,0,0,0,0,0,0,0,0,0,0,0,0,0,0,0,0,0,0,0,0,0],"split_type":[0,0,0,0,0,0,0,0,0,0,0,0,0,0,0,0,0,0,0,0,0,0,0,0,0,0,0,0,0,0,0,0,0,0,0,0,0,0,0,0,0,0,0,0,0,0,0,0,0,0,0,0,0,0,0,0,0,0,0,0,0],"sum_hessian":[5.54469E5,5.47901E5,6.568E3,4.43921E5,1.0398E5,5.246E3,1.322E3,2.56381E5,1.8754E5,8.5093E4,1.8887E4,3.101E3,2.145E3,1.024E3,2.98E2,1.15233E5,1.41148E5,9.947E4,8.807E4,5.2967E4,3.2126E4,1.4424E4,4.463E3,1.799E3,1.302E3,1.251E3,8.94E2,3.65E2,6.59E2,2.74E2,2.4E1,3.4613E4,8.062E4,7.2897E4,6.8251E4,4.7014E4,5.2456E4,5.9908E4,2.8162E4,2.0023E4,3.2944E4,1.0144E4,2.1982E4,9.758E3,4.666E3,2.452E3,2.011E3,7.97E2,1.002E3,8.09E2,4.93E2,6.41E2,6.1E2,6.18E2,2.76E2,2E0,3.63E2,4.39E2,2.2E2,9.7E1,1.77E2],"tree_param":{"num_deleted":"0","num_feature":"9","num_nodes":"61","size_leaf_vector":"0"}},{"base_weights":[1.0150703E1,8.577548E0,1.6075111E2,6.1781096E0,2.5756392E1,1.296867E2,2.885541E2,3.934549E0,1.0780821E1,2.2609335E1,5.382174E1,1.0406865E2,1.6316374E2,2.6479584E2,3.7933707E2,2.3435986E0,5.758343E0,9.007588E0,1.3377617E1,1.8481174E1,2.8547295E1,4.751442E1,7.8113365E1,9.601471E1,1.2040203E2,1.4879593E2,1.807759E2,2.3973122E2,2.8566226E2,3.645729E2,5.666518E2,8.4734523E-1,3.0826225E0,5.0976987E0,7.5188994E0,7.824574E0,9.98871E0,1.1749849E1,1.4495569E1,1.2561717E1,1.948422E1,2.6874844E1,3.458153E1,4.451814E1,5.444438E1,7.169862E1,8.10298E1,8.918675E1,1.0249126E2,1.1258564E2,1.26799644E2,1.417677E2,1.5611252E2,1.7383896E2,1.9690733E2,2.2028174E2,2.6322897E2,2.652541E2,2.979633E2,3.4171982E2,4.0062433E2],"categories":[],"categories_nodes":[],"categories_segments":[],"categories_sizes":[],"default_left":[true,true,true,true,true,true,true,true,true,true,true,true,true,true,true,true,true,true,true,true,true,true,true,true,true,true,true,false,false,true,false,false,false,false,false,false,false,false,false,false,false,false,false,false,false,false,false,false,false,false,false,false,false,false,false,false,false,false,false,false,false],"id":7,"left_children":[1,3,5,7,9,11,13,15,17,19,21,23,25,27,29,31,33,35,37,39,41,43,45,47,49,51,53,55,57,59,-1,-1,-1,-1,-1,-1,-1,-1,-1,-1,-1,-1,-1,-1,-1,-1,-1,-1,-1,-1,-1,-1,-1,-1,-1,-1,-1,-1,-1,-1,-1],"loss_changes":[1.3136246E8,2.2618624E7,2.2719328E7,4.972034E6,5.938608E6,3.939208E6,2.315224E6,9.39235E5,7.26442E5,1.481814E6,1.035086E6,3.3257E5,4.78692E5,3.9752E5,4.2949E5,1.9117344E5,1.753745E5,1.087515E5,1.16337E5,2.11576E5,2.49332E5,1.09391E5,2.0307E4,6.8556E4,2.8729E4,3.4742E4,6.57E4,1.29848E5,4.1716E4,4.1058E4,0E0,0E0,0E0,0E0,0E0,0E0,0E0,0E0,0E0,0E0,0E0,0E0,0E0,0E0,0E0,0E0,0E0,0E0,0E0,0E0,0E0,0E0,0E0,0E0,0E0,0E0,0E0,0E0,0E0,0E0,0E0],"parents":[2147483647,0,0,1,1,2,2,3,3,4,4,5,5,6,6,7,7,8,8,9,9,10,10,11,11,12,12,13,13,14,14,15,15,16,16,17,17,18,18,19,19,20,20,21,21,22,22,23,23,24,24,25,25,26,26,27,27,28,28,29,29],"right_children":[2,4,6,8,10,12,14,16,18,20,22,24,26,28,30,32,34,36,38,40,42,44,46,48,50,52,54,56,58,60,-1,-1,-1,-1,-1,-1,-1,-1,-1,-1,-1,-1,-1,-1,-1,-1,-1,-1,-1,-1,-1,-1,-1,-1,-1,-1,-1,-1,-1,-1,-1],"split_conditions":[1.049995E3,2.01995E2,2.64925E3,9.626033E1,4.7979498E2,1.62588E3,3.962755E3,5.5474243E1,1.4119937E2,2.80075E2,7.8182E2,1.292555E3,1.954335E3,3.1105898E3,4.8521953E3,2.8765E1,2.0195E3,2.0185E3,2.0185E3,2.0175E3,3.89305E2,6.19755E2,8.41975E2,1.1623535E3,1.468985E3,1.8586481E-3,2.2735698E3,4.289129E-3,-2.1194187E-3,4.4555303E3,1.6999554E2,2.542036E-1,9.247868E-1,1.5293096E0,2.2556698E0,2.3473723E0,2.9966133E0,3.524955E0,4.348671E0,3.7685153E0,5.8452663E0,8.062453E0,1.037446E1,1.3355442E1,1.6333315E1,2.1509588E1,2.430894E1,2.6756027E1,3.0747377E1,3.3775692E1,3.8039894E1,4.253031E1,4.6833755E1,5.215169E1,5.90722E1,6.6084526E1,7.89687E1,7.957623E1,8.938899E1,1.0251595E2,1.201873E2],"split_indices":[3,3,3,3,3,4,3,3,3,3,3,4,3,4,4,3,0,0,0,0,3,3,3,3,3,8,4,8,8,5,0,0,0,0,0,0,0,0,0,0,0,0,0,0,0,0,0,0,0,0,0,0,0,0,0,0,0,0,0,0,0],"split_type":[0,0,0,0,0,0,0,0,0,0,0,0,0,0,0,0,0,0,0,0,0,0,0,0,0,0,0,0,0,0,0,0,0,0,0,0,0,0,0,0,0,0,0,0,0,0,0,0,0,0,0,0,0,0,0,0,0,0,0,0,0],"sum_hessian":[5.54469E5,5.48738E5,5.731E3,4.81488E5,6.725E4,4.612E3,1.119E3,3.23703E5,1.57785E5,6.0471E4,6.779E3,2.615E3,1.997E3,8.9E2,2.29E2,1.72889E5,1.50814E5,9.3763E4,6.4022E4,3.5674E4,2.4797E4,5.384E3,1.395E3,1.756E3,8.59E2,1.105E3,8.92E2,4.1E2,4.8E2,2.15E2,1.4E1,5.7161E4,1.15728E5,1.09666E5,4.1148E4,4.2512E4,5.1251E4,2.6072E4,3.795E4,5.171E3,3.0503E4,1.942E4,5.377E3,3.764E3,1.62E3,4.44E2,9.51E2,8.62E2,8.94E2,3.95E2,4.64E2,5.74E2,5.31E2,6.32E2,2.6E2,2.3E2,1.8E2,1.89E2,2.91E2,1.38E2,7.7E1],"tree_param":{"num_deleted":"0","num_feature":"9","num_nodes":"61","size_leaf_vector":"0"}},{"base_weights":[7.107582E0,6.019429E0,1.1418404E2,4.674375E0,2.148647E1,9.1945595E1,2.026189E2,2.9383426E0,8.597747E0,1.842119E1,3.859056E1,7.421388E1,1.15142105E2,1.8250052E2,2.5724997E2,1.7942258E0,4.386709E0,7.083619E0,1.0772101E1,1.572953E1,2.181127E1,3.355564E1,5.5182224E1,6.944159E1,8.837607E1,1.0676099E2,1.3021909E2,1.740602E2,2.0874678E2,2.4839151E2,4.0841046E2,-2.9504626E0,1.9619974E0,3.5617232E0,5.205923E0,6.805103E0,9.533294E0,9.530263E0,1.2779933E1,9.028532E0,1.648186E1,1.7878767E1,2.4701616E1,2.7532705E1,3.5347603E1,5.0441708E1,5.72451E1,6.4325806E1,7.46806E1,8.480269E1,1.0015988E2,9.973854E1,1.1242216E2,1.19783295E2,1.4015645E2,1.4892659E2,1.825502E2,2.215197E2,1.7475697E2,2.0840492E2,2.5925842E2],"categories":[],"categories_nodes":[],"categories_segments":[],"categories_sizes":[],"default_left":[true,true,true,true,true,true,true,true,true,true,true,true,true,true,true,true,true,true,true,true,true,true,true,true,true,true,false,false,true,false,false,false,false,false,false,false,false,false,false,false,false,false,false,false,false,false,false,false,false,false,false,false,false,false,false,false,false,false,false,false,false],"id":8,"left_children":[1,3,5,7,9,11,13,15,17,19,21,23,25,27,29,31,33,35,37,39,41,43,45,47,49,51,53,55,57,59,-1,-1,-1,-1,-1,-1,-1,-1,-1,-1,-1,-1,-1,-1,-1,-1,-1,-1,-1,-1,-1,-1,-1,-1,-1,-1,-1,-1,-1,-1,-1],"loss_changes":[6.4603692E7,1.1419074E7,1.0951368E7,3.439444E6,2.30165E6,1.825504E6,1.184028E6,5.8010675E5,5.09903E5,3.39488E5,5.55595E5,1.64856E5,2.29976E5,1.45762E5,2.9893E5,1.5569456E5,1.04396E5,6.2239E4,1.584235E5,1.045245E5,1.86875E5,5.4308E4,1.22895E4,4.6039E4,1.82025E4,3.8323E4,5.4249E4,1.06818E5,4.5946E4,6.981E4,0E0,0E0,0E0,0E0,0E0,0E0,0E0,0E0,0E0,0E0,0E0,0E0,0E0,0E0,0E0,0E0,0E0,0E0,0E0,0E0,0E0,0E0,0E0,0E0,0E0,0E0,0E0,0E0,0E0,0E0,0E0],"parents":[2147483647,0,0,1,1,2,2,3,3,4,4,5,5,6,6,7,7,8,8,9,9,10,10,11,11,12,12,13,13,14,14,15,15,16,16,17,17,18,18,19,19,20,20,21,21,22,22,23,23,24,24,25,25,26,26,27,27,28,28,29,29],"right_children":[2,4,6,8,10,12,14,16,18,20,22,24,26,28,30,32,34,36,38,40,42,44,46,48,50,52,54,56,58,60,-1,-1,-1,-1,-1,-1,-1,-1,-1,-1,-1,-1,-1,-1,-1,-1,-1,-1,-1,-1,-1,-1,-1,-1,-1,-1,-1,-1,-1,-1,-1],"split_conditions":[1.07062E3,2.4577167E2,2.64925E3,1.06755005E2,4.8552502E2,1.700085E3,3.763875E3,6.079348E1,1.58505E2,3.16585E2,7.62E2,1.4414375E3,2.010125E3,3.3809102E3,4.99134E3,1.2175E1,2.0185E3,2.0205E3,2.0195E3,2.0175E3,2.0195E3,-1.0447899E-2,8.319E2,1.188905E3,1.3715448E-2,1.839515E3,2.0928178E-3,-1.0009704E-2,3.54579E3,-1.0667899E-2,1.2252314E2,-8.851388E-1,5.8859926E-1,1.068517E0,1.561777E0,2.0415308E0,2.8599882E0,2.859079E0,3.83398E0,2.7085598E0,4.944558E0,5.3636303E0,7.4104853E0,8.259812E0,1.0604281E1,1.5132513E1,1.717353E1,1.9297743E1,2.2404182E1,2.5440807E1,3.0047966E1,2.9921564E1,3.372665E1,3.593499E1,4.2046936E1,4.467798E1,5.4765064E1,6.645591E1,5.2427094E1,6.252148E1,7.777753E1],"split_indices":[3,3,3,3,3,3,3,3,3,3,4,3,4,3,3,3,0,0,0,0,0,8,4,3,8,3,8,8,4,8,0,0,0,0,0,0,0,0,0,0,0,0,0,0,0,0,0,0,0,0,0,0,0,0,0,0,0,0,0,0,0],"split_type":[0,0,0,0,0,0,0,0,0,0,0,0,0,0,0,0,0,0,0,0,0,0,0,0,0,0,0,0,0,0,0,0,0,0,0,0,0,0,0,0,0,0,0,0,0,0,0,0,0,0,0,0,0,0,0,0,0,0,0,0,0],"sum_hessian":[5.54469E5,5.48892E5,5.577E3,5.04979E5,4.3913E4,4.458E3,1.119E3,3.50077E5,1.54902E5,3.7241E4,6.672E3,2.529E3,1.929E3,8.21E2,2.98E2,1.95582E5,1.54495E5,9.1317E4,6.3585E4,2.0762E4,1.6479E4,5.121E3,1.551E3,1.896E3,6.33E2,1.245E3,6.84E2,6.27E2,1.94E2,2.84E2,1.4E1,6.679E3,1.88903E5,7.6979E4,7.7516E4,8.1998E4,9.319E3,3.929E4,2.4295E4,2.097E3,1.8665E4,6.984E3,9.495E3,1.178E3,3.943E3,4.78E2,1.073E3,9.66E2,9.3E2,4.92E2,1.41E2,5.64E2,6.81E2,3.4E2,3.44E2,1.63E2,4.64E2,1.37E2,5.7E1,6.5E1,2.19E2],"tree_param":{"num_deleted":"0","num_feature":"9","num_nodes":"61","size_leaf_vector":"0"}},{"base_weights":[4.976759E0,4.2366037E0,8.246567E1,3.1703157E0,1.426009E1,6.663009E1,1.4449765E2,1.6705965E0,5.1916738E0,1.2423732E1,3.0049978E1,5.452378E1,8.28975E1,1.3247711E2,1.955687E2,8.86027E-1,2.4459312E0,3.9788969E0,6.6085143E0,1.1080468E1,1.7180317E1,2.5266989E1,3.9406826E1,5.0035225E1,6.2861176E1,7.745817E1,9.591388E1,1.27224976E2,1.643773E2,1.8857388E2,3.407467E2,-3.1183095E0,1.0043302E0,1.3253523E0,2.8614187E0,4.5829134E0,3.21863E0,8.356214E0,5.8914394E0,8.6493435E0,1.2178775E1,1.16024475E1,2.035188E1,1.733857E1,2.6303131E1,3.260204E1,4.1030563E1,4.685495E1,5.840127E1,5.698042E1,6.857787E1,6.6519905E1,8.071161E1,6.857253E1,1.0028678E2,1.1001657E2,1.3600816E2,1.6546797E2,6.704899E1,1.7014159E2,2.1068593E2],"categories":[],"categories_nodes":[],"categories_segments":[],"categories_sizes":[],"default_left":[true,true,true,true,true,true,true,true,true,true,true,true,true,false,true,true,true,true,true,true,true,true,false,false,true,false,false,true,true,true,false,false,false,false,false,false,false,false,false,false,false,false,false,false,false,false,false,false,false,false,false,false,false,false,false,false,false,false,false,false,false],"id":9,"left_children":[1,3,5,7,9,11,13,15,17,19,21,23,25,27,29,31,33,35,37,39,41,43,45,47,49,51,53,55,57,59,-1,-1,-1,-1,-1,-1,-1,-1,-1,-1,-1,-1,-1,-1,-1,-1,-1,-1,-1,-1,-1,-1,-1,-1,-1,-1,-1,-1,-1,-1,-1],"loss_changes":[3.1800628E7,5.870029E6,5.143584E6,1.5048675E6,1.530841E6,8.1888E5,6.2851E5,1.7335356E5,3.63288E5,3.02077E5,2.451945E5,8.66695E4,1.18737E5,1.24181E5,1.39858E5,6.710591E4,6.6730625E4,5.230125E4,1.22157E5,9.84035E4,1.8402875E5,2.947125E4,1.920275E4,3.89025E4,2.41975E4,3.95425E4,5.54145E4,9.8092E4,1.53775E3,4.32235E4,0E0,0E0,0E0,0E0,0E0,0E0,0E0,0E0,0E0,0E0,0E0,0E0,0E0,0E0,0E0,0E0,0E0,0E0,0E0,0E0,0E0,0E0,0E0,0E0,0E0,0E0,0E0,0E0,0E0,0E0,0E0],"parents":[2147483647,0,0,1,1,2,2,3,3,4,4,5,5,6,6,7,7,8,8,9,9,10,10,11,11,12,12,13,13,14,14,15,15,16,16,17,17,18,18,19,19,20,20,21,21,22,22,23,23,24,24,25,25,26,26,27,27,28,28,29,29],"right_children":[2,4,6,8,10,12,14,16,18,20,22,24,26,28,30,32,34,36,38,40,42,44,46,48,50,52,54,56,58,60,-1,-1,-1,-1,-1,-1,-1,-1,-1,-1,-1,-1,-1,-1,-1,-1,-1,-1,-1,-1,-1,-1,-1,-1,-1,-1,-1,-1,-1,-1,-1],"split_conditions":[1.11944E3,2.2161499E2,2.64045E3,8.37802E1,5.2918E2,1.7639451E3,3.92778E3,4.8783997E1,1.30155E2,3.63005E2,7.86005E2,1.4414375E3,2.0839648E3,1.8795794E-2,4.98516E3,1.0905E1,2.0175E3,1.65985E6,7.4635E5,2.0185E3,2.0195E3,-1.9818068E-2,-8.568674E-3,9.2843715E-3,1.8103817E-3,-7.726442E-3,-1.4285027E-2,3.0692148E3,7.84185E6,4.37674E3,1.02224014E2,-9.354929E-1,3.0129907E-1,3.9760572E-1,8.584257E-1,1.3748741E0,9.6558905E-1,2.506864E0,1.7674319E0,2.594803E0,3.6536326E0,3.4807343E0,6.105564E0,5.201571E0,7.8909397E0,9.780612E0,1.230917E1,1.4056485E1,1.7520382E1,1.7094126E1,2.0573362E1,1.9955973E1,2.4213484E1,2.057176E1,3.0086035E1,3.3004974E1,4.0802452E1,4.9640392E1,2.0114697E1,5.1042477E1,6.320578E1],"split_indices":[3,4,4,3,3,3,4,3,3,3,3,3,4,8,4,3,0,6,6,0,0,8,8,8,8,8,8,4,6,4,0,0,0,0,0,0,0,0,0,0,0,0,0,0,0,0,0,0,0,0,0,0,0,0,0,0,0,0,0,0,0],"split_type":[0,0,0,0,0,0,0,0,0,0,0,0,0,0,0,0,0,0,0,0,0,0,0,0,0,0,0,0,0,0,0,0,0,0,0,0,0,0,0,0,0,0,0,0,0,0,0,0,0,0,0,0,0,0,0,0,0,0,0,0,0],"sum_hessian":[5.54469E5,5.49224E5,5.245E3,4.96417E5,5.2807E4,4.18E3,1.065E3,2.84981E5,2.11436E5,4.7307E4,5.5E3,2.399E3,1.781E3,8.65E2,2E2,1.41648E5,1.43333E5,1.13924E5,9.7512E4,3.6892E4,1.0415E4,3.642E3,1.858E3,1.564E3,8.35E2,1.261E3,5.2E2,7.47E2,1.18E2,1.93E2,7E0,4.064E3,1.37584E5,3.8771E4,1.04562E5,6.3483E4,5.0441E4,2.8366E4,6.9146E4,1.1483E4,2.5409E4,3.777E3,6.638E3,4.23E2,3.219E3,3.62E2,1.496E3,1.138E3,4.26E2,4.17E2,4.18E2,2.94E2,9.67E2,7.4E1,4.46E2,2.57E2,4.9E2,1.16E2,2E0,1.1E2,8.3E1],"tree_param":{"num_deleted":"0","num_feature":"9","num_nodes":"61","size_leaf_vector":"0"}},{"base_weights":[3.484782E0,2.9285653E0,5.4346134E1,2.0180812E0,8.52492E0,4.2352055E1,9.471778E1,1.1196269E0,3.2629282E0,7.291605E0,1.654329E1,3.4128174E1,5.2606316E1,8.104372E1,1.2177019E2,-2.1818401E-2,1.4356759E0,2.7782464E0,4.3127937E0,6.2435436E0,9.344693E0,1.433687E1,2.2785305E1,3.247255E1,4.352617E1,4.8063557E1,5.933191E1,7.301496E1,9.133561E1,1.1493885E2,1.8060509E2,-5.5811667E0,7.6743536E-2,8.7206197E-1,2.0221522E0,3.823393E0,2.0652993E0,1.6303127E0,4.7381806E0,5.5611043E0,9.810724E0,5.4546075E0,1.0244828E1,7.931866E0,1.7923676E1,1.9566767E1,2.5443346E1,2.959332E1,3.7169453E1,4.0609318E1,5.055032E1,4.5236927E1,5.69376E1,5.0517597E1,6.3186527E1,6.550014E1,8.358832E1,8.7822365E1,1.2221539E2,1.03812775E2,1.3061266E2,1.6179572E2,2.6228647E2],"categories":[],"categories_nodes":[],"categories_segments":[],"categories_sizes":[],"default_left":[true,true,true,true,true,true,true,true,true,true,true,false,true,false,true,true,true,true,false,true,true,true,true,true,true,true,false,true,false,false,true,false,false,false,false,false,false,false,false,false,false,false,false,false,false,false,false,false,false,false,false,false,false,false,false,false,false,false,false,false,false,false,false],"id":10,"left_children":[1,3,5,7,9,11,13,15,17,19,21,23,25,27,29,31,33,35,37,39,41,43,45,47,49,51,53,55,57,59,61,-1,-1,-1,-1,-1,-1,-1,-1,-1,-1,-1,-1,-1,-1,-1,-1,-1,-1,-1,-1,-1,-1,-1,-1,-1,-1,-1,-1,-1,-1,-1,-1],"loss_changes":[1.5685764E7,2.7946675E6,2.900344E6,5.2759475E5,7.58834E5,3.883145E5,4.98027E5,9.884081E4,1.0061025E5,1.4307075E5,1.40566E5,3.85745E4,5.99955E4,6.89385E4,1.63723E5,3.2555195E4,7.09245E4,1.00801375E5,7.125925E4,1.07155625E5,7.8653125E4,1.735605E5,2.2344E4,2.8503E4,5.7738125E3,2.83525E4,2.4838E4,3.576325E4,3.233675E4,5.86375E4,2.8236375E4,0E0,0E0,0E0,0E0,0E0,0E0,0E0,0E0,0E0,0E0,0E0,0E0,0E0,0E0,0E0,0E0,0E0,0E0,0E0,0E0,0E0,0E0,0E0,0E0,0E0,0E0,0E0,0E0,0E0,0E0,0E0,0E0],"parents":[2147483647,0,0,1,1,2,2,3,3,4,4,5,5,6,6,7,7,8,8,9,9,10,10,11,11,12,12,13,13,14,14,15,15,16,16,17,17,18,18,19,19,20,20,21,21,22,22,23,23,24,24,25,25,26,26,27,27,28,28,29,29,30,30],"right_children":[2,4,6,8,10,12,14,16,18,20,22,24,26,28,30,32,34,36,38,40,42,44,46,48,50,52,54,56,58,60,62,-1,-1,-1,-1,-1,-1,-1,-1,-1,-1,-1,-1,-1,-1,-1,-1,-1,-1,-1,-1,-1,-1,-1,-1,-1,-1,-1,-1,-1,-1,-1,-1],"split_conditions":[9.7696E2,1.88965E2,2.343575E3,8.069023E1,3.99005E2,1.48456E3,3.341815E3,2.9305E1,2.0195E3,2.69085E2,6.25355E2,1.6102899E-2,1.9093301E3,4.5611877E-3,4.791995E3,7.795E0,2.0185E3,1.10635E6,-1.9933376E-2,4.285E2,-1.2278928E-2,2.0195E3,7.1707996E2,1.191235E3,1.328725E3,1.0481851E-2,-4.412663E-3,3.02074E3,3.8972747E-2,4.6930695E-3,5.007835E3,-1.6743501E0,2.3023061E-2,2.616186E-1,6.066457E-1,1.147018E0,6.195898E-1,4.890938E-1,1.4214542E0,1.6683314E0,2.9432173E0,1.6363823E0,3.0734487E0,2.37956E0,5.377103E0,5.8700304E0,7.633004E0,8.877996E0,1.1150836E1,1.2182796E1,1.5165096E1,1.3571078E1,1.708128E1,1.515528E1,1.895596E1,1.9650042E1,2.5076496E1,2.634671E1,3.666462E1,3.1143833E1,3.91838E1,4.8538715E1,7.868594E1],"split_indices":[4,3,3,3,4,4,4,3,0,4,3,8,3,8,3,3,0,6,8,7,8,0,4,4,3,8,8,4,8,8,4,0,0,0,0,0,0,0,0,0,0,0,0,0,0,0,0,0,0,0,0,0,0,0,0,0,0,0,0,0,0,0,0],"split_type":[0,0,0,0,0,0,0,0,0,0,0,0,0,0,0,0,0,0,0,0,0,0,0,0,0,0,0,0,0,0,0,0,0,0,0,0,0,0,0,0,0,0,0,0,0,0,0,0,0,0,0,0,0,0,0,0,0,0,0,0,0,0,0],"sum_hessian":[5.54469E5,5.48472E5,5.997E3,4.71727E5,7.6745E4,4.625E3,1.372E3,2.73984E5,1.97743E5,6.6516E4,1.0229E4,2.569E3,2.056E3,9.14E2,4.58E2,5.9412E4,2.14572E5,1.35289E5,6.2454E4,4.4039E4,2.2477E4,7.56E3,2.669E3,2.188E3,3.81E2,1.232E3,8.24E2,5.18E2,3.96E2,4.13E2,4.5E1,1.034E3,5.8378E4,1.0942E5,1.05152E5,5.4861E4,8.0428E4,8.549E3,5.3905E4,3.6969E4,7.07E3,4.225E3,1.8252E4,2.715E3,4.845E3,1.211E3,1.458E3,1.361E3,8.27E2,2.74E2,1.07E2,9.39E2,2.93E2,2.55E2,5.69E2,3.07E2,2.11E2,3.59E2,3.7E1,2.46E2,1.67E2,3.9E1,6E0],"tree_param":{"num_deleted":"0","num_feature":"9","num_nodes":"63","size_leaf_vector":"0"}},{"base_weights":[2.4401598E0,2.0873792E0,4.1933422E1,1.3245996E0,5.769444E0,3.3748783E1,7.216472E1,5.974553E-1,2.0317016E0,4.884324E0,1.2796997E1,2.7838465E1,4.1394936E1,6.758639E1,1.1428708E2,1.305525E0,3.3765382E-1,9.678038E-1,2.3483527E0,3.8151786E0,6.3883786E0,1.0704702E1,1.9017027E1,2.3711222E1,3.1011024E1,3.9705536E1,5.415683E1,6.8471306E1,-1.3775834E1,1.0714848E2,1.9484131E2,-2.4528992E0,1.3940009E0,-1.6659206E-1,7.573363E-1,4.3663297E0,6.6156244E-1,1.4282186E0,2.6937814E0,-1.1873372E0,4.146483E0,5.6654897E0,9.16606E0,4.9132843E0,1.262393E1,1.7901566E1,2.4841497E1,1.3220021E1,2.4966955E1,2.9646902E1,3.731941E1,2.8818882E1,4.1141785E1,4.740081E1,5.7270084E1,6.3723366E1,8.582236E1,-3.0610025E1,4.1318684E1,7.774566E1,1.1767982E2],"categories":[],"categories_nodes":[],"categories_segments":[],"categories_sizes":[],"default_left":[true,true,true,true,true,true,true,true,true,true,true,false,false,true,true,true,true,true,false,true,true,true,false,false,true,false,false,false,true,false,false,false,false,false,false,false,false,false,false,false,false,false,false,false,false,false,false,false,false,false,false,false,false,false,false,false,false,false,false,false,false],"id":11,"left_children":[1,3,5,7,9,11,13,15,17,19,21,23,25,27,29,31,33,35,37,39,41,43,45,47,49,51,53,55,57,59,-1,-1,-1,-1,-1,-1,-1,-1,-1,-1,-1,-1,-1,-1,-1,-1,-1,-1,-1,-1,-1,-1,-1,-1,-1,-1,-1,-1,-1,-1,-1],"loss_changes":[7.725044E6,1.543494E6,1.21221E6,2.3407394E5,5.8656725E5,1.735115E5,1.938035E5,4.1288273E4,7.7753E4,1.346695E5,1.370825E5,2.784875E4,3.4135E4,6.89825E4,3.72025E4,2.003736E4,3.4748867E4,5.509647E4,5.6529562E4,8.1152375E4,6.9827E4,8.7702375E4,1.6798312E4,1.22249375E4,9.486875E3,2.2112E4,1.3658125E3,7.1558E4,1.1466955E4,2.026775E4,0E0,0E0,0E0,0E0,0E0,0E0,0E0,0E0,0E0,0E0,0E0,0E0,0E0,0E0,0E0,0E0,0E0,0E0,0E0,0E0,0E0,0E0,0E0,0E0,0E0,0E0,0E0,0E0,0E0,0E0,0E0],"parents":[2147483647,0,0,1,1,2,2,3,3,4,4,5,5,6,6,7,7,8,8,9,9,10,10,11,11,12,12,13,13,14,14,15,15,16,16,17,17,18,18,19,19,20,20,21,21,22,22,23,23,24,24,25,25,26,26,27,27,28,28,29,29],"right_children":[2,4,6,8,10,12,14,16,18,20,22,24,26,28,30,32,34,36,38,40,42,44,46,48,50,52,54,56,58,60,-1,-1,-1,-1,-1,-1,-1,-1,-1,-1,-1,-1,-1,-1,-1,-1,-1,-1,-1,-1,-1,-1,-1,-1,-1,-1,-1,-1,-1,-1,-1],"split_conditions":[1.15717E3,1.70495E2,2.728225E3,6.754424E1,4.21635E2,1.784415E3,4.4610547E3,2.04915E6,2.0175E3,4.0378086E-3,7.24975E2,-4.0228607E-4,1.7919332E-2,4.33806E3,5.007835E3,1.2805E1,2.0185E3,3.993E5,-7.0832274E-3,-3.333146E-2,2.99665E2,7.85E1,1.4272662E-2,-3.1752266E-2,2.0375786E-2,-1.738239E-2,2.2353351E-2,1.4636107E-2,4.4265254E3,-7.2667673E-3,5.8452396E1,-7.3586977E-1,4.1820028E-1,-4.997762E-2,2.2720091E-1,1.309899E0,1.9846874E-1,4.284656E-1,8.0813444E-1,-3.5620117E-1,1.2439449E0,1.699647E0,2.7498183E0,1.4739853E0,3.7871792E0,5.37047E0,7.4524493E0,3.9660065E0,7.490087E0,8.894071E0,1.1195823E1,8.645665E0,1.2342536E1,1.4220243E1,1.7181026E1,1.911701E1,2.5746708E1,-9.183008E0,1.2395606E1,2.3323698E1,3.5303947E1],"split_indices":[3,3,3,3,3,3,3,6,0,8,3,8,8,3,4,3,0,6,8,8,3,7,8,8,8,8,8,8,3,8,0,0,0,0,0,0,0,0,0,0,0,0,0,0,0,0,0,0,0,0,0,0,0,0,0,0,0,0,0,0,0],"split_type":[0,0,0,0,0,0,0,0,0,0,0,0,0,0,0,0,0,0,0,0,0,0,0,0,0,0,0,0,0,0,0,0,0,0,0,0,0,0,0,0,0,0,0,0,0,0,0,0,0,0,0,0,0,0,0,0,0,0,0,0,0],"sum_hessian":[5.54469E5,5.49561E5,4.908E3,4.55252E5,9.4309E4,3.864E3,1.044E3,2.24446E5,2.30806E5,8.3761E4,1.0548E4,2.182E3,1.682E3,9.44E2,1E2,6.0246E4,1.642E5,5.294E4,1.77866E5,4.8961E4,3.48E4,7.895E3,2.653E3,9.52E2,1.23E3,1.489E3,1.93E2,9.34E2,1E1,9.4E1,6E0,1.385E3,5.8861E4,7.4586E4,8.9614E4,4.375E3,4.8565E4,4.8549E4,1.29317E5,3.041E3,4.592E4,2.7616E4,7.184E3,1.966E3,5.929E3,2.23E3,4.23E2,1.03E2,8.49E2,1.016E3,2.14E2,1.76E2,1.313E3,6.6E1,1.27E2,7.37E2,1.97E2,8E0,2E0,2.7E1,6.7E1],"tree_param":{"num_deleted":"0","num_feature":"9","num_nodes":"61","size_leaf_vector":"0"}},{"base_weights":[1.7086073E0,1.4197987E0,2.5627552E1,8.199919E-1,3.5697489E0,1.9978807E1,4.717944E1,1.461921E0,4.162902E-1,2.8603761E0,6.2177377E0,1.5986539E1,2.5687593E1,4.2141388E1,7.203313E1,1.3918505E0,3.506242E0,2.6000997E-1,2.0564594E0,2.4139602E0,5.2887197E0,4.8437085E0,7.8389606E0,6.259203E0,1.6701399E1,2.4653793E1,3.3297794E1,1.8433668E1,4.4221676E1,5.129988E1,8.213222E1,1.1958846E0,2.0799754E0,1.8388455E0,4.1510434E0,8.394533E-1,6.968512E-3,1.0385089E0,2.3990264E0,2.5073402E0,-2.2202003E1,6.086024E0,2.4702199E0,5.846159E0,-9.351562E0,9.173718E0,5.281669E0,-1.2775018E1,7.0643187E0,1.6258324E1,2.4023909E1,2.2366526E1,2.8303446E1,3.3758247E1,-4.0352783E0,-6.19987E1,2.0856098E1,3.8401073E1,5.0228027E1,5.621674E1,3.035017E1,7.584762E1,1.2013242E2],"categories":[],"categories_nodes":[],"categories_segments":[],"categories_sizes":[],"default_left":[true,true,true,true,true,true,true,true,true,true,true,false,true,false,false,true,true,true,true,true,true,true,true,false,false,true,true,false,true,true,true,false,false,false,false,false,false,false,false,false,false,false,false,false,false,false,false,false,false,false,false,false,false,false,false,false,false,false,false,false,false,false,false],"id":12,"left_children":[1,3,5,7,9,11,13,15,17,19,21,23,25,27,29,31,33,35,37,39,41,43,45,47,49,51,53,55,57,59,61,-1,-1,-1,-1,-1,-1,-1,-1,-1,-1,-1,-1,-1,-1,-1,-1,-1,-1,-1,-1,-1,-1,-1,-1,-1,-1,-1,-1,-1,-1,-1,-1],"loss_changes":[3.83024E6,7.064874E5,8.04375E5,1.1100616E5,2.2445975E5,1.190825E5,1.688835E5,2.368525E4,6.740655E4,1.02165625E5,5.6206875E4,2.1368438E4,1.614125E4,5.5605625E4,4.3945625E4,2.156E4,5.884133E3,3.520393E4,7.975086E3,1.8307547E5,3.2875E4,1.9456534E5,3.9481688E4,3.35442E3,8.940375E3,1.5244375E4,4.5196875E3,1.9608168E4,3.481475E4,6.328328E3,2.7427125E4,0E0,0E0,0E0,0E0,0E0,0E0,0E0,0E0,0E0,0E0,0E0,0E0,0E0,0E0,0E0,0E0,0E0,0E0,0E0,0E0,0E0,0E0,0E0,0E0,0E0,0E0,0E0,0E0,0E0,0E0,0E0,0E0],"parents":[2147483647,0,0,1,1,2,2,3,3,4,4,5,5,6,6,7,7,8,8,9,9,10,10,11,11,12,12,13,13,14,14,15,15,16,16,17,17,18,18,19,19,20,20,21,21,22,22,23,23,24,24,25,25,26,26,27,27,28,28,29,29,30,30],"right_children":[2,4,6,8,10,12,14,16,18,20,22,24,26,28,30,32,34,36,38,40,42,44,46,48,50,52,54,56,58,60,62,-1,-1,-1,-1,-1,-1,-1,-1,-1,-1,-1,-1,-1,-1,-1,-1,-1,-1,-1,-1,-1,-1,-1,-1,-1,-1,-1,-1,-1,-1,-1,-1],"split_conditions":[8.3729004E2,1.4842627E2,2.343575E3,1.8247255E6,2.93945E2,1.48689E3,3.962755E3,4.885E2,2.0205E3,4.285E2,2.8E2,-2.3324843E-2,1.7851675E-2,-2.4165727E-2,-5.8924593E-3,9.306847E-3,6.6415E1,1.525E2,3.4785E1,4.26E2,4.79E2,2.765E2,4.115E2,-8.765982E-2,2.65019E-2,1.875005E3,1.10214E7,-1.3869248E-1,3.1408599E3,2.79E4,4.91283E3,3.587654E-1,6.239926E-1,5.516537E-1,1.245313E0,2.51836E-1,2.0905538E-3,3.1155267E-1,7.1970797E-1,7.522021E-1,-6.660601E0,1.8258072E0,7.41066E-1,1.7538477E0,-2.8054686E0,2.7521157E0,1.5845008E0,-3.8325055E0,2.1192956E0,4.877497E0,7.207173E0,6.709958E0,8.4910345E0,1.0127475E1,-1.2105836E0,-1.8599611E1,6.2568297E0,1.1520323E1,1.5068409E1,1.6865023E1,9.105051E0,2.2754286E1,3.603973E1],"split_indices":[4,3,3,6,4,3,3,7,0,7,7,8,8,8,8,8,4,7,4,7,7,7,7,8,8,4,6,8,3,6,3,0,0,0,0,0,0,0,0,0,0,0,0,0,0,0,0,0,0,0,0,0,0,0,0,0,0,0,0,0,0,0,0],"split_type":[0,0,0,0,0,0,0,0,0,0,0,0,0,0,0,0,0,0,0,0,0,0,0,0,0,0,0,0,0,0,0,0,0,0,0,0,0,0,0,0,0,0,0,0,0,0,0,0,0,0,0,0,0,0,0,0,0,0,0,0,0,0,0],"sum_hessian":[5.54469E5,5.47855E5,6.614E3,4.28352E5,1.19503E5,5.242E3,1.372E3,1.65379E5,2.62973E5,9.4255E4,2.5248E4,3.087E3,2.155E3,1.143E3,2.29E2,1.599E5,5.479E3,2.40097E5,2.2876E4,7.962E4,1.4635E4,1.3668E4,1.158E4,2.12E2,2.875E3,1.901E3,2.54E2,9.3E1,1.05E3,7.7E1,1.52E2,1.24459E5,3.5441E4,1.529E3,3.95E3,7.2979E4,1.67118E5,5.761E3,1.7115E4,7.932E4,3E2,1.1407E4,3.228E3,1.2767E4,9.01E2,7.607E3,3.973E3,8E0,2.04E2,2.714E3,1.61E2,1.173E3,7.28E2,2.51E2,3E0,2E0,9.1E1,5.37E2,5.13E2,6.1E1,1.6E1,1.33E2,1.9E1],"tree_param":{"num_deleted":"0","num_feature":"9","num_nodes":"63","size_leaf_vector":"0"}},{"base_weights":[1.1962743E0,1.0298425E0,2.1804358E1,7.595879E-1,4.143238E0,1.8002813E1,3.8350777E1,4.1460282E-1,1.6068251E0,3.533059E0,8.977351E0,1.5372382E1,2.2503115E1,3.38934E1,5.257337E1,-1.7281255E-1,5.9080577E-1,1.1861261E0,2.645006E0,2.0397613E0,4.9317284E0,7.637805E0,1.1726537E1,1.1389824E1,1.6693253E1,2.3815565E1,2.481966E0,2.2057398E1,3.672792E1,4.9834045E1,1.1071826E2,1.3174827E-2,-1.299669E0,3.8647127E-1,1.122189E0,8.6654186E-1,2.724679E0,1.4873494E0,2.9334345E0,9.423497E0,1.5913677E0,-1.3668549E0,5.5726175E0,5.194277E-1,7.9846587E0,1.0903542E1,1.6773819E1,-1.0028007E1,1.1634585E1,1.6303667E1,3.045703E1,2.2360369E1,7.515977E1,-2.8820255E1,1.2876643E1,-2.1159618E1,2.3660933E1,3.6161312E1,8.6722946E1,4.7408978E1,9.8775116E1],"categories":[],"categories_nodes":[],"categories_segments":[],"categories_sizes":[],"default_left":[true,true,true,true,true,true,true,true,true,true,false,false,true,false,true,true,true,true,true,true,false,false,false,false,true,true,true,false,false,false,false,false,false,false,false,false,false,false,false,false,false,false,false,false,false,false,false,false,false,false,false,false,false,false,false,false,false,false,false,false,false],"id":13,"left_children":[1,3,5,7,9,11,13,15,17,19,21,23,25,27,29,31,33,35,37,39,41,43,45,47,49,51,53,55,57,59,-1,-1,-1,-1,-1,-1,-1,-1,-1,-1,-1,-1,-1,-1,-1,-1,-1,-1,-1,-1,-1,-1,-1,-1,-1,-1,-1,-1,-1,-1,-1],"loss_changes":[1.9017209E6,4.627965E5,2.7872025E5,1.479241E5,1.2955044E5,4.24355E4,5.0773E4,3.7225844E4,6.3958844E4,8.146531E4,1.8040156E4,1.18246875E4,3.4915312E4,2.0460188E4,2.5700875E4,1.7393152E4,3.0039836E4,5.124086E4,1.409625E4,6.2453555E4,8.1314625E4,8.1757656E3,6.5090312E3,3.11525E3,8.6888125E3,9.163956E4,2.7377355E4,9.163156E3,1.13110625E4,1.7748719E4,0E0,0E0,0E0,0E0,0E0,0E0,0E0,0E0,0E0,0E0,0E0,0E0,0E0,0E0,0E0,0E0,0E0,0E0,0E0,0E0,0E0,0E0,0E0,0E0,0E0,0E0,0E0,0E0,0E0,0E0,0E0],"parents":[2147483647,0,0,1,1,2,2,3,3,4,4,5,5,6,6,7,7,8,8,9,9,10,10,11,11,12,12,13,13,14,14,15,15,16,16,17,17,18,18,19,19,20,20,21,21,22,22,23,23,24,24,25,25,26,26,27,27,28,28,29,29],"right_children":[2,4,6,8,10,12,14,16,18,20,22,24,26,28,30,32,34,36,38,40,42,44,46,48,50,52,54,56,58,60,-1,-1,-1,-1,-1,-1,-1,-1,-1,-1,-1,-1,-1,-1,-1,-1,-1,-1,-1,-1,-1,-1,-1,-1,-1,-1,-1,-1,-1,-1,-1],"split_conditions":[1.2102949E3,2.4283167E2,3.0148599E3,1.1073596E2,5.7557495E2,1.917515E3,3.9379849E3,3.5611668E1,7.945075E-3,2.0195E3,7.2809723E-3,-7.2914595E-3,2.89993E3,-1.2729315E-2,5.12555E3,3.2593002E1,2.0195E3,4.215E2,1.03E2,3.65E1,-2.422269E-2,-3.414616E-2,2.9284777E-2,-8.8125944E-2,4.6214536E-2,2.8458E3,3.02717E3,-6.0743026E-2,5.9397545E-2,3.754188E-2,3.321548E1,3.9524483E-3,-3.899007E-1,1.1594138E-1,3.3665672E-1,2.5996256E-1,8.1740373E-1,4.4620484E-1,8.800304E-1,2.8270493E0,4.7741035E-1,-4.100565E-1,1.6717854E0,1.5582833E-1,2.3953977E0,3.2710626E0,5.032146E0,-3.008402E0,3.4903758E0,4.8911004E0,9.137109E0,6.708111E0,2.2547932E1,-8.646077E0,3.862993E0,-6.3478856E0,7.09828E0,1.0848394E1,2.6016886E1,1.4222693E1,2.9632536E1],"split_indices":[3,4,4,3,4,3,4,3,8,0,8,8,4,8,3,3,0,7,7,7,8,8,8,8,8,4,3,8,8,8,0,0,0,0,0,0,0,0,0,0,0,0,0,0,0,0,0,0,0,0,0,0,0,0,0,0,0,0,0,0,0],"split_type":[0,0,0,0,0,0,0,0,0,0,0,0,0,0,0,0,0,0,0,0,0,0,0,0,0,0,0,0,0,0,0,0,0,0,0,0,0,0,0,0,0,0,0,0,0,0,0,0,0,0,0,0,0,0,0,0,0,0,0,0,0],"sum_hessian":[5.54469E5,5.50028E5,4.441E3,5.06098E5,4.393E4,3.613E3,8.28E2,3.59653E5,1.46445E5,3.9008E4,4.922E3,2.283E3,1.33E3,6.33E2,1.95E2,8.2989E4,2.76664E5,1.04216E5,4.2229E4,1.8867E4,2.0141E4,3.312E3,1.61E3,5.71E2,1.712E3,1.248E3,8.2E1,1.24E2,5.09E2,1.88E2,7E0,7.1233E4,1.1756E4,1.99826E5,7.6838E4,8.6293E4,1.7923E4,8.424E3,3.3805E4,1.079E3,1.7788E4,1.86E3,1.8281E4,1.54E2,3.158E3,1.387E3,2.23E2,6E0,5.65E2,1.667E3,4.5E1,1.215E3,3.3E1,2E1,6.2E1,4E0,1.2E2,5.05E2,4E0,1.81E2,7E0],"tree_param":{"num_deleted":"0","num_feature":"9","num_nodes":"61","size_leaf_vector":"0"}},{"base_weights":[8.3770114E-1,7.037534E-1,1.3642651E1,3.125432E-1,1.6525319E0,1.1982404E1,3.258377E1,8.3358127E-1,1.3533019E-1,1.2916354E0,3.78216E0,1.0207175E1,1.8404396E1,2.9423136E1,5.28787E1,-6.217662E0,8.5422736E-1,-4.9534115E-1,3.2391837E-1,4.799712E0,1.1224037E0,3.4361298E0,6.6363335E0,8.743561E0,1.2843692E1,8.012145E0,2.058896E1,4.2883656E1,2.5001648E1,1.0393934E1,5.9095387E1,-6.61824E0,-3.4081178E0,8.034303E-1,2.3786871E0,8.151883E-1,-6.434242E-1,-9.615243E-1,3.9747265E-1,3.552764E0,6.329162E0,-2.929621E0,1.4453084E0,2.495296E0,4.076079E0,2.9860919E0,8.229774E0,9.215935E0,2.6137428E0,2.327842E1,1.201874E1,-5.4070965E1,8.9123335E0,2.0044914E1,6.112752E1,3.1616251E1,8.524571E1,-1.793932E1,3.0100733E1,2.979453E1,-1.1085449E1,5.1611763E1,9.473929E1],"categories":[],"categories_nodes":[],"categories_segments":[],"categories_sizes":[],"default_left":[true,true,true,true,true,true,false,true,true,true,true,true,false,true,true,true,true,true,true,true,true,true,false,true,true,false,false,true,true,false,false,false,false,false,false,false,false,false,false,false,false,false,false,false,false,false,false,false,false,false,false,false,false,false,false,false,false,false,false,false,false,false,false],"id":14,"left_children":[1,3,5,7,9,11,13,15,17,19,21,23,25,27,29,31,33,35,37,39,41,43,45,47,49,51,53,55,57,59,61,-1,-1,-1,-1,-1,-1,-1,-1,-1,-1,-1,-1,-1,-1,-1,-1,-1,-1,-1,-1,-1,-1,-1,-1,-1,-1,-1,-1,-1,-1,-1,-1],"loss_changes":[9.510136E5,2.0367294E5,1.8011488E5,3.58747E4,1.2312241E5,5.9995438E4,2.8079031E4,1.4360578E4,3.44829E4,8.132192E4,2.2904062E4,1.5855625E4,2.5761344E4,2.2853094E4,1.549675E4,3.015703E2,7.6118047E3,1.2952377E4,2.1102578E4,1.2000156E4,1.7099612E5,1.2456609E4,1.4568883E4,7.689703E3,1.241725E4,1.1659189E4,1.9572438E4,4.4081266E4,6.732267E4,4.0807014E3,9.247859E3,0E0,0E0,0E0,0E0,0E0,0E0,0E0,0E0,0E0,0E0,0E0,0E0,0E0,0E0,0E0,0E0,0E0,0E0,0E0,0E0,0E0,0E0,0E0,0E0,0E0,0E0,0E0,0E0,0E0,0E0,0E0,0E0],"parents":[2147483647,0,0,1,1,2,2,3,3,4,4,5,5,6,6,7,7,8,8,9,9,10,10,11,11,12,12,13,13,14,14,15,15,16,16,17,17,18,18,19,19,20,20,21,21,22,22,23,23,24,24,25,25,26,26,27,27,28,28,29,29,30,30],"right_children":[2,4,6,8,10,12,14,16,18,20,22,24,26,28,30,32,34,36,38,40,42,44,46,48,50,52,54,56,58,60,62,-1,-1,-1,-1,-1,-1,-1,-1,-1,-1,-1,-1,-1,-1,-1,-1,-1,-1,-1,-1,-1,-1,-1,-1,-1,-1,-1,-1,-1,-1,-1,-1],"split_conditions":[1.02302E3,1.24165E2,3.339775E3,1.371975E6,2.0205E3,2.119425E3,2.0410609E-2,5.245E0,2.0175E3,2.4E1,4.11135E2,1.68922E3,-1.4531588E-2,3.54579E3,1.5E0,3.455E0,4.885E2,5.55E1,-3.6455557E-2,1.78965E2,4.85E1,1.73935E2,-7.7234153E-3,1.5470615E3,1.68934E3,-1.3869248E-1,6.463362E-2,3.4848599E3,3.61746E3,2.6713958E-2,3.9217383E-2,-1.9854721E0,-1.0224354E0,2.410291E-1,7.136062E-1,2.445565E-1,-1.9302727E-1,-2.884573E-1,1.192418E-1,1.0658293E0,1.8987488E0,-8.7888634E-1,4.3359256E-1,7.485888E-1,1.2228237E0,8.958276E-1,2.4689324E0,2.7647805E0,7.841229E-1,6.983526E0,3.605622E0,-1.622129E1,2.6737E0,6.0134745E0,1.8338257E1,9.484876E0,2.5573715E1,-5.381796E0,9.03022E0,8.938359E0,-3.325635E0,1.5483529E1,2.8421787E1],"split_indices":[4,3,4,6,0,3,8,4,0,7,4,3,8,4,1,3,7,7,8,4,7,4,8,4,4,8,8,4,4,8,8,0,0,0,0,0,0,0,0,0,0,0,0,0,0,0,0,0,0,0,0,0,0,0,0,0,0,0,0,0,0,0,0],"split_type":[0,0,0,0,0,0,0,0,0,0,0,0,0,0,0,0,0,0,0,0,0,0,0,0,0,0,0,0,0,0,0,0,0,0,0,0,0,0,0,0,0,0,0,0,0,0,0,0,0,0,0,0,0,0,0,0,0,0,0,0,0,0,0],"sum_hessian":[5.54469E5,5.4873E5,5.739E3,3.88529E5,1.60201E5,5.278E3,4.61E2,9.8606E4,2.89923E5,1.36988E5,2.3213E4,4.137E3,1.141E3,4.01E2,6E1,2.87E2,9.8319E4,6.6738E4,2.23185E5,6.303E3,1.30685E5,2.0705E4,2.508E3,2.663E3,1.474E3,1.99E2,9.42E2,9.7E1,3.04E2,8E0,5.2E1,2.5E2,3.7E1,9.515E4,3.169E3,6.775E3,5.9963E4,1.2079E4,2.11106E5,3.474E3,2.829E3,9.645E3,1.2104E5,8.384E3,1.2321E4,7.63E2,1.745E3,2.472E3,1.91E2,1.06E2,1.368E3,2E0,1.97E2,9.31E2,1.1E1,7.8E1,1.9E1,3.2E1,2.72E2,4E0,4E0,4.5E1,7E0],"tree_param":{"num_deleted":"0","num_feature":"9","num_nodes":"63","size_leaf_vector":"0"}},{"base_weights":[5.8660525E-1,4.675541E-1,8.264603E0,1.1190027E0,1.4438018E-1,6.6028643E0,1.6575684E1,6.891421E-1,1.8479613E0,1.3519684E-2,1.3882985E0,4.2398233E0,7.927445E0,1.5694046E1,4.2377018E1,-1.293517E0,7.3136103E-1,1.4536572E0,3.8878932E0,-4.0453073E-1,3.2468903E-1,1.099856E0,2.5441556E0,-1.175621E0,4.811376E0,6.6655765E0,1.0142235E1,1.5362491E1,7.782101E1,3.5834076E1,8.8862305E1,-4.596302E0,-9.02791E-1,2.3507354E0,6.693414E-1,1.736569E0,-1.3502265E1,4.7837033E0,7.864073E-1,-5.968881E-1,3.828587E-1,1.14503615E-1,9.3265736E-1,7.732562E-1,1.4881353E0,6.247886E-1,3.02891E0,-4.9673772E-1,-2.1055725E1,1.2788206E1,4.453532E0,1.5881562E1,6.0314074E0,9.998258E0,4.2281006E1,3.1647809E0,1.6552118E1,2.6905518E1,9.280611E1,3.2556152E0,3.8256634E1],"categories":[],"categories_nodes":[],"categories_segments":[],"categories_sizes":[],"default_left":[true,true,true,true,true,false,true,true,true,true,true,false,true,false,true,true,true,true,true,true,true,true,false,true,true,true,true,false,true,false,false,false,false,false,false,false,false,false,false,false,false,false,false,false,false,false,false,false,false,false,false,false,false,false,false,false,false,false,false,false,false],"id":15,"left_children":[1,3,5,7,9,11,13,15,17,19,21,23,25,27,29,31,33,35,37,39,41,43,45,47,49,51,53,55,57,59,-1,-1,-1,-1,-1,-1,-1,-1,-1,-1,-1,-1,-1,-1,-1,-1,-1,-1,-1,-1,-1,-1,-1,-1,-1,-1,-1,-1,-1,-1,-1],"loss_changes":[5.068229E5,1.1495092E5,1.1681325E5,5.6730547E4,5.9407605E4,2.2055062E4,3.1408812E4,9.53427E3,5.4013938E4,4.2956496E4,1.1579125E4,7.858207E3,1.25675625E4,2.6921438E4,1.0806625E4,3.0607498E3,1.119841E4,2.3816431E5,3.0219047E4,2.1342482E4,2.4191072E4,3.5246016E3,6.4524414E3,3.2691345E3,6.494035E3,1.6753898E4,7.1612812E3,1.9667688E4,2.8438203E3,3.1902266E3,0E0,0E0,0E0,0E0,0E0,0E0,0E0,0E0,0E0,0E0,0E0,0E0,0E0,0E0,0E0,0E0,0E0,0E0,0E0,0E0,0E0,0E0,0E0,0E0,0E0,0E0,0E0,0E0,0E0,0E0,0E0],"parents":[2147483647,0,0,1,1,2,2,3,3,4,4,5,5,6,6,7,7,8,8,9,9,10,10,11,11,12,12,13,13,14,14,15,15,16,16,17,17,18,18,19,19,20,20,21,21,22,22,23,23,24,24,25,25,26,26,27,27,28,28,29,29],"right_children":[2,4,6,8,10,12,14,16,18,20,22,24,26,28,30,32,34,36,38,40,42,44,46,48,50,52,54,56,58,60,-1,-1,-1,-1,-1,-1,-1,-1,-1,-1,-1,-1,-1,-1,-1,-1,-1,-1,-1,-1,-1,-1,-1,-1,-1,-1,-1,-1,-1,-1,-1],"split_conditions":[6.4157E2,1.28225E6,2.3086401E3,1.54905E2,2.0205E3,-2.7190354E-3,4.68529E3,1.8280277E1,4.285E2,5.5E0,1.54385E2,-3.4194164E-2,1.326635E3,9.450659E-2,5.065005E3,4.365E0,2.7815E5,4.26E2,4.79E2,1.3846113E-2,2.0195E3,6.5435E1,-1.25111705E-2,2.03965E3,6.6878503E2,6.6874E2,9.168135E-2,-2.3794934E-2,2.817355E3,-2.575688E-2,2.6658693E1,-1.3788906E0,-2.708373E-1,7.0522064E-1,2.0080243E-1,5.2097076E-1,-4.0506797E0,1.435111E0,2.359222E-1,-1.7906645E-1,1.14857614E-1,3.4351084E-2,2.7979723E-1,2.3197687E-1,4.464406E-1,1.8743658E-1,9.08673E-1,-1.4902133E-1,-6.3167176E0,3.836462E0,1.3360597E0,4.7644687E0,1.8094223E0,2.9994774E0,1.2684302E1,9.494343E-1,4.965636E0,8.071655E0,2.7841833E1,9.7668463E-1,1.1476991E1],"split_indices":[3,6,3,3,0,8,4,3,7,1,4,8,3,8,4,3,6,7,7,8,0,4,8,3,3,3,8,8,3,8,0,0,0,0,0,0,0,0,0,0,0,0,0,0,0,0,0,0,0,0,0,0,0,0,0,0,0,0,0,0,0],"split_type":[0,0,0,0,0,0,0,0,0,0,0,0,0,0,0,0,0,0,0,0,0,0,0,0,0,0,0,0,0,0,0,0,0,0,0,0,0,0,0,0,0,0,0,0,0,0,0,0,0,0,0,0,0,0,0,0,0,0,0,0,0],"sum_hessian":[5.54469E5,5.46004E5,8.465E3,1.81048E5,3.64956E5,7.056E3,1.409E3,1.1389E5,6.7158E4,3.30218E5,3.4738E4,2.536E3,4.52E3,1.364E3,4.5E1,2.374E3,1.11516E5,5.6281E4,1.0877E4,1.40909E5,1.89309E5,2.7802E4,6.936E3,2.42E2,2.294E3,2.882E3,1.638E3,1.358E3,6E0,4.1E1,4E0,2.5E2,2.124E3,4.112E3,1.07404E5,5.5237E4,1.044E3,8.439E3,2.438E3,1.13244E5,2.7665E4,1.40676E5,4.8633E4,1.5102E4,1.27E4,1.399E3,5.537E3,2.35E2,7E0,9.7E1,2.197E3,1.84E2,2.698E3,1.632E3,6E0,1.21E2,1.237E3,2E0,4E0,3E0,3.8E1],"tree_param":{"num_deleted":"0","num_feature":"9","num_nodes":"61","size_leaf_vector":"0"}},{"base_weights":[4.1080654E-1,3.141687E-1,5.2944145E0,-5.259644E-2,6.478365E-1,4.7277794E0,1.7498638E1,-2.1238205E0,8.60737E-3,4.87585E-1,2.080137E0,3.8508682E0,7.7697496E0,1.419192E1,2.7110205E1,-1.2743628E0,-5.736266E0,-2.0247923E-1,4.7265804E-1,1.6469531E0,4.1160148E-1,1.2924978E0,2.9265504E0,1.0820626E1,3.4144561E0,7.0889544E0,1.5653462E1,2.2935406E1,1.0979665E1,2.8802225E1,-1.7905127E1,-2.8854887E0,-9.601338E-1,-9.1819315E0,-4.466875E0,-1.827066E-1,-5.8059325E0,-6.876943E-2,8.149572E-1,8.8912743E-1,2.2351806E0,-1.2846473E-1,5.737001E-1,8.752373E-1,4.351761E0,2.4677253E0,6.317568E0,-3.0914897E-2,1.6109133E1,-6.645547E0,3.813378E0,1.4072211E1,6.405755E0,1.4518989E1,4.1941162E1,1.7525627E1,6.716597E1,-2.7715124E1,1.410637E1,2.2864902E1,4.8703434E1,8.638509E-1,-3.0705729E1],"categories":[],"categories_nodes":[],"categories_segments":[],"categories_sizes":[],"default_left":[true,true,true,false,true,true,false,true,true,true,true,true,false,true,true,false,false,true,true,true,true,true,true,true,true,true,false,true,true,true,true,false,false,false,false,false,false,false,false,false,false,false,false,false,false,false,false,false,false,false,false,false,false,false,false,false,false,false,false,false,false,false,false],"id":16,"left_children":[1,3,5,7,9,11,13,15,17,19,21,23,25,27,29,31,33,35,37,39,41,43,45,47,49,51,53,55,57,59,61,-1,-1,-1,-1,-1,-1,-1,-1,-1,-1,-1,-1,-1,-1,-1,-1,-1,-1,-1,-1,-1,-1,-1,-1,-1,-1,-1,-1,-1,-1,-1,-1],"loss_changes":[2.6167562E5,6.6538266E4,7.431941E4,3.283401E4,6.5346156E4,2.740036E4,1.4775625E4,2.2804809E4,2.4643387E4,2.2555945E4,1.9094938E4,2.4247883E4,1.2233594E4,9.774984E3,9.731898E3,3.0449307E3,6.148051E3,1.9157727E4,1.4577756E4,7.018508E3,2.10375E4,1.8940875E4,2.1468062E4,2.6973074E4,3.0184203E4,1.0019516E4,4.818793E3,2.1554242E4,3.2210598E4,1.2711109E4,1.2277963E3,0E0,0E0,0E0,0E0,0E0,0E0,0E0,0E0,0E0,0E0,0E0,0E0,0E0,0E0,0E0,0E0,0E0,0E0,0E0,0E0,0E0,0E0,0E0,0E0,0E0,0E0,0E0,0E0,0E0,0E0,0E0,0E0],"parents":[2147483647,0,0,1,1,2,2,3,3,4,4,5,5,6,6,7,7,8,8,9,9,10,10,11,11,12,12,13,13,14,14,15,15,16,16,17,17,18,18,19,19,20,20,21,21,22,22,23,23,24,24,25,25,26,26,27,27,28,28,29,29,30,30],"right_children":[2,4,6,8,10,12,14,16,18,20,22,24,26,28,30,32,34,36,38,40,42,44,46,48,50,52,54,56,58,60,62,-1,-1,-1,-1,-1,-1,-1,-1,-1,-1,-1,-1,-1,-1,-1,-1,-1,-1,-1,-1,-1,-1,-1,-1,-1,-1,-1,-1,-1,-1,-1,-1],"split_conditions":[5.28805E2,3.049427E-4,3.4044648E3,-5.4165527E-2,2.14195E2,1.74225E3,1.2196356E-2,1.3679001E2,2.0195E3,5.15367E5,2.0195E3,5.48765E2,2.2353351E-2,3.54579E3,2.95E1,-1.1349907E-1,-8.6780176E-2,4.38595E2,-1.5019499E-2,2.345E2,2.0175E3,4.285E2,4.19985E2,2.0195E3,5.47145E2,1.77973E3,9.454659E-2,3.50601E3,3.687625E3,2.15E1,3.85187E3,-8.6564666E-1,-2.8804016E-1,-2.7545795E0,-1.3400626E0,-5.481198E-2,-1.7417798E0,-2.063083E-2,2.4448717E-1,2.6673824E-1,6.705542E-1,-3.853942E-2,1.7211002E-1,2.625712E-1,1.3055283E0,7.403176E-1,1.8952705E0,-9.27447E-3,4.83274E0,-1.9936641E0,1.1440135E0,4.2216635E0,1.9217266E0,4.3556967E0,1.2582349E1,5.2576885E0,2.0149792E1,-8.314538E0,4.231911E0,6.859471E0,1.4611031E1,2.5915527E-1,-9.211719E0],"split_indices":[3,8,3,8,3,4,8,3,0,6,0,3,8,4,2,8,8,3,8,7,0,7,3,0,4,4,8,4,3,2,3,0,0,0,0,0,0,0,0,0,0,0,0,0,0,0,0,0,0,0,0,0,0,0,0,0,0,0,0,0,0,0,0],"split_type":[0,0,0,0,0,0,0,0,0,0,0,0,0,0,0,0,0,0,0,0,0,0,0,0,0,0,0,0,0,0,0,0,0,0,0,0,0,0,0,0,0,0,0,0,0,0,0,0,0,0,0,0,0,0,0,0,0,0,0,0,0,0,0],"sum_hessian":[5.54469E5,5.43711E5,1.0758E4,2.5901E5,2.84701E5,1.0282E4,4.76E2,7.433E3,2.51577E5,2.56054E5,2.8647E4,7.983E3,2.299E3,3.56E2,1.2E2,6.019E3,1.414E3,1.7292E5,7.8657E4,1.5748E4,2.40306E5,1.484E4,1.3807E4,4.69E2,7.514E3,2.118E3,1.81E2,9.4E1,2.62E2,1.16E2,4E0,9.81E2,5.038E3,3.79E2,1.035E3,1.72313E5,6.07E2,3.0467E4,4.819E4,6.883E3,8.865E3,5.5476E4,1.8483E5,1.306E4,1.78E3,1.2163E4,1.644E3,1.54E2,3.15E2,2.86E2,7.228E3,1.87E2,1.931E3,1.75E2,6E0,8.5E1,9E0,1.9E1,2.43E2,9.1E1,2.5E1,2E0,2E0],"tree_param":{"num_deleted":"0","num_feature":"9","num_nodes":"63","size_leaf_vector":"0"}},{"base_weights":[2.8767106E-1,2.3050228E-1,4.508255E0,7.6922023E-1,6.9958255E-2,3.795563E0,1.05267515E1,1.7075242E-1,1.1903306E0,-6.85262E-2,5.577857E-1,1.1419516E0,4.501589E0,9.992544E0,4.7158512E1,9.624097E-1,-1.5804524E0,2.5762641E0,8.4259254E-1,-1.5016064E-1,7.634049E-1,5.2182364E-1,5.2950172E0,1.4875433E0,-1.0903289E1,4.4162636E0,2.5472195E1,2.2201487E1,8.841934E0,3.175906E1,7.763737E1,3.5842996E0,5.068054E-1,-7.392789E0,-3.2598877E-1,1.4278954E0,4.838804E0,-2.3062031E0,1.0188174E0,1.2496782E-1,-4.1411301E-1,4.5036802E-1,1.1658249E0,-9.7106236E-1,6.257516E-1,5.5865135E0,-9.428977E0,1.3064312E0,3.6203823E1,-3.0398388E1,-4.0414796E0,3.771434E0,6.360771E0,3.281725E1,1.6400146E0,1.702317E1,3.1142546E1,-1.0589417E1,1.0081373E1],"categories":[],"categories_nodes":[],"categories_segments":[],"categories_sizes":[],"default_left":[true,true,true,true,true,false,true,true,true,true,true,true,true,true,true,true,true,true,true,true,true,true,false,true,true,true,true,true,true,false,false,false,false,false,false,false,false,false,false,false,false,false,false,false,false,false,false,false,false,false,false,false,false,false,false,false,false,false,false],"id":17,"left_children":[1,3,5,7,9,11,13,15,17,19,21,23,25,27,29,31,33,35,37,39,41,43,45,47,49,51,53,55,57,-1,-1,-1,-1,-1,-1,-1,-1,-1,-1,-1,-1,-1,-1,-1,-1,-1,-1,-1,-1,-1,-1,-1,-1,-1,-1,-1,-1,-1,-1],"loss_changes":[1.3378461E5,4.7314133E4,3.1744016E4,3.165364E4,2.8472543E4,1.2410664E4,1.48708125E4,7.192141E4,3.5528508E4,2.2294521E4,1.5873141E4,5.819073E3,9.252781E3,1.0676648E4,2.697246E3,4.2675668E4,1.1776042E5,3.8413117E4,3.2706828E4,2.1709316E4,3.694746E3,1.435052E4,3.0656504E3,8.478609E3,5.09424E3,6.5137266E3,3.6222012E3,2.5256309E3,1.7182297E4,0E0,0E0,0E0,0E0,0E0,0E0,0E0,0E0,0E0,0E0,0E0,0E0,0E0,0E0,0E0,0E0,0E0,0E0,0E0,0E0,0E0,0E0,0E0,0E0,0E0,0E0,0E0,0E0,0E0,0E0],"parents":[2147483647,0,0,1,1,2,2,3,3,4,4,5,5,6,6,7,7,8,8,9,9,10,10,11,11,12,12,13,13,14,14,15,15,16,16,17,17,18,18,19,19,20,20,21,21,22,22,23,23,24,24,25,25,26,26,27,27,28,28],"right_children":[2,4,6,8,10,12,14,16,18,20,22,24,26,28,30,32,34,36,38,40,42,44,46,48,50,52,54,56,58,-1,-1,-1,-1,-1,-1,-1,-1,-1,-1,-1,-1,-1,-1,-1,-1,-1,-1,-1,-1,-1,-1,-1,-1,-1,-1,-1,-1,-1,-1],"split_conditions":[7.21125E2,9.4525E5,3.14212E3,2.185E2,1.1849752E-2,-9.059045E-3,4.939115E3,1.565E2,2.735E2,2.0205E3,4.03065E2,2.901865E3,9.0660945E-2,3.188875E3,5.2165547E3,3.4075E5,1.655E2,1.55745E2,2.905E2,2.475E2,3.5E0,1.8275002E1,1.1444827E-1,2.8358901E3,2.957115E3,1.84747E3,6E0,3.097145E3,3.2215E3,9.527719E0,2.329121E1,1.07529E0,1.5204163E-1,-2.2178369E0,-9.7796634E-2,4.2836866E-1,1.4516412E0,-6.91861E-1,3.0564523E-1,3.749035E-2,-1.2423391E-1,1.3511041E-1,3.4974748E-1,-2.913187E-1,1.877255E-1,1.6759541E0,-2.8286932E0,3.9192936E-1,1.0861147E1,-9.119516E0,-1.212444E0,1.1314303E0,1.9082314E0,9.845175E0,4.9200442E-1,5.106951E0,9.342764E0,-3.1768253E0,3.0244122E0],"split_indices":[4,6,3,7,8,8,4,7,7,0,4,4,8,3,3,6,7,4,7,7,1,3,8,4,4,3,1,4,3,0,0,0,0,0,0,0,0,0,0,0,0,0,0,0,0,0,0,0,0,0,0,0,0,0,0,0,0,0,0],"split_type":[0,0,0,0,0,0,0,0,0,0,0,0,0,0,0,0,0,0,0,0,0,0,0,0,0,0,0,0,0,0,0,0,0,0,0,0,0,0,0,0,0,0,0,0,0,0,0,0,0,0,0,0,0,0,0,0,0,0,0],"sum_hessian":[5.54469E5,5.4706E5,7.409E3,1.25599E5,4.21461E5,6.626E3,7.83E2,5.1876E4,7.3723E4,3.28272E5,9.3189E4,1.393E3,5.233E3,7.73E2,1E1,3.5726E4,1.615E4,1.4786E4,5.8937E4,2.98939E5,2.9333E4,9.2488E4,7.01E2,1.355E3,3.8E1,5.213E3,2E1,6.5E1,7.08E2,8E0,2E0,5.288E3,3.0438E4,2.866E3,1.3284E4,9.809E3,4.977E3,3.123E3,5.5814E4,1.46371E5,1.52568E5,1.65E4,1.2833E4,6.019E3,8.6469E4,6.88E2,1.3E1,1.349E3,6E0,9E0,2.9E1,3.917E3,1.296E3,1.5E1,5E0,4.3E1,2.2E1,4.2E1,6.66E2],"tree_param":{"num_deleted":"0","num_feature":"9","num_nodes":"59","size_leaf_vector":"0"}},{"base_weights":[2.014797E-1,1.3867208E-1,2.31672E0,3.4660453E-1,-1.2102868E-1,-5.8117146E0,2.561649E0,1.382773E0,2.5219852E-1,-4.0179273E-1,1.00553095E-1,2.1814148E1,-6.2785153E0,2.2200706E0,7.335671E0,9.9737394E-1,3.6890674E0,-2.3877883E0,3.2502684E-1,-2.1406236E-1,-1.7503046E0,-1.3784041E0,1.6702385E-1,-4.2251587E0,3.8282764E1,-4.7618855E1,-5.7207947E0,4.190283E0,1.5045499E0,6.623962E0,2.3617142E1,1.3382638E0,-1.7608688E0,6.0433407E0,2.6223128E0,-3.449641E-1,-9.998629E0,1.8432385E-1,1.0196185E0,2.7897647E-1,-4.0604484E-1,-2.322657E0,4.68788E0,-2.6248784E0,-1.1097146E0,-1.7629428E0,2.0170756E-1,-1.42922735E1,-4.4109473E0,4.2835207E0,-1.998903E1,-1.3734683E1,2.9775362E0,1.5184097E1,5.1322594E0,1.6769133E1,4.201416E1],"categories":[],"categories_nodes":[],"categories_segments":[],"categories_sizes":[],"default_left":[true,true,false,true,true,true,true,true,true,true,true,false,true,true,true,true,true,true,true,true,true,true,false,false,false,false,false,true,true,true,false,false,false,false,false,false,false,false,false,false,false,false,false,false,false,false,false,false,false,false,false,false,false,false,false,false,false],"id":18,"left_children":[1,3,5,7,9,11,13,15,17,19,21,23,25,27,29,31,33,35,37,39,41,43,45,-1,-1,-1,47,49,51,53,55,-1,-1,-1,-1,-1,-1,-1,-1,-1,-1,-1,-1,-1,-1,-1,-1,-1,-1,-1,-1,-1,-1,-1,-1,-1,-1],"loss_changes":[7.36628E4,2.9078184E4,3.1847242E4,2.9252582E4,1.4895881E4,6.1721826E3,2.5295492E4,2.2191637E4,5.2696414E4,2.6736508E4,1.3156023E4,3.5924014E3,1.03565625E4,2.0416422E4,1.1848391E4,2.0121033E4,8.962516E3,1.1439584E5,2.6066662E4,8.775467E3,4.7568367E4,1.9248555E3,8.573021E3,0E0,0E0,0E0,5.05662E3,8.785461E3,2.3863202E5,1.2614633E4,4.7127266E3,0E0,0E0,0E0,0E0,0E0,0E0,0E0,0E0,0E0,0E0,0E0,0E0,0E0,0E0,0E0,0E0,0E0,0E0,0E0,0E0,0E0,0E0,0E0,0E0,0E0,0E0],"parents":[2147483647,0,0,1,1,2,2,3,3,4,4,5,5,6,6,7,7,8,8,9,9,10,10,11,11,12,12,13,13,14,14,15,15,16,16,17,17,18,18,19,19,20,20,21,21,22,22,26,26,27,27,28,28,29,29,30,30],"right_children":[2,4,6,8,10,12,14,16,18,20,22,24,26,28,30,32,34,36,38,40,42,44,46,-1,-1,-1,48,50,52,54,56,-1,-1,-1,-1,-1,-1,-1,-1,-1,-1,-1,-1,-1,-1,-1,-1,-1,-1,-1,-1,-1,-1,-1,-1,-1,-1],"split_conditions":[4.0263E2,2.38815E6,-3.775517E-2,3.85E1,2.0185E3,2.63E4,2.66794E3,3.4E1,4.85E1,1.13848076E2,1.3475E1,-4.598558E-2,3.14E4,6.4E1,4.791995E3,3.05E1,6.7715E5,4.65E1,4.285E2,1.405E2,1.0373276E7,9.0425E0,-7.2789624E-2,-1.2675476E0,1.148483E1,-1.4285657E1,-7.515459E-2,2.498855E3,7.85E1,2.89993E3,1.3511475E-2,4.0147915E-1,-5.2826065E-1,1.8130022E0,7.866939E-1,-1.0348923E-1,-2.9995887E0,5.5297155E-2,3.0588555E-1,8.3692946E-2,-1.21813454E-1,-6.9679713E-1,1.4063641E0,-7.8746355E-1,-3.329144E-1,-5.2888286E-1,6.051227E-2,-4.287682E0,-1.3232843E0,1.2850562E0,-5.9967093E0,-4.120405E0,8.932609E-1,4.555229E0,1.5396779E0,5.03074E0,1.2604249E1],"split_indices":[4,6,8,7,0,6,5,7,7,3,3,8,6,7,3,7,6,7,7,7,6,3,8,0,0,0,8,3,7,4,8,0,0,0,0,0,0,0,0,0,0,0,0,0,0,0,0,0,0,0,0,0,0,0,0,0,0],"split_type":[0,0,0,0,0,0,0,0,0,0,0,0,0,0,0,0,0,0,0,0,0,0,0,0,0,0,0,0,0,0,0,0,0,0,0,0,0,0,0,0,0,0,0,0,0,0,0,0,0,0,0,0,0,0,0,0,0],"sum_hessian":[5.54469E5,5.38481E5,1.5988E4,2.99046E5,2.39435E5,4.67E2,1.5521E4,2.497E4,2.74076E5,1.05613E5,1.33822E5,7E0,4.6E2,1.4486E4,1.035E3,2.1396E4,3.574E3,7.357E3,2.66719E5,9.2708E4,1.2905E4,5.755E3,1.28067E5,3E0,4E0,5E0,4.55E2,3.858E3,1.0628E4,9.93E2,4.2E1,1.9043E4,2.353E3,1.113E3,2.461E3,5.801E3,1.556E3,2.21792E5,4.4927E4,2.5982E4,6.6726E4,1.1852E4,1.053E3,1.019E3,4.736E3,2.26E3,1.25807E5,5.9E1,3.96E2,3.844E3,1.4E1,9.36E2,9.692E3,1.46E2,8.47E2,3.2E1,1E1],"tree_param":{"num_deleted":"0","num_feature":"9","num_nodes":"57","size_leaf_vector":"0"}},{"base_weights":[1.410441E-1,7.7010125E-2,1.3059338E0,-6.4302094E-2,4.072624E-1,6.6151005E-1,2.7887251E0,-1.7588659E-1,6.896159E-1,-5.3837772E-2,5.742574E-1,-4.2908244E0,8.6471945E-1,2.4756544E0,7.9948473E0,-2.01602E-1,1.5482455E0,4.4037035E-1,1.4485971E0,-1.2385073E0,1.9683408E-2,4.570206E-1,1.3546976E0,-1.1395547E1,-3.478817E0,2.9004526E-1,1.9398348E0,3.9968865E0,2.0494578E0,6.518402E0,2.0476065E1,-1.8763952E-1,-6.7318487E0,1.1998949E0,3.633468E0,1.4487952E-1,6.9462776E-1,1.7171016E0,1.24608696E-1,-1.9686024E0,-8.793751E-1,2.744917E-1,-1.9761455E-1,5.1362347E-2,6.04392E-1,9.931537E-1,1.9464055E0,-3.9962524E1,-9.784477E0,-4.9982114E0,-2.174691E-2,2.3290894E0,-7.0843416E-1,3.1723278E0,-7.1398765E-1,5.183843E0,2.1358607E0,-9.584626E0,2.6104183E0,2.3248075E1,5.8402605E0,1.4618001E1,4.0981754E1],"categories":[],"categories_nodes":[],"categories_segments":[],"categories_sizes":[],"default_left":[true,true,false,true,true,false,true,true,true,true,false,false,true,true,false,true,true,true,true,true,true,true,true,true,true,true,true,true,true,true,true,false,false,false,false,false,false,false,false,false,false,false,false,false,false,false,false,false,false,false,false,false,false,false,false,false,false,false,false,false,false,false,false],"id":19,"left_children":[1,3,5,7,9,11,13,15,17,19,21,23,25,27,29,31,33,35,37,39,41,43,45,47,49,51,53,55,57,59,61,-1,-1,-1,-1,-1,-1,-1,-1,-1,-1,-1,-1,-1,-1,-1,-1,-1,-1,-1,-1,-1,-1,-1,-1,-1,-1,-1,-1,-1,-1,-1,-1],"loss_changes":[4.135921E4,2.4528152E4,2.7604836E4,3.0965227E4,1.2127674E4,2.0271816E4,1.4244953E4,1.4215919E4,8.976551E3,3.647353E3,1.0578547E4,4.5410137E3,1.1952808E4,5.3451836E3,9.006736E3,2.880355E4,3.4183828E3,2.6839448E3,4.170119E3,6.398738E2,2.1832664E3,6.0095957E3,3.2283867E3,3.3368828E3,3.7502852E3,2.5672861E4,2.2044303E4,3.9783027E3,4.213247E4,4.912791E3,5.6473574E3,0E0,0E0,0E0,0E0,0E0,0E0,0E0,0E0,0E0,0E0,0E0,0E0,0E0,0E0,0E0,0E0,0E0,0E0,0E0,0E0,0E0,0E0,0E0,0E0,0E0,0E0,0E0,0E0,0E0,0E0,0E0,0E0],"parents":[2147483647,0,0,1,1,2,2,3,3,4,4,5,5,6,6,7,7,8,8,9,9,10,10,11,11,12,12,13,13,14,14,15,15,16,16,17,17,18,18,19,19,20,20,21,21,22,22,23,23,24,24,25,25,26,26,27,27,28,28,29,29,30,30],"right_children":[2,4,6,8,10,12,14,16,18,20,22,24,26,28,30,32,34,36,38,40,42,44,46,48,50,52,54,56,58,60,62,-1,-1,-1,-1,-1,-1,-1,-1,-1,-1,-1,-1,-1,-1,-1,-1,-1,-1,-1,-1,-1,-1,-1,-1,-1,-1,-1,-1,-1,-1,-1,-1],"split_conditions":[3.1572E2,8.5E0,8.781829E-3,2.0205E3,4.8636E1,-4.008483E-2,2.1321948E3,4.955E2,1.5511499E2,1.32575E1,1.553442E-2,-8.372633E-2,3.185E2,6.4E1,3.8326554E-2,4.945E2,5.015E2,6.5835E1,4.295E2,9.952499E0,2.39E2,2.0175E3,1.23994995E2,5.83E4,5.6428E2,6.4E1,4.215E2,1.43065E6,7.85E1,2.24975E3,3.544645E3,-5.629186E-2,-2.0195546E0,3.5996848E-1,1.0900404E0,4.3463856E-2,2.0838834E-1,5.151305E-1,3.738261E-2,-5.9058076E-1,-2.6381254E-1,8.234751E-2,-5.9284367E-2,1.5408705E-2,1.813176E-1,2.9794613E-1,5.839217E-1,-1.1988758E1,-2.9353433E0,-1.4994634E0,-6.524073E-3,6.9872683E-1,-2.1253026E-1,9.5169836E-1,-2.1419631E-1,1.555153E0,6.407582E-1,-2.875388E0,7.831255E-1,6.974423E0,1.7520782E0,4.3854003E0,1.2294527E1],"split_indices":[3,1,8,0,3,8,4,7,4,3,8,8,7,7,8,7,7,4,7,3,7,0,3,6,4,7,7,6,7,3,3,0,0,0,0,0,0,0,0,0,0,0,0,0,0,0,0,0,0,0,0,0,0,0,0,0,0,0,0,0,0,0,0],"split_type":[0,0,0,0,0,0,0,0,0,0,0,0,0,0,0,0,0,0,0,0,0,0,0,0,0,0,0,0,0,0,0,0,0,0,0,0,0,0,0,0,0,0,0,0,0,0,0,0,0,0,0,0,0,0,0,0,0,0,0,0,0,0,0],"sum_hessian":[5.54469E5,5.25579E5,2.889E4,3.68081E5,1.57498E5,2.0139E4,8.751E3,3.20627E5,4.7454E4,4.1875E4,1.15623E5,7.93E2,1.9346E4,8.256E3,4.95E2,3.15916E5,4.711E3,3.5724E4,1.173E4,2.446E3,3.9429E4,1.00524E5,1.5099E4,8E1,7.13E2,1.2608E4,6.738E3,1.805E3,6.451E3,4.44E2,5.1E1,3.15243E5,6.73E2,4.038E3,6.73E2,1.6523E4,1.9201E4,9.752E3,1.978E3,8.05E2,1.641E3,1.8148E4,2.1281E4,2.6788E4,7.3736E4,9.374E3,5.725E3,3E0,7.7E1,4.95E2,2.18E2,4.144E3,8.464E3,4.601E3,2.137E3,1.101E3,7.04E2,2.96E2,6.155E3,1.6E1,4.28E2,4.1E1,1E1],"tree_param":{"num_deleted":"0","num_feature":"9","num_nodes":"63","size_leaf_vector":"0"}},{"base_weights":[9.8749585E-2,-2.0668885E-1,2.6403922E-1,-7.600525E-1,-1.11743726E-1,1.6813464E-1,1.2678634E0,-1.9875024E-1,-1.7033298E0,-4.9325413E-1,-7.6159504E-3,1.887491E-1,-2.369837E0,1.2200773E0,1.2399718E1,-2.2608979E-1,1.5849301E0,-5.02072E0,-1.4511741E0,-6.735067E-1,5.0705445E-1,-2.649794E-1,1.3979091E-1,1.6803971E-1,4.8430667E0,-4.535127E0,-3.5590523E-1,6.891761E-1,2.0299783E0,-1.7908482E1,1.3960325E1,-4.314455E-2,-5.2849287E-1,8.4107214E-1,2.3562279E0,-3.0970947E1,-4.8752365E0,-1.4333634E0,-2.084017E1,-4.9408558E-1,-4.279262E0,2.1698496E0,-6.043498E-1,-2.7235353E-1,8.961001E0,-4.5101598E-1,1.9858254E-1,-4.2407504E-1,2.28769E-1,3.9412324E0,6.6958084E0,-3.4242718E0,-7.162145E0,4.3227488E-1,-3.2473695E0,1.1567507E0,-7.731157E0,2.8070135E0,5.9876114E-1,4.3611655E0,-2.7688574E1,2.1461954E1,8.014415E0],"categories":[],"categories_nodes":[],"categories_segments":[],"categories_sizes":[],"default_left":[true,false,true,true,true,true,true,true,false,true,true,true,true,true,true,true,true,true,true,true,true,true,true,true,true,true,true,true,true,true,true,false,false,false,false,false,false,false,false,false,false,false,false,false,false,false,false,false,false,false,false,false,false,false,false,false,false,false,false,false,false,false,false],"id":20,"left_children":[1,3,5,7,9,11,13,15,17,19,21,23,25,27,29,31,33,35,37,39,41,43,45,47,49,51,53,55,57,59,61,-1,-1,-1,-1,-1,-1,-1,-1,-1,-1,-1,-1,-1,-1,-1,-1,-1,-1,-1,-1,-1,-1,-1,-1,-1,-1,-1,-1,-1,-1,-1,-1],"loss_changes":[2.7992916E4,1.022903E4,3.46359E4,1.5096262E4,6.6017534E3,1.7182084E4,1.667477E4,8.7213086E2,8.890549E3,6.425083E3,4.9528066E3,3.139829E4,1.1536921E4,1.3431957E4,6.5880996E3,9.7410815E2,1.5292694E2,2.6842812E3,3.3844277E3,1.9530559E4,1.0056483E4,3.2370247E3,2.8833662E3,1.1662048E4,2.384668E3,3.6962266E3,3.1281843E3,7.431446E4,1.3755066E4,1.6453489E3,5.5373086E3,0E0,0E0,0E0,0E0,0E0,0E0,0E0,0E0,0E0,0E0,0E0,0E0,0E0,0E0,0E0,0E0,0E0,0E0,0E0,0E0,0E0,0E0,0E0,0E0,0E0,0E0,0E0,0E0,0E0,0E0,0E0,0E0],"parents":[2147483647,0,0,1,1,2,2,3,3,4,4,5,5,6,6,7,7,8,8,9,9,10,10,11,11,12,12,13,13,14,14,15,15,16,16,17,17,18,18,19,19,20,20,21,21,22,22,23,23,24,24,25,25,26,26,27,27,28,28,29,29,30,30],"right_children":[2,4,6,8,10,12,14,16,18,20,22,24,26,28,30,32,34,36,38,40,42,44,46,48,50,52,54,56,58,60,62,-1,-1,-1,-1,-1,-1,-1,-1,-1,-1,-1,-1,-1,-1,-1,-1,-1,-1,-1,-1,-1,-1,-1,-1,-1,-1,-1,-1,-1,-1,-1,-1],"split_conditions":[-3.6933238E-3,-2.979175E-2,2.47935E2,9.2759995E1,2.0175E3,2.3808499E2,3.93303E3,8.6435E1,-8.37248E-2,4.285E2,4.5E0,2.3346077E2,2.4267499E2,2.855E2,1.235E4,5.2095E1,9.14E1,5.83E4,4.33581E3,4.085E2,4.575E2,3.6975E3,2.6735E1,2.6833021E1,2.3657E2,1.73925E6,2.1437E6,2.765E2,4.135E2,4.12901E3,4.33806E3,-1.2943366E-2,-1.5854786E-1,2.5232166E-1,7.068684E-1,-9.291285E0,-1.462571E0,-4.3000904E-1,-6.2520514E0,-1.4822568E-1,-1.2837787E0,6.509549E-1,-1.8130495E-1,-8.170606E-2,2.6883006E0,-1.353048E-1,5.9574764E-2,-1.2722252E-1,6.86307E-2,1.1823698E0,2.0087426E0,-1.0272816E0,-2.1486437E0,1.2968247E-1,-9.742109E-1,3.4702522E-1,-2.3193471E0,8.421041E-1,1.7962834E-1,1.3083497E0,-8.306573E0,6.4385867E0,2.4043245E0],"split_indices":[8,8,3,3,0,3,5,4,8,7,1,3,3,7,6,3,3,6,3,7,7,3,3,3,3,6,6,7,7,5,3,0,0,0,0,0,0,0,0,0,0,0,0,0,0,0,0,0,0,0,0,0,0,0,0,0,0,0,0,0,0,0,0],"split_type":[0,0,0,0,0,0,0,0,0,0,0,0,0,0,0,0,0,0,0,0,0,0,0,0,0,0,0,0,0,0,0,0,0,0,0,0,0,0,0,0,0,0,0,0,0,0,0,0,0,0,0,0,0,0,0,0,0,0,0,0,0,0,0],"sum_hessian":[5.54469E5,1.94694E5,3.59775E5,2.8512E4,1.66182E5,3.28401E5,3.1374E4,1.7876E4,1.0636E4,3.5631E4,1.30551E5,3.25756E5,2.645E3,3.1241E4,1.33E2,1.7607E4,2.69E2,7.5E2,9.886E3,3.0191E4,5.44E3,4.7543E4,8.3008E4,3.24314E5,1.442E3,1.274E3,1.371E3,1.8872E4,1.2369E4,6E0,1.27E2,1.0971E4,6.636E3,1.38E2,1.31E2,3E0,7.47E2,9.878E3,8E0,2.8761E4,1.43E3,2.179E3,3.261E3,4.7506E4,3.7E1,7.512E3,7.5496E4,3.0168E4,2.94146E5,9.72E2,4.7E2,8.97E2,3.77E2,1.078E3,2.93E2,1.788E4,9.92E2,8.016E3,4.353E3,2E0,4E0,5.5E1,7.2E1],"tree_param":{"num_deleted":"0","num_feature":"9","num_nodes":"63","size_leaf_vector":"0"}},{"base_weights":[6.90967E-2,1.6415946E0,4.594769E-2,-2.3744779E0,1.9861189E0,-2.9606069E-2,4.6346265E-1,-2.0821266E0,-1.8796053E1,4.6017914E0,1.5472502E0,-3.4572476E-1,7.034785E-2,2.1056044E-1,1.0700867E0,-2.3281784E0,1.72164E1,-4.1305804E0,-3.5568504E1,2.534091E-1,6.85316E0,1.518377E0,4.6946045E1,-1.924713E-1,-1.6126211E0,-2.797235E-1,1.7983036E-1,-1.7662579E0,2.3411618E-1,9.141997E-1,2.5166705E0,-2.203115E0,-1.4738322E1,2.1210775E1,3.4888508E0,2.2893066E0,-9.517822E0,3.5844295E0,-5.8021384E-1,9.125286E0,4.371916E0,1.4757588E0,2.8360884E1,-3.5237774E-1,2.993623E-1,-1.3583039E0,-1.4615588E1,-9.65304E-2,-1.055617E0,3.2863653E-1,-5.9902534E-2,-2.6806023E0,-1.2114888E0,2.1259101E-2,3.921737E-1,2.746871E0,7.996469E-1,5.9644547E0,1.9880931E0],"categories":[],"categories_nodes":[],"categories_segments":[],"categories_sizes":[],"default_left":[true,true,true,true,true,true,true,true,true,true,true,true,true,true,true,true,false,true,false,true,true,true,false,true,true,true,true,true,true,true,true,false,false,false,false,false,false,false,false,false,false,false,false,false,false,false,false,false,false,false,false,false,false,false,false,false,false,false,false],"id":21,"left_children":[1,3,5,7,9,11,13,15,17,19,21,23,25,27,29,31,33,35,-1,37,39,41,-1,43,45,47,49,51,53,55,57,-1,-1,-1,-1,-1,-1,-1,-1,-1,-1,-1,-1,-1,-1,-1,-1,-1,-1,-1,-1,-1,-1,-1,-1,-1,-1,-1,-1],"loss_changes":[2.0183611E4,1.1134674E4,1.7236957E4,3.014215E3,8.497947E3,1.4620034E4,1.2845346E4,3.012605E3,2.558817E3,1.0414623E4,8.247097E3,2.1581127E4,1.3473565E4,2.7521965E3,5.553207E3,9.282534E2,3.6466284E2,2.638876E2,0E0,1.0128403E3,3.9121328E3,7.2144014E3,0E0,7.7988564E3,3.964614E4,1.1904126E4,9.553232E3,3.4979834E2,1.9647815E3,4.6670254E3,4.35466E3,0E0,0E0,0E0,0E0,0E0,0E0,0E0,0E0,0E0,0E0,0E0,0E0,0E0,0E0,0E0,0E0,0E0,0E0,0E0,0E0,0E0,0E0,0E0,0E0,0E0,0E0,0E0,0E0],"parents":[2147483647,0,0,1,1,2,2,3,3,4,4,5,5,6,6,7,7,8,8,9,9,10,10,11,11,12,12,13,13,14,14,15,15,16,16,17,17,19,19,20,20,21,21,23,23,24,24,25,25,26,26,27,27,28,28,29,29,30,30],"right_children":[2,4,6,8,10,12,14,16,18,20,22,24,26,28,30,32,34,36,-1,38,40,42,-1,44,46,48,50,52,54,56,58,-1,-1,-1,-1,-1,-1,-1,-1,-1,-1,-1,-1,-1,-1,-1,-1,-1,-1,-1,-1,-1,-1,-1,-1,-1,-1,-1,-1],"split_conditions":[1.9155E5,1.265E4,1.550596E-2,4.12901E3,6.4E1,2.0175E3,1.23994995E2,3.849925E3,2.5E1,5.65E1,5.1863E3,1.6584064E2,-1.2275554E-2,9.005E0,4.0802E2,1.21E4,1.1784188E-2,1E1,-1.0670551E1,1.25E1,2.0185E3,1.0579007E-1,1.4083814E1,3.805E2,4.79E2,1.6585501E2,3.055E2,5.705E0,4.92425E1,2.4E1,4.3866998E2,-6.609345E-1,-4.421497E0,6.363233E0,1.0466553E0,6.86792E-1,-2.8553467E0,1.075329E0,-1.7406416E-1,2.737586E0,1.3115748E0,4.4272766E-1,8.5082655E0,-1.0571333E-1,8.9808695E-2,-4.0749118E-1,-4.3846765E0,-2.8959122E-2,-3.166851E-1,9.859096E-2,-1.7970761E-2,-8.0418074E-1,-3.6344665E-1,6.3777305E-3,1.1765212E-1,8.2406133E-1,2.3989408E-1,1.7893364E0,5.96428E-1],"split_indices":[6,6,8,5,7,0,3,3,2,7,3,3,8,4,3,6,8,2,0,7,0,8,0,7,7,3,7,4,3,7,3,0,0,0,0,0,0,0,0,0,0,0,0,0,0,0,0,0,0,0,0,0,0,0,0,0,0,0,0],"split_type":[0,0,0,0,0,0,0,0,0,0,0,0,0,0,0,0,0,0,0,0,0,0,0,0,0,0,0,0,0,0,0,0,0,0,0,0,0,0,0,0,0,0,0,0,0,0,0,0,0,0,0,0,0,0,0,0,0,0,0],"sum_hessian":[5.54469E5,8.043E3,5.46426E5,6.35E2,7.408E3,4.62697E5,8.3729E4,6.25E2,1E1,1.063E3,6.345E3,1.11154E5,3.51543E5,5.9094E4,2.4635E4,6.18E2,7E0,6E0,4E0,3.63E2,7E2,6.342E3,3E0,9.916E4,1.1994E4,8.375E4,2.67793E5,6.95E2,5.8399E4,2.224E4,2.395E3,6.13E2,5E0,5E0,2E0,3E0,3E0,7.2E1,2.91E2,3.64E2,3.36E2,6.333E3,9E0,7.4831E4,2.4329E4,1.1765E4,2.29E2,6.7754E4,1.5996E4,1.65231E5,1.02562E5,2.61E2,4.34E2,2.4886E4,3.3513E4,1.307E3,2.0933E4,3.17E2,2.078E3],"tree_param":{"num_deleted":"0","num_feature":"9","num_nodes":"59","size_leaf_vector":"0"}},{"base_weights":[4.8393514E-2,-1.8508416E-1,1.8423034E-1,-3.2862905E-1,3.8252681E-1,6.502303E-2,4.6167704E-1,-2.0530243E-1,-9.833755E-1,3.6913309E-1,8.47183E0,1.9251522E0,4.826622E-2,3.7991816E-1,3.2652082E0,-2.2849134E-1,2.651428E0,-1.206044E0,1.2422107E0,3.7838566E-1,-9.9092E0,2.281949E1,1.5756525E0,6.257134E-1,2.388792E0,-5.524837E0,6.448195E-2,2.1718059E0,2.9042464E-1,4.785237E0,1.9499865E0,1.822443E0,-2.4710223E-1,3.1782553E0,1.4184097E0,2.5330932E0,-1.3695526E0,7.344932E-1,4.6390133E0,3.6638817E-1,6.6776E0,3.227417E0,-1.559113E1,-5.592041E-1,2.6540297E1,-9.708857E0,1.1894375E1,-2.7068573E-1,1.1056254E0,2.7142308E0,1.8562684E0,-7.730335E0,-3.4609184E0,1.04465626E-1,-5.8996123E-1,4.049773E0,9.308258E-1,-1.6633052E0,4.5500663E-1,2.7218833E0,6.5513597E0,-2.4525647E0,2.9662828E0],"categories":[],"categories_nodes":[],"categories_segments":[],"categories_sizes":[],"default_left":[true,true,true,true,true,true,true,true,true,true,true,true,true,true,true,true,true,true,false,true,true,true,true,true,true,true,true,true,true,true,true,false,false,false,false,false,false,false,false,false,false,false,false,false,false,false,false,false,false,false,false,false,false,false,false,false,false,false,false,false,false,false,false],"id":22,"left_children":[1,3,5,7,9,11,13,15,17,19,21,23,25,27,29,31,33,35,37,39,41,43,45,47,49,51,53,55,57,59,61,-1,-1,-1,-1,-1,-1,-1,-1,-1,-1,-1,-1,-1,-1,-1,-1,-1,-1,-1,-1,-1,-1,-1,-1,-1,-1,-1,-1,-1,-1,-1,-1],"loss_changes":[1.7584977E4,1.6616598E4,1.159335E4,1.31435E4,4.4569316E3,7.6423438E3,2.414549E4,9.074502E3,1.278715E4,3.9122114E3,6.6922373E3,1.3173159E3,2.1960643E4,1.6414379E4,5.958205E3,5.1867236E3,7.119868E2,1.4342805E4,4.0442668E3,3.1008037E3,2.8120488E3,1.9285684E3,5.5882417E3,2.4852045E2,2.745E2,3.1823828E3,6.3402056E3,1.1343533E4,3.1349828E4,5.0256523E3,7.1750986E3,0E0,0E0,0E0,0E0,0E0,0E0,0E0,0E0,0E0,0E0,0E0,0E0,0E0,0E0,0E0,0E0,0E0,0E0,0E0,0E0,0E0,0E0,0E0,0E0,0E0,0E0,0E0,0E0,0E0,0E0,0E0,0E0],"parents":[2147483647,0,0,1,1,2,2,3,3,4,4,5,5,6,6,7,7,8,8,9,9,10,10,11,11,12,12,13,13,14,14,15,15,16,16,17,17,18,18,19,19,20,20,21,21,22,22,23,23,24,24,25,25,26,26,27,27,28,28,29,29,30,30],"right_children":[2,4,6,8,10,12,14,16,18,20,22,24,26,28,30,32,34,36,38,40,42,44,46,48,50,52,54,56,58,60,62,-1,-1,-1,-1,-1,-1,-1,-1,-1,-1,-1,-1,-1,-1,-1,-1,-1,-1,-1,