{"learner":{"attributes":{"best_iteration":"108","best_ntree_limit":"109","best_score":"11.843898","scikit_learn":"{\"n_estimators\": 800, \"objective\": \"reg:squarederror\", \"max_depth\": 6, \"learning_rate\": 0.15000000000000002, \"verbosity\": null, \"booster\": null, \"tree_method\": null, \"gamma\": null, \"min_child_weight\": 2, \"max_delta_step\": null, \"subsample\": null, \"colsample_bytree\": null, \"colsample_bylevel\": null, \"colsample_bynode\": null, \"reg_alpha\": null, \"reg_lambda\": null, \"scale_pos_weight\": null, \"base_score\": null, \"missing\": NaN, \"num_parallel_tree\": null, \"random_state\": null, \"n_jobs\": null, \"monotone_constraints\": null, \"interaction_constraints\": null, \"importance_type\": null, \"gpu_id\": null, \"validate_parameters\": null, \"predictor\": null, \"enable_categorical\": false, \"evals_result_\": {\"validation_0\": {\"rmse\": [231.321899, 196.777069, 167.400009, 142.418289, 121.177025, 103.113197, 87.757065, 74.702919, 63.606838, 54.176373, 46.165131, 39.363762, 33.594273, 28.703722, 24.559937, 21.056536, 18.100929, 15.608978, 13.51901, 11.77084, 10.316724, 9.106912, 8.111473, 7.308971, 6.654801, 6.136947, 5.717128, 5.383167, 5.118941, 4.916942, 4.758788, 4.6201, 4.507807, 4.426179, 4.366851, 4.284362, 4.228828, 4.185232, 4.154233, 4.101387, 4.070131, 4.045902, 4.007123, 3.966271, 3.945768, 3.922263, 3.890184, 3.860844, 3.843139, 3.83214, 3.811804, 3.743816, 3.710433, 3.693969, 3.686223, 3.621249, 3.579984, 3.56557, 3.550145, 3.536315, 3.482382, 3.465092, 3.418956, 3.40243, 3.393976, 3.39122, 3.36793, 3.338428, 3.276254, 3.262041, 3.256039, 3.248876, 3.221051, 3.191955, 3.182503, 3.162634, 3.135942, 3.131148, 3.117332, 3.106699, 3.099959, 3.093061, 3.062432, 3.036121, 3.032654, 2.987095, 2.957022, 2.95131, 2.947629, 2.928051, 2.888984, 2.884608, 2.879504, 2.873718, 2.870912, 2.858065, 2.844652, 2.834692, 2.832536, 2.827332, 2.80561, 2.798135, 2.793232, 2.780661, 2.750983, 2.744904, 2.724435, 2.706339, 2.701934, 2.693264, 2.677009, 2.672267, 2.67024, 2.667758, 2.652318, 2.649336, 2.637104, 2.622371, 2.618771, 2.614293, 2.607613, 2.596004, 2.586535, 2.575833, 2.551667, 2.546235, 2.531313, 2.523824, 2.518173]}, \"validation_1\": {\"rmse\": [364.81842, 311.538208, 266.474304, 227.916031, 195.034988, 167.055649, 143.266922, 122.960732, 105.65374, 91.172577, 78.677719, 68.081757, 59.163742, 51.553097, 45.128006, 39.696487, 35.205105, 31.253735, 27.97126, 25.269772, 23.00054, 21.072559, 19.455784, 18.225094, 17.194241, 16.264017, 15.498209, 14.937585, 14.463894, 14.010218, 13.691635, 13.410876, 13.181771, 12.975372, 12.788241, 12.637952, 12.491964, 12.397662, 12.303628, 12.236518, 12.176201, 12.11933, 12.088991, 12.074354, 12.081489, 12.069689, 12.058252, 12.046944, 12.041543, 12.041602, 12.009414, 12.010766, 12.012159, 12.015615, 12.002679, 12.002649, 12.00205, 11.999292, 11.999379, 11.974631, 11.974713, 11.972454, 11.974438, 11.982164, 11.982617, 11.987617, 11.987847, 11.989147, 11.990367, 12.003619, 12.003672, 11.987699, 11.989697, 11.990501, 11.990965, 11.990579, 11.991985, 11.992298, 11.990665, 11.944252, 11.9446, 11.900997, 11.900801, 11.901403, 11.899096, 11.900708, 11.901109, 11.901342, 11.90131, 11.901908, 11.904171, 11.885748, 11.88376, 11.884179, 11.884182, 11.883703, 11.888088, 11.888473, 11.883561, 11.898712, 11.898996, 11.899859, 11.898431, 11.873707, 11.875261, 11.875763, 11.875905, 11.876544, 11.843898, 11.845275, 11.845607, 11.846245, 11.846485, 11.846504, 11.847913, 11.849055, 11.849749, 11.848712, 11.85005, 11.852647, 11.852389, 11.853013, 11.853094, 11.853374, 11.854088, 11.8497, 11.850524, 11.850804, 11.851298]}}, \"_estimator_type\": \"regressor\"}"},"feature_names":["Year","Month","Day","High","Low","Open","Volume","Ticker_Num","Daily Return %"],"feature_types":["int","int","int","float","float","float","float","int","float"],"gradient_booster":{"model":{"gbtree_model_param":{"num_trees":"129","size_leaf_vector":"0"},"tree_info":[0,0,0,0,0,0,0,0,0,0,0,0,0,0,0,0,0,0,0,0,0,0,0,0,0,0,0,0,0,0,0,0,0,0,0,0,0,0,0,0,0,0,0,0,0,0,0,0,0,0,0,0,0,0,0,0,0,0,0,0,0,0,0,0,0,0,0,0,0,0,0,0,0,0,0,0,0,0,0,0,0,0,0,0,0,0,0,0,0,0,0,0,0,0,0,0,0,0,0,0,0,0,0,0,0,0,0,0,0,0,0,0,0,0,0,0,0,0,0,0,0,0,0,0,0,0,0,0,0],"trees":[{"base_weights":[1.27669586E2,1.0774569E2,2.0327401E3,7.809683E1,3.3382867E2,1.604401E3,3.4321382E3,5.0127213E1,1.360859E2,2.8701035E2,6.454875E2,1.2830972E3,1.9626556E3,3.0935522E3,4.388289E3,3.1646967E1,6.977024E1,1.1484517E2,1.6957558E2,2.479298E2,3.6876096E2,5.660883E2,8.8744385E2,1.174108E3,1.4659257E3,1.8165573E3,2.2263008E3,2.7615032E3,3.3088267E3,3.968334E3,4.8189805E3,2.0393127E1,4.1163307E1,6.0575333E1,8.1261955E1,1.0392952E2,1.286482E2,1.5526508E2,1.8816187E2,2.2740688E2,2.788523E2,3.4301282E2,4.207444E2,5.1340265E2,6.4102527E2,8.0471326E2,9.936983E2,1.1330189E3,1.2394177E3,1.3942654E3,1.5318258E3,1.7263318E3,1.8967954E3,2.0967766E3,2.361301E3,3.1755432E3,3.4841016E3,1.4221319E1,2.5277637E1,3.6252007E1,4.6058865E1,5.5890205E1,6.590609E1,7.5922424E1,8.718088E1,9.876817E1,1.10146416E2,1.2238018E2,1.3524095E2,1.492414E2,1.6387407E2,1.7991115E2,1.9713828E2,2.1630582E2,2.3997945E2,2.6622574E2,2.9338425E2,3.2649768E2,3.6294623E2,4.0298248E2,4.4626416E2,4.9061548E2,5.454131E2,6.0763336E2,6.849159E2,7.6121594E2,8.383567E2,9.4506134E2,1.0319865E3],"categories":[],"categories_nodes":[],"categories_segments":[],"categories_sizes":[],"default_left":[true,true,true,true,true,true,true,true,true,true,true,true,true,true,true,true,true,true,true,true,true,true,true,true,true,true,true,false,true,false,false,true,true,true,true,true,true,true,true,true,true,true,true,true,true,true,true,false,false,false,false,false,false,false,false,false,false,false,false,false,false,false,false,false,false,false,false,false,false,false,false,false,false,false,false,false,false,false,false,false,false,false,false,false,false,false,false,false,false],"id":0,"left_children":[1,3,5,7,9,11,13,15,17,19,21,23,25,27,29,31,33,35,37,39,41,43,45,47,49,51,53,-1,55,-1,-1,57,59,61,63,65,67,69,71,73,75,77,79,81,83,85,87,-1,-1,-1,-1,-1,-1,-1,-1,-1,-1,-1,-1,-1,-1,-1,-1,-1,-1,-1,-1,-1,-1,-1,-1,-1,-1,-1,-1,-1,-1,-1,-1,-1,-1,-1,-1,-1,-1,-1,-1,-1,-1],"loss_changes":[2.2296867E10,3.8968899E9,3.63895E9,8.336018E8,9.832863E8,5.335429E8,4.4742963E8,1.2586253E8,1.189417E8,1.871273E8,1.6859418E8,4.7257856E7,8.069581E7,6.627635E7,4.7798784E7,1.9132064E7,1.7754752E7,1.5405184E7,1.7233024E7,2.5099264E7,2.5220864E7,2.5846912E7,1.830208E7,2.741632E6,2.180352E6,7.012864E6,8.687616E6,0E0,3.770368E6,0E0,0E0,2.467292E6,2.325696E6,2.328288E6,2.354336E6,1.822912E6,1.850688E6,1.877376E6,2.055104E6,3.275136E6,2.823424E6,4.055552E6,2.663552E6,2.575744E6,3.589248E6,1.15744E6,7.88224E5,0E0,0E0,0E0,0E0,0E0,0E0,0E0,0E0,0E0,0E0,0E0,0E0,0E0,0E0,0E0,0E0,0E0,0E0,0E0,0E0,0E0,0E0,0E0,0E0,0E0,0E0,0E0,0E0,0E0,0E0,0E0,0E0,0E0,0E0,0E0,0E0,0E0,0E0,0E0,0E0,0E0,0E0],"parents":[2147483647,0,0,1,1,2,2,3,3,4,4,5,5,6,6,7,7,8,8,9,9,10,10,11,11,12,12,13,13,14,14,15,15,16,16,17,17,18,18,19,19,20,20,21,21,22,22,23,23,24,24,25,25,26,26,28,28,31,31,32,32,33,33,34,34,35,35,36,36,37,37,38,38,39,39,40,40,41,41,42,42,43,43,44,44,45,45,46,46],"right_children":[2,4,6,8,10,12,14,16,18,20,22,24,26,28,30,32,34,36,38,40,42,44,46,48,50,52,54,-1,56,-1,-1,58,60,62,64,66,68,70,72,74,76,78,80,82,84,86,88,-1,-1,-1,-1,-1,-1,-1,-1,-1,-1,-1,-1,-1,-1,-1,-1,-1,-1,-1,-1,-1,-1,-1,-1,-1,-1,-1,-1,-1,-1,-1,-1,-1,-1,-1,-1,-1,-1,-1,-1,-1,-1],"split_conditions":[1.0848E3,2.1483499E2,2.487335E3,9.93566E1,4.7979498E2,1.598245E3,3.78135E3,5.509485E1,1.49255E2,3.18165E2,7.39375E2,1.3368201E3,2.040505E3,2.9932E3,4.4265254E3,3.40075E1,7.724992E1,1.23185E2,1.79695E2,2.63315E2,3.92935E2,5.8726E2,8.902E2,1.19999E3,1.4487949E3,1.79602E3,2.2605151E3,4.142255E2,3.2940698E3,5.952501E2,7.228471E2,2.1991667E1,4.4956253E1,6.614938E1,8.764631E1,1.1186395E2,1.3604604E2,1.6558499E2,1.96545E2,2.37345E2,2.88485E2,3.5439502E2,4.38715E2,5.3153503E2,6.5520996E2,7.9364E2,9.7696E2,1.6995285E2,1.8591266E2,2.0913982E2,2.2977388E2,2.5894977E2,2.8451932E2,3.145165E2,3.5419516E2,4.763315E2,5.2261523E2,2.133198E0,3.7916458E0,5.4378014E0,6.90883E0,8.383532E0,9.885914E0,1.1388364E1,1.3077132E1,1.4815227E1,1.6521963E1,1.8357027E1,2.0286144E1,2.238621E1,2.4581112E1,2.6986673E1,2.9570742E1,3.2445873E1,3.5996918E1,3.993386E1,4.4007637E1,4.8974655E1,5.4441936E1,6.0447376E1,6.693963E1,7.359232E1,8.1811966E1,9.1145004E1,1.0273739E2,1.14182396E2,1.2575351E2,1.417592E2,1.5479797E2],"split_indices":[3,3,4,3,3,4,3,3,3,3,3,3,3,4,3,3,3,3,3,3,3,3,4,3,4,4,3,0,4,0,0,3,3,3,3,3,3,3,3,3,3,3,3,3,3,4,4,0,0,0,0,0,0,0,0,0,0,0,0,0,0,0,0,0,0,0,0,0,0,0,0,0,0,0,0,0,0,0,0,0,0,0,0,0,0,0,0,0,0],"split_type":[0,0,0,0,0,0,0,0,0,0,0,0,0,0,0,0,0,0,0,0,0,0,0,0,0,0,0,0,0,0,0,0,0,0,0,0,0,0,0,0,0,0,0,0,0,0,0,0,0,0,0,0,0,0,0,0,0,0,0,0,0,0,0,0,0,0,0,0,0,0,0,0,0,0,0,0,0,0,0,0,0,0,0,0,0,0,0,0,0],"sum_hessian":[5.87438E5,5.81359E5,6.079E3,5.13959E5,6.74E4,4.656E3,1.423E3,3.46726E5,1.67233E5,5.8599E4,8.801E3,2.457E3,2.199E3,1.054E3,3.69E2,1.78652E5,1.68074E5,1.02333E5,6.49E4,3.9649E4,1.895E4,6.629E3,2.172E3,1.544E3,9.13E2,1.42E3,7.79E2,4.2E2,6.34E2,1.92E2,1.77E2,8.1855E4,9.6797E4,9.3371E4,7.4703E4,5.7148E4,4.5185E4,3.6673E4,2.8227E4,2.3837E4,1.5812E4,1.2678E4,6.272E3,3.897E3,2.732E3,1.226E3,9.46E2,9.59E2,5.85E2,4.48E2,4.65E2,6.79E2,7.41E2,4.06E2,3.73E2,3.71E2,2.63E2,3.6164E4,4.5691E4,4.8325E4,4.8472E4,4.9701E4,4.367E4,3.9281E4,3.5422E4,3.1234E4,2.5914E4,2.3173E4,2.2012E4,2.1587E4,1.5086E4,1.4719E4,1.3508E4,1.2669E4,1.1168E4,8.471E3,7.341E3,6.943E3,5.735E3,3.708E3,2.564E3,2.286E3,1.611E3,1.56E3,1.172E3,5.45E2,6.81E2,4.28E2,5.18E2],"tree_param":{"num_deleted":"0","num_feature":"9","num_nodes":"89","size_leaf_vector":"0"}},{"base_weights":[1.0852978E2,9.154476E1,1.724802E3,6.556442E1,2.7750818E2,1.3660461E3,2.9361345E3,4.1682316E1,1.12481415E2,2.3672125E2,5.2921704E2,1.0993926E3,1.6874882E3,2.6732031E3,3.821835E3,2.584275E1,5.7241474E1,9.436809E1,1.3962254E2,2.0432571E2,3.0220462E2,4.595336E2,7.2834296E2,9.989589E2,1.2626156E3,1.5760977E3,1.9431069E3,2.429791E3,2.8977976E3,3.4968684E3,4.1692837E3,1.6332031E1,3.325125E1,4.8930847E1,6.613344E1,8.57316E1,1.0572324E2,1.27842445E2,1.5539838E2,1.8685841E2,2.2825386E2,2.7813675E2,3.3748267E2,4.1779208E2,5.2186975E2,6.61245E2,8.373442E2,9.535239E2,1.0474237E3,1.2023707E3,1.3299146E3,1.5027706E3,1.6617904E3,1.833648E3,2.034991E3,2.275471E3,2.5571494E3,2.780982E3,3.0770232E3,1.0955838E1,1.9814379E1,2.8467913E1,3.6928307E1,4.478274E1,5.264167E1,6.1277596E1,7.115592E1,8.120827E1,9.069036E1,1.0044744E2,1.1097659E2,1.2203876E2,1.3400127E2,1.4711269E2,1.6217525E2,1.7831209E2,1.9660416E2,2.1720433E2,2.4039151E2,2.651824E2,2.9240964E2,3.2102472E2,3.5817053E2,3.996698E2,4.4183624E2,4.955625E2,5.547218E2,6.199719E2,6.9984283E2,7.9142035E2,8.697084E2],"categories":[],"categories_nodes":[],"categories_segments":[],"categories_sizes":[],"default_left":[true,true,true,true,true,true,true,true,true,true,true,true,true,true,true,true,true,true,true,true,true,true,true,true,true,true,true,true,true,false,false,true,true,true,true,true,true,true,true,true,true,true,true,true,true,true,true,false,false,false,false,false,false,false,false,false,false,false,false,false,false,false,false,false,false,false,false,false,false,false,false,false,false,false,false,false,false,false,false,false,false,false,false,false,false,false,false,false,false,false,false],"id":1,"left_children":[1,3,5,7,9,11,13,15,17,19,21,23,25,27,29,31,33,35,37,39,41,43,45,47,49,51,53,55,57,-1,-1,59,61,63,65,67,69,71,73,75,77,79,81,83,85,87,89,-1,-1,-1,-1,-1,-1,-1,-1,-1,-1,-1,-1,-1,-1,-1,-1,-1,-1,-1,-1,-1,-1,-1,-1,-1,-1,-1,-1,-1,-1,-1,-1,-1,-1,-1,-1,-1,-1,-1,-1,-1,-1,-1,-1],"loss_changes":[1.6126456E10,2.80862E9,2.650794E9,5.71519E8,7.314601E8,4.0228454E8,3.1464858E8,8.330246E7,8.457344E7,1.3003136E8,1.3753498E8,4.103296E7,5.7757184E7,5.194701E7,2.1212672E7,1.1801536E7,1.2597504E7,1.011104E7,1.2777984E7,1.710656E7,1.7138048E7,1.8940544E7,1.8271872E7,2.528896E6,2.370304E6,6.884096E6,2.7456E6,4.48E6,3.083264E6,0E0,0E0,1.372948E6,1.655008E6,1.354416E6,2.004608E6,1.307456E6,1.22432E6,1.393024E6,1.628928E6,1.940864E6,2.26912E6,2.154176E6,2.685824E6,1.7472E6,2.273792E6,2.111808E6,7.63776E5,0E0,0E0,0E0,0E0,0E0,0E0,0E0,0E0,0E0,0E0,0E0,0E0,0E0,0E0,0E0,0E0,0E0,0E0,0E0,0E0,0E0,0E0,0E0,0E0,0E0,0E0,0E0,0E0,0E0,0E0,0E0,0E0,0E0,0E0,0E0,0E0,0E0,0E0,0E0,0E0,0E0,0E0,0E0,0E0],"parents":[2147483647,0,0,1,1,2,2,3,3,4,4,5,5,6,6,7,7,8,8,9,9,10,10,11,11,12,12,13,13,14,14,15,15,16,16,17,17,18,18,19,19,20,20,21,21,22,22,23,23,24,24,25,25,26,26,27,27,28,28,31,31,32,32,33,33,34,34,35,35,36,36,37,37,38,38,39,39,40,40,41,41,42,42,43,43,44,44,45,45,46,46],"right_children":[2,4,6,8,10,12,14,16,18,20,22,24,26,28,30,32,34,36,38,40,42,44,46,48,50,52,54,56,58,-1,-1,60,62,64,66,68,70,72,74,76,78,80,82,84,86,88,90,-1,-1,-1,-1,-1,-1,-1,-1,-1,-1,-1,-1,-1,-1,-1,-1,-1,-1,-1,-1,-1,-1,-1,-1,-1,-1,-1,-1,-1,-1,-1,-1,-1,-1,-1,-1,-1,-1,-1,-1,-1,-1,-1,-1],"split_conditions":[1.055265E3,2.0938501E2,2.576795E3,9.623167E1,4.60235E2,1.67366E3,3.80527E3,5.2903133E1,1.4431168E2,3.06815E2,6.91775E2,1.31426E3,2.09575E3,3.101E3,4.4885947E3,3.1836548E1,7.298155E1,1.19599236E2,1.74555E2,2.5314499E2,3.7160498E2,5.65905E2,8.89995E2,1.160545E3,1.511085E3,1.884925E3,2.3086401E3,2.86964E3,3.4005E3,5.245303E2,6.253926E2,1.9765E1,4.1468903E1,6.188118E1,8.37802E1,1.07994995E2,1.3159125E2,1.58505E2,1.8898769E2,2.2979256E2,2.7752002E2,3.37335E2,4.0870502E2,5.0646503E2,6.0797E2,7.85075E2,9.64265E2,1.430286E2,1.5711356E2,1.8035562E2,1.994872E2,2.254156E2,2.4926857E2,2.750472E2,3.0524866E2,3.4132065E2,3.8357242E2,4.171473E2,4.615535E2,1.6433758E0,2.972157E0,4.270187E0,5.539246E0,6.7174115E0,7.8962507E0,9.19164E0,1.06733885E1,1.2181241E1,1.3603555E1,1.5067117E1,1.664649E1,1.8305815E1,2.0100191E1,2.2066904E1,2.4326288E1,2.6746815E1,2.9490625E1,3.258065E1,3.6058727E1,3.9777363E1,4.3861446E1,4.815371E1,5.3725582E1,5.9950474E1,6.627544E1,7.433438E1,8.3208275E1,9.299579E1,1.0497643E2,1.1871306E2,1.3045627E2],"split_indices":[4,3,3,3,3,3,4,3,3,3,4,4,3,4,4,3,3,3,3,3,3,3,3,4,3,3,3,3,4,0,0,3,3,3,3,3,3,3,3,3,3,3,3,3,4,3,4,0,0,0,0,0,0,0,0,0,0,0,0,0,0,0,0,0,0,0,0,0,0,0,0,0,0,0,0,0,0,0,0,0,0,0,0,0,0,0,0,0,0,0,0],"split_type":[0,0,0,0,0,0,0,0,0,0,0,0,0,0,0,0,0,0,0,0,0,0,0,0,0,0,0,0,0,0,0,0,0,0,0,0,0,0,0,0,0,0,0,0,0,0,0,0,0,0,0,0,0,0,0,0,0,0,0,0,0,0,0,0,0,0,0,0,0,0,0,0,0,0,0,0,0,0,0,0,0,0,0,0,0,0,0,0,0,0,0],"sum_hessian":[5.87438E5,5.8133E5,6.108E3,5.10071E5,7.1259E4,4.714E3,1.394E3,3.38014E5,1.72057E5,6.1324E4,9.935E3,2.579E3,2.135E3,1.078E3,3.16E2,1.67499E5,1.70515E5,1.03193E5,6.8864E4,4.103E4,2.0294E4,7.362E3,2.573E3,1.601E3,9.78E2,1.492E3,6.43E2,5.23E2,5.55E2,1.69E2,1.47E2,7.3345E4,9.4154E4,8.8142E4,8.2373E4,5.8618E4,4.4575E4,3.943E4,2.9434E4,2.3722E4,1.7308E4,1.2069E4,8.225E3,4.414E3,2.948E3,1.597E3,9.76E2,8.37E2,7.64E2,5.26E2,4.52E2,8.14E2,6.78E2,3.03E2,3.4E2,2.45E2,2.78E2,3.46E2,2.09E2,2.8834E4,4.4511E4,4.0925E4,5.3229E4,4.1625E4,4.6517E4,4.1888E4,4.0485E4,3.0664E4,2.7954E4,2.225E4,2.2325E4,2.0311E4,1.9119E4,1.3253E4,1.6181E4,1.2649E4,1.1073E4,9.07E3,8.238E3,6.337E3,5.732E3,4.59E3,3.635E3,2.527E3,1.887E3,1.646E3,1.302E3,7.8E2,8.17E2,4.14E2,5.62E2],"tree_param":{"num_deleted":"0","num_feature":"9","num_nodes":"91","size_leaf_vector":"0"}},{"base_weights":[9.226005E1,7.803991E1,1.4888466E3,5.707456E1,2.478022E2,1.1814801E3,2.5109646E3,3.6764763E1,1.006478E2,2.1297394E2,4.8405035E2,9.52845E2,1.4467917E3,2.266972E3,3.1981938E3,2.3540571E1,5.1856308E1,8.517249E1,1.2600327E2,1.8410617E2,2.7374207E2,4.2142932E2,6.614211E2,8.664248E2,1.0930663E3,1.3551808E3,1.6832244E3,2.040187E3,2.414067E3,2.8969314E3,3.5107698E3,1.5372902E1,3.1052685E1,4.543333E1,6.072097E1,7.7152245E1,9.578007E1,1.155386E2,1.397735E2,1.688324E2,2.0697487E2,2.5357298E2,3.121474E2,3.8490604E2,4.7887234E2,5.951164E2,7.3078174E2,8.3547253E2,9.3134796E2,1.0500054E3,1.1545541E3,1.3012189E3,1.4518384E3,1.6053315E3,1.7678652E3,2.321938E3,2.5537683E3,1.09430685E1,1.98393E1,2.771875E1,3.49233E1,4.1976673E1,4.96878E1,5.7050808E1,6.507984E1,7.3102E1,8.1906654E1,9.150975E1,1.0099151E2,1.1066433E2,1.2195041E2,1.3394536E2,1.4643448E2,1.6104816E2,1.788016E2,1.9792268E2,2.1769415E2,2.4200122E2,2.6813242E2,2.9786456E2,3.3130066E2,3.6607928E2,4.1076022E2,4.541502E2,5.101494E2,5.724189E2,6.257992E2,6.9411896E2,7.603883E2],"categories":[],"categories_nodes":[],"categories_segments":[],"categories_sizes":[],"default_left":[true,true,true,true,true,true,true,true,true,true,true,true,true,true,true,true,true,true,true,true,true,true,true,true,true,true,true,false,true,false,false,true,true,true,true,true,true,true,true,true,true,true,true,true,true,true,true,false,false,false,false,false,false,false,false,false,false,false,false,false,false,false,false,false,false,false,false,false,false,false,false,false,false,false,false,false,false,false,false,false,false,false,false,false,false,false,false,false,false],"id":2,"left_children":[1,3,5,7,9,11,13,15,17,19,21,23,25,27,29,31,33,35,37,39,41,43,45,47,49,51,53,-1,55,-1,-1,57,59,61,63,65,67,69,71,73,75,77,79,81,83,85,87,-1,-1,-1,-1,-1,-1,-1,-1,-1,-1,-1,-1,-1,-1,-1,-1,-1,-1,-1,-1,-1,-1,-1,-1,-1,-1,-1,-1,-1,-1,-1,-1,-1,-1,-1,-1,-1,-1,-1,-1,-1,-1],"loss_changes":[1.1666219E10,2.0696852E9,1.8572032E9,4.580517E8,5.258542E8,2.7486515E8,2.2213427E8,7.045702E7,6.4557824E7,9.768013E7,9.093299E7,2.8729856E7,4.3334656E7,2.8867584E7,2.3353088E7,1.1544664E7,9.385088E6,8.686464E6,8.97088E6,1.3158528E7,1.3817216E7,1.255488E7,9.411456E6,2.276224E6,1.250048E6,6.054656E6,1.012224E6,0E0,1.90848E6,0E0,0E0,1.783456E6,1.263848E6,1.404E6,1.104448E6,1.114688E6,9.69792E5,1.094144E6,1.025664E6,1.729024E6,1.424128E6,1.917824E6,1.590016E6,1.65888E6,1.59008E6,4.0784E5,6.03264E5,0E0,0E0,0E0,0E0,0E0,0E0,0E0,0E0,0E0,0E0,0E0,0E0,0E0,0E0,0E0,0E0,0E0,0E0,0E0,0E0,0E0,0E0,0E0,0E0,0E0,0E0,0E0,0E0,0E0,0E0,0E0,0E0,0E0,0E0,0E0,0E0,0E0,0E0,0E0,0E0,0E0,0E0],"parents":[2147483647,0,0,1,1,2,2,3,3,4,4,5,5,6,6,7,7,8,8,9,9,10,10,11,11,12,12,13,13,14,14,15,15,16,16,17,17,18,18,19,19,20,20,21,21,22,22,23,23,24,24,25,25,26,26,28,28,31,31,32,32,33,33,34,34,35,35,36,36,37,37,38,38,39,39,40,40,41,41,42,42,43,43,44,44,45,45,46,46],"right_children":[2,4,6,8,10,12,14,16,18,20,22,24,26,28,30,32,34,36,38,40,42,44,46,48,50,52,54,-1,56,-1,-1,58,60,62,64,66,68,70,72,74,76,78,80,82,84,86,88,-1,-1,-1,-1,-1,-1,-1,-1,-1,-1,-1,-1,-1,-1,-1,-1,-1,-1,-1,-1,-1,-1,-1,-1,-1,-1,-1,-1,-1,-1,-1,-1,-1,-1,-1,-1,-1,-1,-1,-1,-1,-1],"split_conditions":[1.08519E3,2.20435E2,2.561435E3,1.0183932E2,4.93265E2,1.6567051E3,3.717475E3,5.713034E1,1.5377167E2,3.2665833E2,7.45045E2,1.385576E3,2.1326426E3,3.12423E3,4.3608447E3,3.5942497E1,8.014737E1,1.2723151E2,1.85225E2,2.70065E2,4.0114502E2,5.9263E2,9.1512646E2,1.213765E3,1.516525E3,1.894855E3,2.3755E3,3.0602808E2,3.33928E3,4.3453973E2,5.266155E2,2.4776707E1,4.762964E1,6.91205E1,9.0749466E1,1.1465766E2,1.40705E2,1.6974379E2,2.02625E2,2.4508334E2,2.96475E2,3.63005E2,4.4876E2,5.38445E2,6.6037E2,8.2412E2,1.0243049E3,1.25320885E2,1.397022E2,1.5750081E2,1.7318312E2,1.9518285E2,2.1777577E2,2.4079974E2,2.651798E2,3.482907E2,3.8306525E2,1.6414603E0,2.9758952E0,4.1578126E0,5.2384953E0,6.296501E0,7.4531703E0,8.557622E0,9.761976E0,1.09653E1,1.2285998E1,1.3726463E1,1.5148726E1,1.659965E1,1.8292562E1,2.0091805E1,2.1965172E1,2.4157225E1,2.6820242E1,2.9688404E1,3.2654125E1,3.6300186E1,4.0219864E1,4.4679688E1,4.9695103E1,5.4911896E1,6.1614037E1,6.8122536E1,7.6522415E1,8.586284E1,9.386988E1,1.0411785E2,1.1405825E2],"split_indices":[4,3,4,3,3,4,4,3,3,3,4,3,3,3,4,3,3,3,3,3,3,4,4,4,4,4,3,0,4,0,0,3,3,3,3,3,3,3,3,3,3,3,3,4,4,4,3,0,0,0,0,0,0,0,0,0,0,0,0,0,0,0,0,0,0,0,0,0,0,0,0,0,0,0,0,0,0,0,0,0,0,0,0,0,0,0,0,0,0],"split_type":[0,0,0,0,0,0,0,0,0,0,0,0,0,0,0,0,0,0,0,0,0,0,0,0,0,0,0,0,0,0,0,0,0,0,0,0,0,0,0,0,0,0,0,0,0,0,0,0,0,0,0,0,0,0,0,0,0,0,0,0,0,0,0,0,0,0,0,0,0,0,0,0,0,0,0,0,0,0,0,0,0,0,0,0,0,0,0,0,0],"sum_hessian":[5.87438E5,5.81518E5,5.92E3,5.17597E5,6.3921E4,4.553E3,1.367E3,3.53043E5,1.64554E5,5.571E4,8.211E3,2.448E3,2.105E3,1.012E3,3.55E2,1.88164E5,1.64879E5,1.02189E5,6.2365E4,3.7771E4,1.7939E4,6.071E3,2.14E3,1.519E3,9.29E2,1.522E3,5.83E2,4.04E2,6.08E2,1.86E2,1.69E2,9.015E4,9.8014E4,9.561E4,6.9269E4,5.8196E4,4.3993E4,3.5441E4,2.6924E4,2.2651E4,1.512E4,1.1767E4,6.172E3,3.716E3,2.355E3,1.099E3,1.041E3,1.038E3,4.81E2,5.57E2,3.72E2,9.86E2,5.36E2,3.14E2,2.69E2,3.77E2,2.31E2,4.5262E4,4.4888E4,5.2662E4,4.5352E4,5.2757E4,4.2853E4,3.7613E4,3.1656E4,3.1434E4,2.6762E4,2.419E4,1.9803E4,2.0145E4,1.5296E4,1.4371E4,1.2553E4,1.2729E4,9.922E3,8.208E3,6.912E3,6.566E3,5.201E3,3.545E3,2.627E3,2.159E3,1.557E3,1.324E3,1.031E3,6.43E2,4.56E2,4.76E2,5.65E2],"tree_param":{"num_deleted":"0","num_feature":"9","num_nodes":"89","size_leaf_vector":"0"}},{"base_weights":[7.8428925E1,6.6388885E1,1.2714868E3,4.875291E1,2.1301237E2,1.0140891E3,2.155172E3,3.149811E1,8.6520775E1,1.8332797E2,4.1888217E2,8.1944806E2,1.2451647E3,1.9669592E3,2.7987388E3,2.0292093E1,4.4704937E1,7.332495E1,1.08422066E2,1.5861124E2,2.362272E2,3.632291E2,5.6681934E2,7.4187604E2,9.401509E2,1.1630242E3,1.4521757E3,1.8206497E3,2.1483303E3,2.5918782E3,3.0742202E3,1.3435849E1,2.702903E1,3.9364944E1,5.2532387E1,6.640347E1,8.2451805E1,9.929378E1,1.1996072E2,1.4519214E2,1.7821783E2,2.1994476E2,2.7291837E2,3.3163382E2,4.0999756E2,5.1098282E2,6.268719E2,7.1655334E2,8.056159E2,9.0188324E2,9.9429926E2,1.1214232E3,1.2590017E3,1.3891968E3,1.5290253E3,1.6943848E3,1.9060503E3,2.0645137E3,2.2834429E3,9.599145E0,1.7490402E1,2.4292063E1,3.0299236E1,3.63377E1,4.3006496E1,4.9633614E1,5.63391E1,6.311497E1,7.075176E1,7.857322E1,8.663502E1,9.513917E1,1.047368E2,1.1497276E2,1.2567548E2,1.3875107E2,1.5397092E2,1.7054019E2,1.8802E2,2.0905768E2,2.3298499E2,2.5994492E2,2.8580893E2,3.1399915E2,3.50306E2,3.8961575E2,4.3808374E2,4.9100116E2,5.4047736E2,5.9527686E2,6.484868E2,1.0754468E3,1.15013E3],"categories":[],"categories_nodes":[],"categories_segments":[],"categories_sizes":[],"default_left":[true,true,true,true,true,true,true,true,true,true,true,true,true,true,true,true,true,true,true,true,true,true,true,true,true,true,true,true,true,false,false,true,true,true,true,true,true,true,true,true,true,true,true,true,true,true,true,false,false,false,false,true,false,false,false,false,false,false,false,false,false,false,false,false,false,false,false,false,false,false,false,false,false,false,false,false,false,false,false,false,false,false,false,false,false,false,false,false,false,false,false,false,false],"id":3,"left_children":[1,3,5,7,9,11,13,15,17,19,21,23,25,27,29,31,33,35,37,39,41,43,45,47,49,51,53,55,57,-1,-1,59,61,63,65,67,69,71,73,75,77,79,81,83,85,87,89,-1,-1,-1,-1,91,-1,-1,-1,-1,-1,-1,-1,-1,-1,-1,-1,-1,-1,-1,-1,-1,-1,-1,-1,-1,-1,-1,-1,-1,-1,-1,-1,-1,-1,-1,-1,-1,-1,-1,-1,-1,-1,-1,-1,-1,-1],"loss_changes":[8.4381583E9,1.5038441E9,1.3327688E9,3.383031E8,3.8150784E8,2.0348877E8,1.5474688E8,5.273536E7,4.7040896E7,7.131776E7,6.457267E7,2.2438912E7,3.3628416E7,2.3341568E7,8.956928E6,8.9038E6,6.834688E6,6.41216E6,6.434816E6,9.761024E6,1.0321408E7,8.316288E6,6.885568E6,1.858368E6,1.098688E6,4.545408E6,7.12064E5,2.970752E6,4.15744E5,0E0,0E0,1.486096E6,8.6952E5,1.070352E6,7.29136E5,8.2176E5,7.04E5,7.62912E5,7.56032E5,1.22768E6,1.105088E6,1.660736E6,8.1824E5,1.015808E6,1.147072E6,3.94112E5,3.1808E5,0E0,0E0,0E0,0E0,1.48864E5,0E0,0E0,0E0,0E0,0E0,0E0,0E0,0E0,0E0,0E0,0E0,0E0,0E0,0E0,0E0,0E0,0E0,0E0,0E0,0E0,0E0,0E0,0E0,0E0,0E0,0E0,0E0,0E0,0E0,0E0,0E0,0E0,0E0,0E0,0E0,0E0,0E0,0E0,0E0,0E0,0E0],"parents":[2147483647,0,0,1,1,2,2,3,3,4,4,5,5,6,6,7,7,8,8,9,9,10,10,11,11,12,12,13,13,14,14,15,15,16,16,17,17,18,18,19,19,20,20,21,21,22,22,23,23,24,24,25,25,26,26,27,27,28,28,31,31,32,32,33,33,34,34,35,35,36,36,37,37,38,38,39,39,40,40,41,41,42,42,43,43,44,44,45,45,46,46,51,51],"right_children":[2,4,6,8,10,12,14,16,18,20,22,24,26,28,30,32,34,36,38,40,42,44,46,48,50,52,54,56,58,-1,-1,60,62,64,66,68,70,72,74,76,78,80,82,84,86,88,90,-1,-1,-1,-1,92,-1,-1,-1,-1,-1,-1,-1,-1,-1,-1,-1,-1,-1,-1,-1,-1,-1,-1,-1,-1,-1,-1,-1,-1,-1,-1,-1,-1,-1,-1,-1,-1,-1,-1,-1,-1,-1,-1,-1,-1,-1],"split_conditions":[1.11722E3,2.2315192E2,2.684385E3,1.0316753E2,5.012E2,1.72987E3,3.8677852E3,5.8155E1,1.5575655E2,3.31665E2,7.6854504E2,1.363005E3,2.160125E3,3.194855E3,4.657675E3,3.712125E1,8.175165E1,1.2883488E2,1.8689499E2,2.72835E2,4.1657E2,6.1053503E2,9.40915E2,1.25724E3,1.5340801E3,1.96327E3,2.356315E3,2.9605E3,3.49975E3,3.8878174E2,4.6113306E2,2.5828693E1,4.8828903E1,7.040849E1,9.27986E1,1.1664039E2,1.4159113E2,1.71495E2,2.04625E2,2.48625E2,3.01095E2,3.61165E2,4.5456E2,5.5373E2,6.8704004E2,8.4571497E2,1.002025E3,1.0748301E2,1.2084239E2,1.3528249E2,1.491449E2,1.821575E3,1.8885027E2,2.0837953E2,2.293538E2,2.5415773E2,2.8590756E2,3.0967706E2,3.4251645E2,1.4398718E0,2.6235604E0,3.6438096E0,4.5448856E0,5.450655E0,6.450975E0,7.445042E0,8.450866E0,9.467246E0,1.0612764E1,1.1785983E1,1.2995254E1,1.4270876E1,1.5710521E1,1.7245914E1,1.8851324E1,2.081266E1,2.3095638E1,2.558103E1,2.8203001E1,3.1358652E1,3.494775E1,3.8991737E1,4.287134E1,4.7099873E1,5.2545902E1,5.8442364E1,6.571256E1,7.365018E1,8.107161E1,8.9291534E1,9.7273026E1,1.6131702E2,1.725195E2],"split_indices":[3,3,3,3,3,3,4,3,3,3,3,4,3,4,4,3,3,3,3,3,3,3,3,3,4,3,4,3,4,0,0,3,3,3,3,3,3,3,3,3,3,4,3,3,3,3,4,0,0,0,0,3,0,0,0,0,0,0,0,0,0,0,0,0,0,0,0,0,0,0,0,0,0,0,0,0,0,0,0,0,0,0,0,0,0,0,0,0,0,0,0,0,0],"split_type":[0,0,0,0,0,0,0,0,0,0,0,0,0,0,0,0,0,0,0,0,0,0,0,0,0,0,0,0,0,0,0,0,0,0,0,0,0,0,0,0,0,0,0,0,0,0,0,0,0,0,0,0,0,0,0,0,0,0,0,0,0,0,0,0,0,0,0,0,0,0,0,0,0,0,0,0,0,0,0,0,0,0,0,0,0,0,0,0,0,0,0,0,0],"sum_hessian":[5.87438E5,5.8157E5,5.868E3,5.1913E5,6.244E4,4.546E3,1.322E3,3.56335E5,1.62795E5,5.4573E4,7.867E3,2.47E3,2.076E3,1.026E3,2.96E2,1.92771E5,1.63564E5,1.0159E5,6.1205E4,3.7197E4,1.7376E4,5.719E3,2.148E3,1.508E3,9.62E2,1.491E3,5.85E2,5.74E2,4.52E2,1.75E2,1.21E2,9.5541E4,9.723E4,9.7235E4,6.6329E4,5.778E4,4.381E4,3.4177E4,2.7028E4,2.2088E4,1.5109E4,1.204E4,5.336E3,3.418E3,2.301E3,1.118E3,1.03E3,1.088E3,4.2E2,5.74E2,3.88E2,1.049E3,4.42E2,3.32E2,2.53E2,2.4E2,3.34E2,2.89E2,1.63E2,4.9091E4,4.645E4,5.2935E4,4.4295E4,5.3102E4,4.4133E4,3.7663E4,2.8666E4,3.2908E4,2.4872E4,2.2743E4,2.1067E4,1.9393E4,1.4784E4,1.4443E4,1.2585E4,1.275E4,9.338E3,8.483E3,6.626E3,6.571E3,5.469E3,2.67E3,2.666E3,1.767E3,1.651E3,1.342E3,9.59E2,6.77E2,4.41E2,4.3E2,6E2,4.18E2,6.31E2],"tree_param":{"num_deleted":"0","num_feature":"9","num_nodes":"93","size_leaf_vector":"0"}},{"base_weights":[6.66722E1,5.652441E1,1.0907291E3,4.1748497E1,1.8437865E2,8.717103E2,1.8421354E3,2.7113495E1,7.4851845E1,1.589679E2,3.6775937E2,7.037445E2,1.0636213E3,1.6871407E3,2.4084614E3,1.759299E1,3.8815624E1,6.3996044E1,9.473192E1,1.3815495E2,2.0700285E2,3.1854684E2,4.9434244E2,6.3689886E2,8.0380023E2,9.922809E2,1.2449153E3,1.554447E3,1.8331274E3,2.2485015E3,2.6529285E3,1.1708824E1,2.3583595E1,3.4202354E1,4.555374E1,5.806509E1,7.2534424E1,8.7235E1,1.0440447E2,1.2658086E2,1.5650623E2,1.9129205E2,2.3674089E2,2.9343246E2,3.641514E2,4.4573398E2,5.4034814E2,6.1356305E2,6.867256E2,7.7079956E2,8.484971E2,9.536602E2,1.0705775E3,1.1824623E3,1.300096E3,1.4337596E3,1.6113204E3,1.7537252E3,1.9490095E3,7.4980516E0,1.4644437E1,2.1281464E1,2.6379055E1,3.1565336E1,3.7214508E1,4.28863E1,4.854544E1,5.4758297E1,6.1873104E1,6.953022E1,7.628462E1,8.359515E1,9.1613976E1,1.0005853E2,1.0821602E2,1.2094977E2,1.3541782E2,1.4986319E2,1.6549902E2,1.8311728E2,2.025999E2,2.2641489E2,2.5039594E2,2.7825894E2,3.115883E2,3.4899026E2,3.8819675E2,4.2846878E2,4.7210834E2,5.155599E2,5.5782745E2,9.239602E2,9.839646E2],"categories":[],"categories_nodes":[],"categories_segments":[],"categories_sizes":[],"default_left":[true,true,true,true,true,true,true,true,true,true,true,true,true,true,true,true,true,true,true,true,true,true,true,true,true,true,true,true,true,false,false,true,true,true,true,true,true,true,true,true,true,true,true,true,true,true,true,false,false,false,false,true,false,false,false,false,false,false,false,false,false,false,false,false,false,false,false,false,false,false,false,false,false,false,false,false,false,false,false,false,false,false,false,false,false,false,false,false,false,false,false,false,false],"id":4,"left_children":[1,3,5,7,9,11,13,15,17,19,21,23,25,27,29,31,33,35,37,39,41,43,45,47,49,51,53,55,57,-1,-1,59,61,63,65,67,69,71,73,75,77,79,81,83,85,87,89,-1,-1,-1,-1,91,-1,-1,-1,-1,-1,-1,-1,-1,-1,-1,-1,-1,-1,-1,-1,-1,-1,-1,-1,-1,-1,-1,-1,-1,-1,-1,-1,-1,-1,-1,-1,-1,-1,-1,-1,-1,-1,-1,-1,-1,-1],"loss_changes":[6.1045586E9,1.0988731E9,9.46988E8,2.5260806E8,2.8073894E8,1.431785E8,1.1004723E8,4.028189E7,3.449165E7,5.288512E7,4.5523264E7,1.543296E7,2.5692416E7,1.6987136E7,4.867072E6,7.027496E6,5.0404E6,5.231744E6,4.084768E6,7.824128E6,7.42912E6,5.943904E6,4.34576E6,1.24608E6,7.48736E5,3.511936E6,4.75264E5,1.416832E6,1.01696E6,0E0,0E0,1.243193E6,6.35208E5,7.63632E5,5.23936E5,7.64976E5,4.72144E5,4.9936E5,3.9744E5,1.110816E6,8.28224E5,9.3104E5,7.22464E5,8.53248E5,5.46976E5,2.54448E5,1.66912E5,0E0,0E0,0E0,0E0,2.56E3,0E0,0E0,0E0,0E0,0E0,0E0,0E0,0E0,0E0,0E0,0E0,0E0,0E0,0E0,0E0,0E0,0E0,0E0,0E0,0E0,0E0,0E0,0E0,0E0,0E0,0E0,0E0,0E0,0E0,0E0,0E0,0E0,0E0,0E0,0E0,0E0,0E0,0E0,0E0,0E0,0E0],"parents":[2147483647,0,0,1,1,2,2,3,3,4,4,5,5,6,6,7,7,8,8,9,9,10,10,11,11,12,12,13,13,14,14,15,15,16,16,17,17,18,18,19,19,20,20,21,21,22,22,23,23,24,24,25,25,26,26,27,27,28,28,31,31,32,32,33,33,34,34,35,35,36,36,37,37,38,38,39,39,40,40,41,41,42,42,43,43,44,44,45,45,46,46,51,51],"right_children":[2,4,6,8,10,12,14,16,18,20,22,24,26,28,30,32,34,36,38,40,42,44,46,48,50,52,54,56,58,-1,-1,60,62,64,66,68,70,72,74,76,78,80,82,84,86,88,90,-1,-1,-1,-1,92,-1,-1,-1,-1,-1,-1,-1,-1,-1,-1,-1,-1,-1,-1,-1,-1,-1,-1,-1,-1,-1,-1,-1,-1,-1,-1,-1,-1,-1,-1,-1,-1,-1,-1,-1,-1,-1,-1,-1,-1,-1],"split_conditions":[1.106405E3,2.2735501E2,2.7035E3,1.0525166E2,5.1698E2,1.692005E3,4.0331802E3,5.9637703E1,1.61005E2,3.42155E2,7.78375E2,1.4151951E3,2.1259448E3,3.27723E3,4.718915E3,3.8197998E1,8.325996E1,1.33565E2,1.92375E2,2.81025E2,4.22285E2,6.23355E2,9.5487E2,1.232625E3,1.5773159E3,1.9231799E3,2.4087227E3,2.8412002E3,3.498205E3,3.3727524E2,3.979393E2,2.3597584E1,5.0179962E1,7.171878E1,9.3723656E1,1.18604996E2,1.4741937E2,1.76205E2,2.07015E2,2.56595E2,3.11935E2,3.79915E2,4.7026E2,5.78805E2,7.18855E2,8.6703E2,1.04652E3,9.203446E1,1.0300884E2,1.1561994E2,1.2727457E2,1.8154199E3,1.6058664E2,1.7736935E2,1.950144E2,2.1506395E2,2.4169807E2,2.630588E2,2.9235144E2,1.1247078E0,2.1966655E0,3.1922197E0,3.9568584E0,4.734801E0,5.582176E0,6.4329453E0,7.2818165E0,8.213745E0,9.280966E0,1.0429533E1,1.1442694E1,1.2539273E1,1.3742097E1,1.50087805E1,1.6232403E1,1.8142466E1,2.0312674E1,2.2479479E1,2.4824854E1,2.7467592E1,3.0389986E1,3.3962234E1,3.755939E1,4.1738842E1,4.6738243E1,5.234854E1,5.8229515E1,6.427032E1,7.081625E1,7.7333984E1,8.367412E1,1.3859404E2,1.475947E2],"split_indices":[4,3,3,3,3,4,3,3,3,3,4,3,4,3,4,3,3,3,3,3,3,4,3,4,3,4,3,4,4,0,0,3,3,3,3,3,3,3,3,3,3,3,3,3,3,3,3,0,0,0,0,4,0,0,0,0,0,0,0,0,0,0,0,0,0,0,0,0,0,0,0,0,0,0,0,0,0,0,0,0,0,0,0,0,0,0,0,0,0,0,0,0,0],"split_type":[0,0,0,0,0,0,0,0,0,0,0,0,0,0,0,0,0,0,0,0,0,0,0,0,0,0,0,0,0,0,0,0,0,0,0,0,0,0,0,0,0,0,0,0,0,0,0,0,0,0,0,0,0,0,0,0,0,0,0,0,0,0,0,0,0,0,0,0,0,0,0,0,0,0,0,0,0,0,0,0,0,0,0,0,0,0,0,0,0,0,0,0,0],"sum_hessian":[5.87438E5,5.81675E5,5.763E3,5.21417E5,6.0258E4,4.464E3,1.299E3,3.61569E5,1.59848E5,5.2926E4,7.332E3,2.383E3,2.081E3,1.023E3,2.76E2,1.9937E5,1.62199E5,1.03393E5,5.6455E4,3.6929E4,1.5997E4,5.282E3,2.05E3,1.433E3,9.5E2,1.498E3,5.83E2,5.42E2,4.81E2,1.73E2,1.03E2,1.0058E5,9.879E4,9.6284E4,6.5915E4,6.1017E4,4.2376E4,3.181E4,2.4645E4,2.2651E4,1.4278E4,1.0472E4,5.525E3,3.411E3,1.871E3,1.002E3,1.048E3,9.85E2,4.48E2,5.57E2,3.93E2,1.012E3,4.86E2,2.84E2,2.99E2,1.82E2,3.6E2,2.95E2,1.86E2,4.1318E4,5.9262E4,5.418E4,4.461E4,5.1345E4,4.4939E4,3.4854E4,3.1061E4,3.2666E4,2.8351E4,2.3539E4,1.8837E4,1.7382E4,1.4428E4,1.1528E4,1.3117E4,1.3844E4,8.807E3,8.222E3,6.056E3,6.088E3,4.384E3,3.156E3,2.369E3,1.867E3,1.544E3,1.157E3,7.14E2,6.16E2,3.86E2,4.46E2,6.02E2,5.27E2,4.85E2],"tree_param":{"num_deleted":"0","num_feature":"9","num_nodes":"93","size_leaf_vector":"0"}},{"base_weights":[5.667792E1,4.81057E1,9.33721E2,3.5765896E1,1.5967111E2,7.444572E2,1.5628815E3,2.323403E1,6.45546E1,1.3838239E2,3.2495822E2,6.057983E2,9.071664E2,1.4413384E3,2.0980447E3,1.51644535E1,3.3483856E1,5.5099274E1,8.180315E1,1.1989682E2,1.8091478E2,2.80743E2,4.2835767E2,5.486851E2,6.9342865E2,8.485888E2,1.0595857E3,1.3283644E3,1.5853359E3,1.9875542E3,2.3297854E3,9.145819E0,1.9580023E1,2.960991E1,3.9411476E1,4.986349E1,6.2213043E1,7.498373E1,8.977851E1,1.0954762E2,1.3536499E2,1.6564948E2,2.0690523E2,2.5786832E2,3.1589276E2,3.8736713E2,4.6377994E2,5.2736725E2,5.965285E2,6.645202E2,7.287149E2,8.1700397E2,9.181273E2,1.01869037E3,1.1157188E3,1.234707E3,1.3911929E3,1.5077539E3,1.677965E3,3.5357406E0,1.0782598E1,1.6563498E1,2.1878622E1,2.753835E1,3.2518932E1,3.71824E1,4.1740753E1,4.750431E1,5.3736946E1,5.908813E1,6.497246E1,7.20273E1,7.8648926E1,8.6316376E1,9.382049E1,1.0459972E2,1.165131E2,1.2900337E2,1.4254436E2,1.5897078E2,1.7580737E2,1.9772429E2,2.2143188E2,2.4525058E2,2.6963525E2,3.0056686E2,3.346696E2,3.7091666E2,4.0722272E2,4.421177E2,4.765773E2],"categories":[],"categories_nodes":[],"categories_segments":[],"categories_sizes":[],"default_left":[true,true,true,true,true,true,true,true,true,true,true,true,true,true,true,true,true,true,true,true,true,true,true,true,true,true,true,true,true,false,false,true,true,true,true,true,true,true,true,true,true,true,true,true,true,true,true,false,false,false,false,false,false,false,false,false,false,false,false,false,false,false,false,false,false,false,false,false,false,false,false,false,false,false,false,false,false,false,false,false,false,false,false,false,false,false,false,false,false,false,false],"id":5,"left_children":[1,3,5,7,9,11,13,15,17,19,21,23,25,27,29,31,33,35,37,39,41,43,45,47,49,51,53,55,57,-1,-1,59,61,63,65,67,69,71,73,75,77,79,81,83,85,87,89,-1,-1,-1,-1,-1,-1,-1,-1,-1,-1,-1,-1,-1,-1,-1,-1,-1,-1,-1,-1,-1,-1,-1,-1,-1,-1,-1,-1,-1,-1,-1,-1,-1,-1,-1,-1,-1,-1,-1,-1,-1,-1,-1,-1],"loss_changes":[4.4164434E9,8.0089254E8,6.759096E8,1.8897958E8,2.038208E8,9.811021E7,8.244582E7,3.0185472E7,2.5904896E7,4.033421E7,3.009952E7,1.1451008E7,1.7046784E7,1.5365888E7,1.540224E6,5.426472E6,3.6904E6,3.818976E6,3.052512E6,5.71312E6,6.134432E6,3.64368E6,2.692352E6,1.150016E6,4.63392E5,2.450048E6,1.35232E5,1.859968E6,8.25984E5,0E0,0E0,7.934545E5,8.1632E5,5.85008E5,3.28328E5,5.37664E5,3.7128E5,3.22976E5,3.5464E5,7.26832E5,6.36512E5,6.36896E5,7.22944E5,3.51376E5,4.23728E5,1.50448E5,8.2032E4,0E0,0E0,0E0,0E0,0E0,0E0,0E0,0E0,0E0,0E0,0E0,0E0,0E0,0E0,0E0,0E0,0E0,0E0,0E0,0E0,0E0,0E0,0E0,0E0,0E0,0E0,0E0,0E0,0E0,0E0,0E0,0E0,0E0,0E0,0E0,0E0,0E0,0E0,0E0,0E0,0E0,0E0,0E0,0E0],"parents":[2147483647,0,0,1,1,2,2,3,3,4,4,5,5,6,6,7,7,8,8,9,9,10,10,11,11,12,12,13,13,14,14,15,15,16,16,17,17,18,18,19,19,20,20,21,21,22,22,23,23,24,24,25,25,26,26,27,27,28,28,31,31,32,32,33,33,34,34,35,35,36,36,37,37,38,38,39,39,40,40,41,41,42,42,43,43,44,44,45,45,46,46],"right_children":[2,4,6,8,10,12,14,16,18,20,22,24,26,28,30,32,34,36,38,40,42,44,46,48,50,52,54,56,58,-1,-1,60,62,64,66,68,70,72,74,76,78,80,82,84,86,88,90,-1,-1,-1,-1,-1,-1,-1,-1,-1,-1,-1,-1,-1,-1,-1,-1,-1,-1,-1,-1,-1,-1,-1,-1,-1,-1,-1,-1,-1,-1,-1,-1,-1,-1,-1,-1,-1,-1,-1,-1,-1,-1,-1,-1],"split_conditions":[1.1387251E3,2.3192154E2,2.63004E3,1.0654234E2,5.40485E2,1.749995E3,4.10205E3,6.072593E1,1.63045E2,3.4010498E2,8.1608E2,1.40324E3,2.192405E3,3.231415E3,4.95524E3,3.505889E1,8.484791E1,1.343793E2,1.93625E2,2.84985E2,4.30065E2,6.35705E2,9.6796497E2,1.252855E3,1.5888049E3,1.98697E3,2.391E3,2.900835E3,3.5458198E3,2.9813315E2,3.4946783E2,1.6985834E1,4.6441757E1,7.435443E1,9.4835E1,1.22005005E2,1.4639403E2,1.7827335E2,2.11875E2,2.59365E2,3.14725E2,3.86975E2,4.86215E2,5.7511E2,7.0579504E2,8.5901E2,1.02312854E3,7.910509E1,8.947928E1,9.967803E1,1.0930724E2,1.225506E2,1.377191E2,1.5280356E2,1.6735782E2,1.8520605E2,2.0867894E2,2.261631E2,2.5169475E2,5.303611E-1,1.6173897E0,2.4845247E0,3.2817934E0,4.1307526E0,4.87784E0,5.57736E0,6.261113E0,7.125647E0,8.060542E0,8.86322E0,9.745869E0,1.0804095E1,1.1797339E1,1.2947457E1,1.4073073E1,1.5689958E1,1.7476965E1,1.9350506E1,2.1381655E1,2.3845617E1,2.6371107E1,2.9658644E1,3.3214783E1,3.678759E1,4.044529E1,4.508503E1,5.020044E1,5.56375E1,6.108341E1,6.631766E1,7.1486595E1],"split_indices":[3,3,4,3,3,3,3,3,3,4,3,4,3,4,3,3,3,3,3,3,3,4,3,4,3,3,4,4,4,0,0,3,3,3,3,3,3,3,3,3,3,3,3,4,4,4,4,0,0,0,0,0,0,0,0,0,0,0,0,0,0,0,0,0,0,0,0,0,0,0,0,0,0,0,0,0,0,0,0,0,0,0,0,0,0,0,0,0,0,0,0],"split_type":[0,0,0,0,0,0,0,0,0,0,0,0,0,0,0,0,0,0,0,0,0,0,0,0,0,0,0,0,0,0,0,0,0,0,0,0,0,0,0,0,0,0,0,0,0,0,0,0,0,0,0,0,0,0,0,0,0,0,0,0,0,0,0,0,0,0,0,0,0,0,0,0,0,0,0,0,0,0,0,0,0,0,0,0,0,0,0,0,0,0,0],"sum_hessian":[5.87438E5,5.81753E5,5.685E3,5.23817E5,5.7936E4,4.372E3,1.313E3,3.64953E5,1.58864E5,5.1327E4,6.609E3,2.363E3,2.009E3,1.073E3,2.4E2,2.04195E5,1.60758E5,1.02616E5,5.6248E4,3.578E4,1.5547E4,4.632E3,1.977E3,1.435E3,9.28E2,1.456E3,5.53E2,6.07E2,4.66E2,1.69E2,7.1E1,8.6413E4,1.17782E5,9.7224E4,6.3534E4,5.9115E4,4.3501E4,3.0327E4,2.5921E4,2.1442E4,1.4338E4,9.799E3,5.748E3,2.811E3,1.821E3,9.22E2,1.055E3,1.001E3,4.34E2,5.21E2,4.07E2,1.01E3,4.46E2,3.31E2,2.22E2,2.52E2,3.55E2,2.63E2,2.03E2,1.9518E4,6.6895E4,5.094E4,6.6842E4,5.6792E4,4.0432E4,3.2474E4,3.106E4,3.6747E4,2.2368E4,2.041E4,2.3091E4,1.6798E4,1.3529E4,1.3974E4,1.1947E4,1.2546E4,8.896E3,7.612E3,6.726E3,5.922E3,3.877E3,3.531E3,2.217E3,1.367E3,1.444E3,1.012E3,8.09E2,5.15E2,4.07E2,4.05E2,6.5E2],"tree_param":{"num_deleted":"0","num_feature":"9","num_nodes":"91","size_leaf_vector":"0"}},{"base_weights":[4.8181686E1,4.0976337E1,8.0306915E2,3.0481121E1,1.3711989E2,6.4303796E2,1.3412849E3,2.003728E1,5.571331E1,1.1828639E2,2.7985013E2,5.2612665E2,7.8251056E2,1.2387642E3,1.8003624E3,1.3274728E1,2.9320667E1,4.790586E1,7.059222E1,1.0229573E2,1.5386917E2,2.4014815E2,3.694938E2,4.7426218E2,5.9890076E2,7.286852E2,9.1004987E2,1.1470038E3,1.3604553E3,1.708053E3,1.9951576E3,8.640365E0,1.7797379E1,2.584878E1,3.4085255E1,4.3579853E1,5.4299557E1,6.534666E1,7.760041E1,9.40462E1,1.1585492E2,1.4119246E2,1.7705763E2,2.2194461E2,2.7401538E2,3.3145016E2,3.9694333E2,4.537555E2,5.123094E2,5.710767E2,6.2594086E2,7.0161755E2,7.853029E2,8.7054724E2,9.5654504E2,1.0622992E3,1.1872245E3,1.2898588E3,1.4333248E3,6.0495267E0,1.1788672E1,1.5833046E1,1.9791332E1,2.4126144E1,2.798065E1,3.223386E1,3.6244335E1,4.131164E1,4.6821613E1,5.1928658E1,5.697864E1,6.257014E1,6.865722E1,7.524196E1,8.1187325E1,8.9136826E1,9.93973E1,1.1152218E2,1.2300117E2,1.3544992E2,1.506787E2,1.6884471E2,1.8832506E2,2.1076039E2,2.3411984E2,2.6364734E2,2.9311133E2,3.1891895E2,3.4955466E2,3.776799E2,4.0832227E2],"categories":[],"categories_nodes":[],"categories_segments":[],"categories_sizes":[],"default_left":[true,true,true,true,true,true,true,true,true,true,true,true,true,true,true,true,true,true,true,true,true,true,true,true,true,true,true,true,true,false,false,true,true,true,true,true,true,true,true,true,true,true,true,true,true,true,true,false,false,false,false,false,false,false,false,false,false,false,false,false,false,false,false,false,false,false,false,false,false,false,false,false,false,false,false,false,false,false,false,false,false,false,false,false,false,false,false,false,false,false,false],"id":6,"left_children":[1,3,5,7,9,11,13,15,17,19,21,23,25,27,29,31,33,35,37,39,41,43,45,47,49,51,53,55,57,-1,-1,59,61,63,65,67,69,71,73,75,77,79,81,83,85,87,89,-1,-1,-1,-1,-1,-1,-1,-1,-1,-1,-1,-1,-1,-1,-1,-1,-1,-1,-1,-1,-1,-1,-1,-1,-1,-1,-1,-1,-1,-1,-1,-1,-1,-1,-1,-1,-1,-1,-1,-1,-1,-1,-1,-1],"loss_changes":[3.1951826E9,5.871464E8,4.775109E8,1.3824698E8,1.5390938E8,6.942656E7,5.763635E7,2.3293472E7,1.783712E7,2.8771904E7,2.3667808E7,8.5216E6,1.273024E7,1.0086144E7,7.27936E5,4.499224E6,2.585888E6,2.783664E6,1.937824E6,3.894016E6,4.585632E6,2.792976E6,2.006048E6,8.34112E5,3.70048E5,1.55936E6,2.2336E5,7.86368E5,4.30144E5,0E0,0E0,8.647645E5,4.2522E5,3.31544E5,2.62296E5,4.39848E5,2.55216E5,2.736E5,1.85248E5,5.61472E5,3.95024E5,5.32304E5,4.80864E5,3.61344E5,2.42272E5,8.4536E4,1.05312E5,0E0,0E0,0E0,0E0,0E0,0E0,0E0,0E0,0E0,0E0,0E0,0E0,0E0,0E0,0E0,0E0,0E0,0E0,0E0,0E0,0E0,0E0,0E0,0E0,0E0,0E0,0E0,0E0,0E0,0E0,0E0,0E0,0E0,0E0,0E0,0E0,0E0,0E0,0E0,0E0,0E0,0E0,0E0,0E0],"parents":[2147483647,0,0,1,1,2,2,3,3,4,4,5,5,6,6,7,7,8,8,9,9,10,10,11,11,12,12,13,13,14,14,15,15,16,16,17,17,18,18,19,19,20,20,21,21,22,22,23,23,24,24,25,25,26,26,27,27,28,28,31,31,32,32,33,33,34,34,35,35,36,36,37,37,38,38,39,39,40,40,41,41,42,42,43,43,44,44,45,45,46,46],"right_children":[2,4,6,8,10,12,14,16,18,20,22,24,26,28,30,32,34,36,38,40,42,44,46,48,50,52,54,56,58,-1,-1,60,62,64,66,68,70,72,74,76,78,80,82,84,86,88,90,-1,-1,-1,-1,-1,-1,-1,-1,-1,-1,-1,-1,-1,-1,-1,-1,-1,-1,-1,-1,-1,-1,-1,-1,-1,-1,-1,-1,-1,-1,-1,-1,-1,-1,-1,-1,-1,-1,-1,-1,-1,-1,-1,-1],"split_conditions":[1.1526589E3,2.3346077E2,2.72558E3,1.08935E2,5.4295E2,1.77036E3,4.035005E3,6.3162003E1,1.66565E2,3.48475E2,8.22855E2,1.4199451E3,2.156095E3,3.259005E3,4.84151E3,3.9451668E1,8.590819E1,1.3821613E2,1.98515E2,2.81835E2,4.342E2,6.6868E2,9.69E2,1.29199E3,1.5996101E3,1.96331E3,2.45023E3,2.991575E3,3.646955E3,2.5620795E2,2.9927365E2,2.805389E1,5.150222E1,7.5351524E1,9.718281E1,1.2455533E2,1.51905E2,1.82435E2,2.17345E2,2.58335E2,3.22685E2,3.89305E2,4.8552502E2,5.9891504E2,7.30845E2,8.73185E2,1.031605E3,6.8063324E1,7.684641E1,8.5661514E1,9.389113E1,1.0524264E2,1.1779544E2,1.3058209E2,1.4348177E2,1.5934488E2,1.7808368E2,1.9347882E2,2.1499873E2,9.0742904E-1,1.7683009E0,2.374957E0,2.9687E0,3.6189218E0,4.197098E0,4.835079E0,5.4366503E0,6.1967463E0,7.0232425E0,7.789299E0,8.546797E0,9.385522E0,1.0298583E1,1.1286294E1,1.21781E1,1.3370524E1,1.49095955E1,1.6728327E1,1.8450176E1,2.031749E1,2.2601805E1,2.5326708E1,2.824876E1,3.161406E1,3.5117977E1,3.9547104E1,4.39667E1,4.7837845E1,5.24332E1,5.665199E1,6.124834E1],"split_indices":[3,3,3,3,3,3,4,3,3,3,3,4,4,4,4,3,3,3,3,4,3,3,3,3,3,4,3,3,3,0,0,3,3,3,3,3,3,3,3,3,3,3,3,3,4,4,4,0,0,0,0,0,0,0,0,0,0,0,0,0,0,0,0,0,0,0,0,0,0,0,0,0,0,0,0,0,0,0,0,0,0,0,0,0,0,0,0,0,0,0,0],"split_type":[0,0,0,0,0,0,0,0,0,0,0,0,0,0,0,0,0,0,0,0,0,0,0,0,0,0,0,0,0,0,0,0,0,0,0,0,0,0,0,0,0,0,0,0,0,0,0,0,0,0,0,0,0,0,0,0,0,0,0,0,0,0,0,0,0,0,0,0,0,0,0,0,0,0,0,0,0,0,0,0,0,0,0,0,0,0,0,0,0,0,0],"sum_hessian":[5.87438E5,5.81885E5,5.553E3,5.24618E5,5.7267E4,4.282E3,1.271E3,3.71042E5,1.53576E5,5.0593E4,6.674E3,2.332E3,1.95E3,1.042E3,2.29E2,2.14668E5,1.56374E5,1.00726E5,5.285E4,3.4909E4,1.5684E4,4.628E3,2.046E3,1.366E3,9.66E2,1.376E3,5.74E2,6E2,4.42E2,1.62E2,6.7E1,1.06026E5,1.08642E5,9.0462E4,6.5912E4,6.0082E4,4.0644E4,3.0232E4,2.2618E4,2.1709E4,1.32E4,1.0145E4,5.539E3,3.015E3,1.613E3,8.63E2,1.183E3,8.96E2,4.7E2,4.87E2,4.79E2,9.4E2,4.36E2,3.21E2,2.53E2,2.02E2,3.98E2,2.34E2,2.08E2,5.8164E4,4.7862E4,5.4732E4,5.391E4,5.004E4,4.0422E4,3.5493E4,3.0419E4,3.5357E4,2.4725E4,2.1573E4,1.9071E4,1.6453E4,1.3779E4,1.3659E4,8.959E3,1.1331E4,1.0378E4,8.228E3,4.972E3,6.329E3,3.816E3,3.213E3,2.326E3,1.581E3,1.434E3,1.055E3,5.58E2,5.21E2,3.42E2,4.52E2,7.31E2],"tree_param":{"num_deleted":"0","num_feature":"9","num_nodes":"91","size_leaf_vector":"0"}},{"base_weights":[4.0959114E1,3.4770824E1,6.7680676E2,2.5522066E1,1.1272527E2,5.433651E2,1.1454412E3,1.6185417E1,4.4795612E1,9.704526E1,2.285758E2,4.43786E2,6.6767596E2,1.0564629E3,1.5287808E3,9.866231E0,2.2363861E1,3.774624E1,5.662566E1,8.3601135E1,1.2584402E2,1.9513486E2,3.032576E2,3.973294E2,5.0611923E2,6.209037E2,7.783534E2,9.957775E2,1.1856963E3,1.4329912E3,1.6687412E3,5.523241E0,1.2607795E1,1.9439388E1,2.6601215E1,3.3866074E1,4.243716E1,5.185832E1,6.3050087E1,7.619126E1,9.387678E1,1.14961754E2,1.4327635E2,1.7981271E2,2.2075194E2,2.7087558E2,3.330226E2,3.7506506E2,4.21396E2,4.788958E2,5.2992896E2,5.968813E2,6.6822064E2,7.439226E2,8.162134E2,9.471689E2,1.0523354E3,8.338026E-1,6.692002E0,1.0801691E1,1.4415158E1,1.7408016E1,2.1230606E1,2.4475832E1,2.8297976E1,3.1449528E1,3.584667E1,4.018251E1,4.4778934E1,4.8418762E1,5.3940502E1,6.0368477E1,6.618661E1,7.129323E1,7.982275E1,8.961499E1,9.920105E1,1.09076004E2,1.20363976E2,1.3510066E2,1.5248705E2,1.7074118E2,1.8945854E2,2.0916235E2,2.3231633E2,2.592708E2,2.8613113E2,3.141398E2,3.427807E2,5.738745E2,6.150881E2],"categories":[],"categories_nodes":[],"categories_segments":[],"categories_sizes":[],"default_left":[true,true,true,true,true,true,true,true,true,true,true,true,true,true,true,true,true,true,true,true,true,true,true,true,true,true,true,true,false,false,false,true,true,true,true,true,true,true,true,true,true,true,true,true,true,true,true,false,false,false,false,true,false,false,false,false,false,false,false,false,false,false,false,false,false,false,false,false,false,false,false,false,false,false,false,false,false,false,false,false,false,false,false,false,false,false,false,false,false,false,false],"id":7,"left_children":[1,3,5,7,9,11,13,15,17,19,21,23,25,27,29,31,33,35,37,39,41,43,45,47,49,51,53,55,-1,-1,-1,57,59,61,63,65,67,69,71,73,75,77,79,81,83,85,87,-1,-1,-1,-1,89,-1,-1,-1,-1,-1,-1,-1,-1,-1,-1,-1,-1,-1,-1,-1,-1,-1,-1,-1,-1,-1,-1,-1,-1,-1,-1,-1,-1,-1,-1,-1,-1,-1,-1,-1,-1,-1,-1,-1],"loss_changes":[2.3114368E9,4.1944858E8,3.534528E8,9.35871E7,1.1206374E8,5.428173E7,4.1157504E7,1.367864E7,1.4151648E7,2.1032E7,1.8309408E7,6.89648E6,9.657728E6,6.826624E6,7.45856E5,2.062234E6,2.194728E6,1.93432E6,1.937584E6,2.81424E6,3.264416E6,1.95544E6,2.100624E6,5.96928E5,4.22272E5,1.172032E6,1.4624E5,9.30432E5,0E0,0E0,0E0,3.6736925E5,3.46444E5,3.81016E5,2.60164E5,2.7748E5,2.52384E5,2.57952E5,2.23008E5,3.77352E5,3.43296E5,3.256E5,4.79648E5,2.46432E5,2.05792E5,1.19496E5,1.09744E5,0E0,0E0,0E0,0E0,3.4912E4,0E0,0E0,0E0,0E0,0E0,0E0,0E0,0E0,0E0,0E0,0E0,0E0,0E0,0E0,0E0,0E0,0E0,0E0,0E0,0E0,0E0,0E0,0E0,0E0,0E0,0E0,0E0,0E0,0E0,0E0,0E0,0E0,0E0,0E0,0E0,0E0,0E0,0E0,0E0],"parents":[2147483647,0,0,1,1,2,2,3,3,4,4,5,5,6,6,7,7,8,8,9,9,10,10,11,11,12,12,13,13,14,14,15,15,16,16,17,17,18,18,19,19,20,20,21,21,22,22,23,23,24,24,25,25,26,26,27,27,31,31,32,32,33,33,34,34,35,35,36,36,37,37,38,38,39,39,40,40,41,41,42,42,43,43,44,44,45,45,46,46,51,51],"right_children":[2,4,6,8,10,12,14,16,18,20,22,24,26,28,30,32,34,36,38,40,42,44,46,48,50,52,54,56,-1,-1,-1,58,60,62,64,66,68,70,72,74,76,78,80,82,84,86,88,-1,-1,-1,-1,90,-1,-1,-1,-1,-1,-1,-1,-1,-1,-1,-1,-1,-1,-1,-1,-1,-1,-1,-1,-1,-1,-1,-1,-1,-1,-1,-1,-1,-1,-1,-1,-1,-1,-1,-1,-1,-1,-1,-1],"split_conditions":[1.11697E3,2.1991501E2,2.7455E3,1.00749466E2,5.18885E2,1.7391599E3,4.0158E3,5.4008816E1,1.5487787E2,3.27245E2,7.62E2,1.439105E3,2.22771E3,3.44987E3,4.8898604E3,3.0154299E1,7.872373E1,1.25691666E2,1.83875E2,2.7385498E2,3.99005E2,6.31615E2,9.3518005E2,1.2061794E3,1.545275E3,1.9964451E3,2.403385E3,3.189475E3,1.7785445E2,2.1494868E2,2.5031119E2,1.4851667E1,4.284675E1,6.481085E1,2.0185E3,2.0185E3,1.3931375E2,2.0185E3,2.0195E3,2.42755E2,3.03365E2,3.6520502E2,4.48025E2,5.5967505E2,6.93845E2,8.3703E2,1.037025E3,5.625976E1,6.32094E1,7.183437E1,7.948935E1,1.83254E3,1.002331E2,1.11588394E2,1.22432014E2,1.4207533E2,1.5785033E2,1.250704E-1,1.0038003E0,1.6202537E0,2.162274E0,2.6112025E0,3.184591E0,3.671375E0,4.2446966E0,4.717429E0,5.3770003E0,6.0273767E0,6.7168403E0,7.2628145E0,8.091076E0,9.055272E0,9.927992E0,1.0693985E1,1.19734125E1,1.3442249E1,1.4880158E1,1.63614E1,1.8054598E1,2.02651E1,2.2873058E1,2.5611177E1,2.8418783E1,3.1374353E1,3.484745E1,3.8890625E1,4.291967E1,4.712097E1,5.1417107E1,8.608118E1,9.2263214E1],"split_indices":[4,4,3,3,3,4,4,3,3,4,4,3,3,3,3,3,3,3,4,3,4,3,4,4,4,3,4,3,0,0,0,3,3,3,0,0,3,0,0,3,3,3,4,4,3,4,3,0,0,0,0,4,0,0,0,0,0,0,0,0,0,0,0,0,0,0,0,0,0,0,0,0,0,0,0,0,0,0,0,0,0,0,0,0,0,0,0,0,0,0,0],"split_type":[0,0,0,0,0,0,0,0,0,0,0,0,0,0,0,0,0,0,0,0,0,0,0,0,0,0,0,0,0,0,0,0,0,0,0,0,0,0,0,0,0,0,0,0,0,0,0,0,0,0,0,0,0,0,0,0,0,0,0,0,0,0,0,0,0,0,0,0,0,0,0,0,0,0,0,0,0,0,0,0,0,0,0,0,0,0,0,0,0,0,0],"sum_hessian":[5.87438E5,5.81777E5,5.661E3,5.20075E5,6.1702E4,4.408E3,1.253E3,3.50355E5,1.6972E5,5.4348E4,7.354E3,2.45E3,1.958E3,1.02E3,2.33E2,1.73206E5,1.77149E5,1.06351E5,6.3369E4,3.7054E4,1.7294E4,5.082E3,2.272E3,1.408E3,1.042E3,1.381E3,5.77E2,7E2,3.2E2,1.45E2,8.8E1,6.7028E4,1.06178E5,1.04815E5,7.2334E4,5.821E4,4.8141E4,3.6381E4,2.6988E4,2.1534E4,1.552E4,1.0652E4,6.642E3,3.185E3,1.897E3,1.093E3,1.179E3,7.4E2,6.68E2,4.96E2,5.46E2,9.25E2,4.56E2,3.13E2,2.64E2,3.86E2,3.14E2,1.3373E4,5.3655E4,5.3111E4,5.3067E4,4.912E4,5.5695E4,3.2118E4,4.0216E4,2.6227E4,3.1983E4,2.4536E4,2.3605E4,1.3728E4,2.2653E4,1.456E4,1.2428E4,9.177E3,1.2357E4,8.63E3,6.89E3,5.108E3,5.544E3,3.527E3,3.115E3,1.651E3,1.534E3,9.57E2,9.4E2,6.31E2,4.62E2,4.13E2,7.66E2,4.23E2,5.02E2],"tree_param":{"num_deleted":"0","num_feature":"9","num_nodes":"91","size_leaf_vector":"0"}},{"base_weights":[3.4819046E1,2.964538E1,5.8505176E2,2.2258472E1,1.0166227E2,4.7171423E2,9.8344946E2,1.4571201E1,4.1021637E1,8.754048E1,2.0659764E2,3.886397E2,5.779732E2,9.088354E2,1.313581E3,9.546143E0,2.1223204E1,3.5005955E1,5.1965435E1,7.625542E1,1.1438907E2,1.765547E2,2.7020346E2,3.470793E2,4.4109833E2,5.354426E2,6.705653E2,8.59601E2,1.0243147E3,1.2515887E3,1.4821204E3,6.2929177E0,1.2906149E1,1.8843609E1,2.52439E1,3.1757797E1,3.9072155E1,4.784871E1,5.726182E1,6.944289E1,8.564498E1,1.0480778E2,1.307198E2,1.639456E2,2.0209735E2,2.4563457E2,2.915025E2,3.304611E2,3.7445822E2,4.1860828E2,4.604546E2,5.144741E2,5.7373425E2,6.386136E2,7.0033E2,8.1719855E2,9.0002637E2,2.1962626E0,7.465546E0,1.1442841E1,1.4222052E1,1.7171736E1,2.0471397E1,2.3511593E1,2.6590187E1,3.0210886E1,3.4618073E1,3.6379448E1,4.0750008E1,4.473987E1,4.9613914E1,5.3323917E1,5.912129E1,5.889593E1,7.079895E1,8.136536E1,9.033209E1,1.0047401E2,1.1162978E2,1.1672925E2,1.3559822E2,1.5733598E2,1.7538773E2,1.920865E2,2.1162366E2,2.3375797E2,2.5984543E2],"categories":[],"categories_nodes":[],"categories_segments":[],"categories_sizes":[],"default_left":[true,true,true,true,true,true,true,true,true,true,true,true,true,true,true,true,true,true,true,true,true,true,true,true,true,true,true,true,false,false,false,true,true,true,true,true,true,true,true,true,true,true,true,true,true,true,false,false,false,false,false,false,false,false,false,false,false,false,false,false,false,false,false,false,false,false,false,false,false,false,false,false,false,false,false,false,false,false,false,false,false,false,false,false,false,false,false],"id":8,"left_children":[1,3,5,7,9,11,13,15,17,19,21,23,25,27,29,31,33,35,37,39,41,43,45,47,49,51,53,55,-1,-1,-1,57,59,61,63,65,67,69,71,73,75,77,79,81,83,85,-1,-1,-1,-1,-1,-1,-1,-1,-1,-1,-1,-1,-1,-1,-1,-1,-1,-1,-1,-1,-1,-1,-1,-1,-1,-1,-1,-1,-1,-1,-1,-1,-1,-1,-1,-1,-1,-1,-1,-1,-1],"loss_changes":[1.6722573E9,3.0959427E8,2.4661555E8,7.613213E7,8.021062E7,3.7397824E7,2.8636032E7,1.2515696E7,1.0097328E7,1.4449856E7,1.2222208E7,5.06848E6,6.99712E6,4.75392E6,4.54048E5,2.33147E6,1.541152E6,1.306216E6,1.183632E6,2.143408E6,2.195648E6,1.372384E6,1.005328E6,4.864E5,2.66528E5,7.36576E5,1.0816E5,4.66112E5,0E0,0E0,0E0,5.20596E5,2.01882E5,2.75128E5,1.39084E5,2.42472E5,1.97108E5,1.65824E5,1.71056E5,2.74416E5,2.7596E5,2.52032E5,3.4024E5,1.93768E5,9.6488E4,1.01624E5,0E0,0E0,0E0,0E0,0E0,0E0,0E0,0E0,0E0,0E0,0E0,0E0,0E0,0E0,0E0,0E0,0E0,0E0,0E0,0E0,0E0,0E0,0E0,0E0,0E0,0E0,0E0,0E0,0E0,0E0,0E0,0E0,0E0,0E0,0E0,0E0,0E0,0E0,0E0,0E0,0E0],"parents":[2147483647,0,0,1,1,2,2,3,3,4,4,5,5,6,6,7,7,8,8,9,9,10,10,11,11,12,12,13,13,14,14,15,15,16,16,17,17,18,18,19,19,20,20,21,21,22,22,23,23,24,24,25,25,26,26,27,27,31,31,32,32,33,33,34,34,35,35,36,36,37,37,38,38,39,39,40,40,41,41,42,42,43,43,44,44,45,45],"right_children":[2,4,6,8,10,12,14,16,18,20,22,24,26,28,30,32,34,36,38,40,42,44,46,48,50,52,54,56,-1,-1,-1,58,60,62,64,66,68,70,72,74,76,78,80,82,84,86,-1,-1,-1,-1,-1,-1,-1,-1,-1,-1,-1,-1,-1,-1,-1,-1,-1,-1,-1,-1,-1,-1,-1,-1,-1,-1,-1,-1,-1,-1,-1,-1,-1,-1,-1,-1,-1,-1,-1,-1,-1],"split_conditions":[1.1618201E3,2.3974817E2,2.72213E3,1.1033263E2,5.5643E2,1.79586E3,4.09793E3,6.2864998E1,1.6799014E2,3.59615E2,8.14395E2,1.432435E3,2.19923E3,3.5025E3,4.95084E3,3.999875E1,8.860713E1,1.3737125E2,2.01215E2,2.92325E2,4.4360498E2,6.69315E2,9.99875E2,1.300185E3,1.632595E3,1.9902051E3,2.467615E3,3.197755E3,1.5364722E2,1.8773831E2,2.2231807E2,1.8430555E1,5.091369E1,2.0185E3,2.0185E3,2.0195E3,2.0185E3,2.0185E3,2.0185E3,2.0175E3,3.23445E2,3.88625E2,2.0195E3,6.20995E2,7.21125E2,9.2149E2,4.3725376E1,4.9569164E1,5.6168736E1,6.2791245E1,6.906819E1,7.717112E1,8.606014E1,9.579204E1,1.0504951E2,1.2257979E2,1.3500397E2,3.294394E-1,1.1198319E0,1.7164261E0,2.133308E0,2.5757604E0,3.0707097E0,3.5267391E0,3.9885283E0,4.531633E0,5.192711E0,5.4569173E0,6.1125016E0,6.7109804E0,7.4420877E0,7.998588E0,8.868194E0,8.83439E0,1.0619843E1,1.2204804E1,1.3549814E1,1.5071101E1,1.6744469E1,1.7509388E1,2.0339733E1,2.3600399E1,2.630816E1,2.8812977E1,3.174355E1,3.5063698E1,3.8976814E1],"split_indices":[3,3,4,3,3,3,4,3,3,3,4,4,4,3,4,3,3,3,3,3,3,4,3,3,3,4,3,3,0,0,0,3,3,0,0,0,0,0,0,0,3,4,0,3,4,3,0,0,0,0,0,0,0,0,0,0,0,0,0,0,0,0,0,0,0,0,0,0,0,0,0,0,0,0,0,0,0,0,0,0,0,0,0,0,0,0,0],"split_type":[0,0,0,0,0,0,0,0,0,0,0,0,0,0,0,0,0,0,0,0,0,0,0,0,0,0,0,0,0,0,0,0,0,0,0,0,0,0,0,0,0,0,0,0,0,0,0,0,0,0,0,0,0,0,0,0,0,0,0,0,0,0,0,0,0,0,0,0,0,0,0,0,0,0,0,0,0,0,0,0,0,0,0,0,0,0,0],"sum_hessian":[5.87438E5,5.81967E5,5.471E3,5.27828E5,5.4139E4,4.261E3,1.21E3,3.74427E5,1.53401E5,4.7719E4,6.42E3,2.394E3,1.867E3,9.9E2,2.2E2,2.13299E5,1.61128E5,9.8991E4,5.441E4,3.36E4,1.4119E4,4.363E3,2.057E3,1.34E3,1.054E3,1.284E3,5.83E2,7E2,2.9E2,1.67E2,5.3E1,1.08373E5,1.04926E5,1.01225E5,5.9903E4,5.5036E4,4.3955E4,3.062E4,2.379E4,1.9477E4,1.4123E4,8.903E3,5.216E3,2.926E3,1.437E3,9.61E2,1.096E3,8.42E2,4.98E2,4.98E2,5.56E2,8.39E2,4.45E2,2.92E2,2.91E2,3.52E2,3.48E2,2.4118E4,8.4255E4,4.9685E4,5.5241E4,4.9942E4,5.1283E4,2.6204E4,3.3699E4,3.5726E4,1.931E4,1.6883E4,2.7072E4,1.1099E4,1.9521E4,7.64E3,1.615E4,2.224E3,1.7253E4,7.392E3,6.731E3,5.454E3,3.449E3,1.355E3,3.861E3,1.864E3,1.062E3,7.11E2,7.26E2,5.33E2,4.28E2],"tree_param":{"num_deleted":"0","num_feature":"9","num_nodes":"87","size_leaf_vector":"0"}},{"base_weights":[2.9599316E1,2.5165306E1,4.940554E2,1.8256805E1,8.0399284E1,3.9090384E2,8.116357E2,1.1491069E1,3.170041E1,6.904073E1,1.6601859E2,3.2093283E2,4.7269653E2,7.2453845E2,1.029758E3,7.051753E0,1.5865582E1,2.664855E1,4.003186E1,5.9456642E1,9.013637E1,1.4208984E2,2.2390648E2,2.881355E2,3.608641E2,4.3506702E2,5.321976E2,6.376048E2,7.634787E2,9.2509314E2,1.1614738E3,3.785594E0,9.076919E0,1.349655E1,1.8514444E1,2.364277E1,2.9752169E1,3.6373985E1,4.4300747E1,5.3725567E1,6.68448E1,8.318554E1,1.0405444E2,1.3065077E2,1.6233661E2,1.9897272E2,2.420796E2,2.7172064E2,3.0189084E2,3.3563E2,3.751424E2,4.1333478E2,4.5293958E2,5.0371857E2,5.698038E2,2.6048877E2,6.392184E2,7.251703E2,7.922947E2,-7.3272157E-1,4.504643E0,7.9446197E0,1.0436257E1,1.2317096E1,1.4651592E1,1.7450766E1,2.071281E1,2.1884907E1,2.5080849E1,2.7524487E1,3.1212248E1,3.4788063E1,3.880986E1,4.230752E1,4.657642E1,4.9017914E1,5.6218967E1,6.3594757E1,7.053363E1,7.943147E1,8.918765E1,9.2982635E1,1.0847743E2,1.2482246E2,1.3931076E2,1.5320555E2,1.7114197E2,1.9100394E2,2.0923312E2,2.3061838E2,2.5229594E2],"categories":[],"categories_nodes":[],"categories_segments":[],"categories_sizes":[],"default_left":[true,true,true,true,true,true,true,true,true,true,true,true,true,true,true,true,true,true,true,true,true,true,true,true,true,true,true,false,true,false,false,true,true,true,true,true,true,true,true,true,true,true,true,true,true,true,true,false,false,false,false,false,false,false,false,false,false,false,false,false,false,false,false,false,false,false,false,false,false,false,false,false,false,false,false,false,false,false,false,false,false,false,false,false,false,false,false,false,false,false,false],"id":9,"left_children":[1,3,5,7,9,11,13,15,17,19,21,23,25,27,29,31,33,35,37,39,41,43,45,47,49,51,53,55,57,-1,-1,59,61,63,65,67,69,71,73,75,77,79,81,83,85,87,89,-1,-1,-1,-1,-1,-1,-1,-1,-1,-1,-1,-1,-1,-1,-1,-1,-1,-1,-1,-1,-1,-1,-1,-1,-1,-1,-1,-1,-1,-1,-1,-1,-1,-1,-1,-1,-1,-1,-1,-1,-1,-1,-1,-1],"loss_changes":[1.2097608E9,2.2203654E8,1.8165837E8,4.704176E7,6.289933E7,2.3856768E7,2.5109952E7,6.681288E6,7.286608E6,1.154208E7,1.0462352E7,2.86104E6,4.094176E6,2.817184E6,4.246912E6,1.129473E6,1.087184E6,1.004864E6,1.018944E6,1.659408E6,1.717216E6,1.22088E6,9.5504E5,1.99752E5,2.40528E5,2.74592E5,5.09808E5,2.0896E4,1.63968E5,0E0,0E0,2.1234438E5,1.62154E5,1.24443E5,1.90938E5,1.37892E5,1.71624E5,1.34644E5,1.34808E5,2.56928E5,2.0116E5,2.6112E5,2.807E5,1.55836E5,1.2912E5,3.6812E4,9.1224E4,0E0,0E0,0E0,0E0,0E0,0E0,0E0,0E0,0E0,0E0,0E0,0E0,0E0,0E0,0E0,0E0,0E0,0E0,0E0,0E0,0E0,0E0,0E0,0E0,0E0,0E0,0E0,0E0,0E0,0E0,0E0,0E0,0E0,0E0,0E0,0E0,0E0,0E0,0E0,0E0,0E0,0E0,0E0,0E0],"parents":[2147483647,0,0,1,1,2,2,3,3,4,4,5,5,6,6,7,7,8,8,9,9,10,10,11,11,12,12,13,13,14,14,15,15,16,16,17,17,18,18,19,19,20,20,21,21,22,22,23,23,24,24,25,25,26,26,27,27,28,28,31,31,32,32,33,33,34,34,35,35,36,36,37,37,38,38,39,39,40,40,41,41,42,42,43,43,44,44,45,45,46,46],"right_children":[2,4,6,8,10,12,14,16,18,20,22,24,26,28,30,32,34,36,38,40,42,44,46,48,50,52,54,56,58,-1,-1,60,62,64,66,68,70,72,74,76,78,80,82,84,86,88,90,-1,-1,-1,-1,-1,-1,-1,-1,-1,-1,-1,-1,-1,-1,-1,-1,-1,-1,-1,-1,-1,-1,-1,-1,-1,-1,-1,-1,-1,-1,-1,-1,-1,-1,-1,-1,-1,-1,-1,-1,-1,-1,-1,-1],"split_conditions":[1.12929E3,2.15015E2,2.6489849E3,9.838399E1,5.1604004E2,1.720475E3,3.738095E3,5.3523335E1,1.5124641E2,3.23815E2,7.8497E2,1.3854651E3,2.03423E3,2.917115E3,4.4555303E3,2.9715E1,7.4681366E1,1.2059111E2,1.81065E2,2.67565E2,4.0647498E2,6.3839E2,9.37135E2,1.19873E3,1.494585E3,1.84452E3,2.291865E3,-1.3869248E-1,3.190025E3,1.3876398E2,1.7422107E2,1.3189259E1,4.343875E1,2.0185E3,2.0195E3,2.0185E3,2.0185E3,2.0195E3,1.95715E2,2.0185E3,2.89215E2,3.75815E2,2.0195E3,5.7014E2,7.04555E2,8.46615E2,1.0648395E3,4.07581E1,4.5283627E1,5.03445E1,5.6271362E1,6.2000217E1,6.794094E1,7.5557785E1,8.5470566E1,3.907332E1,9.588276E1,1.0877555E2,1.1884421E2,-1.0990824E-1,6.756965E-1,1.191693E0,1.5654386E0,1.8475645E0,2.197739E0,2.617615E0,3.1069217E0,3.282736E0,3.7621274E0,4.128673E0,4.6818376E0,5.2182097E0,5.8214793E0,6.3461285E0,6.986463E0,7.3526874E0,8.432845E0,9.539214E0,1.0580045E1,1.19147215E1,1.3378148E1,1.3947396E1,1.6271616E1,1.872337E1,2.0896614E1,2.2980833E1,2.5671297E1,2.865059E1,3.138497E1,3.459276E1,3.7844395E1],"split_indices":[4,4,3,3,3,4,3,3,3,4,4,4,4,4,5,3,3,3,3,3,4,3,4,4,4,4,4,8,4,0,0,3,3,0,0,0,0,0,4,0,4,3,0,4,3,4,3,0,0,0,0,0,0,0,0,0,0,0,0,0,0,0,0,0,0,0,0,0,0,0,0,0,0,0,0,0,0,0,0,0,0,0,0,0,0,0,0,0,0,0,0],"split_type":[0,0,0,0,0,0,0,0,0,0,0,0,0,0,0,0,0,0,0,0,0,0,0,0,0,0,0,0,0,0,0,0,0,0,0,0,0,0,0,0,0,0,0,0,0,0,0,0,0,0,0,0,0,0,0,0,0,0,0,0,0,0,0,0,0,0,0,0,0,0,0,0,0,0,0,0,0,0,0,0,0,0,0,0,0,0,0,0,0,0,0],"sum_hessian":[5.87438E5,5.81884E5,5.554E3,5.17196E5,6.4688E4,4.194E3,1.36E3,3.44049E5,1.73147E5,5.7113E4,7.575E3,2.263E3,1.931E3,9.75E2,3.85E2,1.70761E5,1.73288E5,1.07791E5,6.5356E4,3.9274E4,1.7839E4,5.362E3,2.213E3,1.247E3,1.016E3,1.188E3,7.43E2,3.07E2,6.68E2,2.19E2,1.66E2,6.5357E4,1.05404E5,9.1479E4,8.1809E4,5.4763E4,5.3028E4,3.5202E4,3.0154E4,2.2122E4,1.7152E4,1.1902E4,5.937E3,3.431E3,1.931E3,9.38E2,1.275E3,5.78E2,6.69E2,3.76E2,6.4E2,5.47E2,6.41E2,4.31E2,3.12E2,2E0,3.05E2,2.98E2,3.7E2,8.973E3,5.6384E4,5.7508E4,4.7896E4,4.5267E4,4.6212E4,5.5139E4,2.667E4,2.4649E4,3.0114E4,2.1003E4,3.2025E4,2.133E4,1.3872E4,1.6085E4,1.4069E4,7.667E3,1.4455E4,9.128E3,8.024E3,7.331E3,4.571E3,1.701E3,4.236E3,2.06E3,1.371E3,9.57E2,9.74E2,5.39E2,3.99E2,6.12E2,6.63E2],"tree_param":{"num_deleted":"0","num_feature":"9","num_nodes":"91","size_leaf_vector":"0"}},{"base_weights":[2.5162014E1,2.1283089E1,4.0919772E2,1.5427132E1,6.691105E1,3.206919E2,6.790109E2,9.298982E0,2.595466E1,5.724596E1,1.3158936E2,2.6112692E2,3.9148032E2,6.042095E2,8.698692E2,5.561325E0,1.2561979E1,2.1339367E1,3.2780815E1,4.9463554E1,7.342097E1,1.14359116E2,1.8086786E2,2.3572055E2,2.9673462E2,3.6314328E2,4.415952E2,5.186178E2,6.4026575E2,7.7252313E2,9.775495E2,3.141776E0,7.294837E0,1.0471732E1,1.4563926E1,1.8861015E1,2.3831709E1,2.9326431E1,3.664436E1,4.534803E1,5.592209E1,6.81582E1,8.3698616E1,1.0427981E2,1.2950247E2,1.6209969E2,1.9915742E2,2.2525923E2,2.5041476E2,2.7899905E2,3.1126035E2,3.444951E2,3.802662E2,4.202214E2,4.6965024E2,6.0703613E2,6.663941E2,9.2537665E2,1.0972091E3,-1.1552076E0,3.699542E0,6.618114E0,8.3675785E0,9.457511E0,1.1432489E1,1.3676396E1,1.654794E1,1.8017712E1,2.0523088E1,2.2606571E1,2.5956207E1,2.728197E1,3.0618423E1,3.480671E1,3.8946133E1,4.1474533E1,4.734247E1,4.666168E1,5.6578835E1,6.435776E1,7.18934E1,7.6151436E1,8.677249E1,9.512016E1,1.07329666E2,1.2260636E2,1.3808565E2,1.5510962E2,1.6885858E2,1.886116E2,2.0716948E2],"categories":[],"categories_nodes":[],"categories_segments":[],"categories_sizes":[],"default_left":[true,true,true,true,true,true,true,true,true,true,true,true,true,true,true,true,true,true,true,true,true,true,true,true,true,true,true,false,true,false,true,true,true,true,true,true,true,true,true,true,true,true,true,true,true,true,true,false,false,false,false,false,false,false,false,false,false,false,false,false,false,false,false,false,false,false,false,false,false,false,false,false,false,false,false,false,false,false,false,false,false,false,false,false,false,false,false,false,false,false,false],"id":10,"left_children":[1,3,5,7,9,11,13,15,17,19,21,23,25,27,29,31,33,35,37,39,41,43,45,47,49,51,53,-1,55,-1,57,59,61,63,65,67,69,71,73,75,77,79,81,83,85,87,89,-1,-1,-1,-1,-1,-1,-1,-1,-1,-1,-1,-1,-1,-1,-1,-1,-1,-1,-1,-1,-1,-1,-1,-1,-1,-1,-1,-1,-1,-1,-1,-1,-1,-1,-1,-1,-1,-1,-1,-1,-1,-1,-1,-1],"loss_changes":[8.7506726E8,1.553907E8,1.400535E8,3.3251576E7,4.134365E7,1.855584E7,2.0175296E7,3.973144E6,5.973792E6,7.240928E6,7.280544E6,2.106656E6,2.708256E6,2.89296E6,3.500608E6,6.368755E5,7.27686E5,6.98428E5,1.01984E6,1.030344E6,1.005376E6,9.59392E5,7.31816E5,1.60184E5,1.70264E5,2.82832E5,2.37376E5,0E0,2.30144E5,0E0,1.64592E5,1.5191744E5,6.4166E4,8.2809E4,1.5621E5,7.9152E4,1.46236E5,1.05856E5,1.51364E5,1.8144E5,8.9312E4,1.7094E5,1.40148E5,9.684E4,1.33592E5,2.5968E4,5.5812E4,0E0,0E0,0E0,0E0,0E0,0E0,0E0,0E0,0E0,0E0,0E0,0E0,0E0,0E0,0E0,0E0,0E0,0E0,0E0,0E0,0E0,0E0,0E0,0E0,0E0,0E0,0E0,0E0,0E0,0E0,0E0,0E0,0E0,0E0,0E0,0E0,0E0,0E0,0E0,0E0,0E0,0E0,0E0,0E0],"parents":[2147483647,0,0,1,1,2,2,3,3,4,4,5,5,6,6,7,7,8,8,9,9,10,10,11,11,12,12,13,13,14,14,15,15,16,16,17,17,18,18,19,19,20,20,21,21,22,22,23,23,24,24,25,25,26,26,28,28,30,30,31,31,32,32,33,33,34,34,35,35,36,36,37,37,38,38,39,39,40,40,41,41,42,42,43,43,44,44,45,45,46,46],"right_children":[2,4,6,8,10,12,14,16,18,20,22,24,26,28,30,32,34,36,38,40,42,44,46,48,50,52,54,-1,56,-1,58,60,62,64,66,68,70,72,74,76,78,80,82,84,86,88,90,-1,-1,-1,-1,-1,-1,-1,-1,-1,-1,-1,-1,-1,-1,-1,-1,-1,-1,-1,-1,-1,-1,-1,-1,-1,-1,-1,-1,-1,-1,-1,-1,-1,-1,-1,-1,-1,-1,-1,-1,-1,-1,-1,-1],"split_conditions":[1.091915E3,2.16945E2,2.459865E3,9.2158356E1,4.75865E2,1.700085E3,3.7056802E3,4.9565834E1,1.4283247E2,3.2139502E2,7.38265E2,1.36031E3,2.0119751E3,2.815505E3,4.3172197E3,2.925991E1,6.817127E1,1.1381793E2,1.733187E2,2.67085E2,3.9604498E2,5.8507996E2,9.2149E2,1.2102949E3,1.47181E3,1.8547E3,2.291725E3,7.779267E1,3.1555E3,1.1587847E2,5.081675E3,1.2434999E1,4.2279854E1,2.0185E3,2.0195E3,2.0195E3,2.0195E3,2.0185E3,2.0195E3,2.0185E3,2.0175E3,3.44905E2,2.0195E3,2.0195E3,6.5095496E2,8.27865E2,1.01926E3,3.3788887E1,3.7562218E1,4.184986E1,4.6689053E1,5.1674267E1,5.7039932E1,6.3033215E1,7.044754E1,9.105542E1,9.995912E1,1.388065E2,1.6458138E2,-1.7328115E-1,5.5493134E-1,9.9271715E-1,1.2551368E0,1.4186267E0,1.7148734E0,2.0514596E0,2.482191E0,2.7026567E0,3.0784633E0,3.3909857E0,3.8934312E0,4.0922956E0,4.592764E0,5.2210064E0,5.84192E0,6.2211804E0,7.1013703E0,6.999252E0,8.486826E0,9.653664E0,1.0784011E1,1.1422716E1,1.3015874E1,1.4268025E1,1.6099451E1,1.8390955E1,2.0712849E1,2.3266443E1,2.5328789E1,2.8291742E1,3.1075422E1],"split_indices":[4,3,4,3,4,3,3,3,3,3,4,3,4,4,3,3,3,3,3,3,3,4,3,3,4,3,3,0,4,0,3,3,3,0,0,0,0,0,0,0,0,4,0,0,4,3,3,0,0,0,0,0,0,0,0,0,0,0,0,0,0,0,0,0,0,0,0,0,0,0,0,0,0,0,0,0,0,0,0,0,0,0,0,0,0,0,0,0,0,0,0],"split_type":[0,0,0,0,0,0,0,0,0,0,0,0,0,0,0,0,0,0,0,0,0,0,0,0,0,0,0,0,0,0,0,0,0,0,0,0,0,0,0,0,0,0,0,0,0,0,0,0,0,0,0,0,0,0,0,0,0,0,0,0,0,0,0,0,0,0,0,0,0,0,0,0,0,0,0,0,0,0,0,0,0,0,0,0,0,0,0,0,0,0,0],"sum_hessian":[5.87438E5,5.81565E5,5.873E3,5.15417E5,6.6148E4,4.424E3,1.449E3,3.2578E5,1.89637E5,5.755E4,8.598E3,2.405E3,2.019E3,1.044E3,4.05E2,1.51847E5,1.73933E5,1.13143E5,7.6494E4,3.8858E4,1.8692E4,6.373E3,2.225E3,1.408E3,9.97E2,1.295E3,7.24E2,3.14E2,7.3E2,2.17E2,1.88E2,6.3383E4,8.8464E4,8.5093E4,8.884E4,5.6735E4,5.6408E4,4.039E4,3.6104E4,2.3739E4,1.5119E4,1.2367E4,6.325E3,3.831E3,2.542E3,1.103E3,1.122E3,8.32E2,5.76E2,4.58E2,5.39E2,6.3E2,6.65E2,4.2E2,3.04E2,3.32E2,3.98E2,1.37E2,5.1E1,7.282E3,5.6101E4,5.4249E4,3.4215E4,4.14E4,4.3693E4,6.1387E4,2.7453E4,3.7646E4,1.9089E4,3.5784E4,2.0624E4,1.5649E4,2.4741E4,2.0085E4,1.6019E4,8.076E3,1.5663E4,1.006E3,1.4113E4,6.139E3,6.228E3,1.838E3,4.487E3,9.65E2,2.866E3,1.418E3,1.124E3,5.54E2,5.49E2,4.95E2,6.27E2],"tree_param":{"num_deleted":"0","num_feature":"9","num_nodes":"91","size_leaf_vector":"0"}},{"base_weights":[2.1390068E1,1.8212223E1,3.6061337E2,1.3732704E1,6.3420383E1,2.911828E2,6.0903516E2,9.054775E0,2.5634003E1,5.4008377E1,1.24286644E2,2.3928636E2,3.5633896E2,5.6289404E2,8.192385E2,5.9118896E0,1.3352098E1,2.1804665E1,3.2124817E1,4.700483E1,6.829582E1,1.0603273E2,1.6460036E2,2.1478918E2,2.7186646E2,3.2823865E2,4.1049313E2,5.3292505E2,6.3805914E2,7.778466E2,9.410555E2,3.0310197E0,7.4472876E0,1.1446557E1,1.5422124E1,1.9274416E1,2.3728725E1,2.918561E1,3.4980186E1,4.3493317E1,5.230189E1,6.3675945E1,8.031087E1,9.711432E1,1.1903849E2,1.4984096E2,1.7930359E2,2.0298083E2,2.3162376E2,2.6014478E2,2.8487744E2,3.113266E2,3.4502988E2,3.794487E2,4.2391348E2,5.0045416E2,5.488861E2,2.8375304E-1,3.729999E0,6.148602E0,8.351167E0,1.0713158E1,1.3207891E1,1.4287072E1,1.6321314E1,1.7719635E1,2.045356E1,2.306901E1,2.6768925E1,2.701919E1,3.041466E1,3.316343E1,3.70318E1,3.586114E1,4.444701E1,4.9692074E1,5.4313705E1,5.8362614E1,6.6300255E1,7.140401E1,8.336939E1,9.150084E1,1.0053961E2,1.12907814E2,1.279681E2,1.4182574E2,1.5890439E2,1.7071053E2,1.8293407E2],"categories":[],"categories_nodes":[],"categories_segments":[],"categories_sizes":[],"default_left":[true,true,true,true,true,true,true,true,true,true,true,true,true,true,true,true,true,true,true,true,true,true,true,true,true,true,true,true,false,false,false,true,true,true,true,true,true,true,true,true,true,true,true,true,true,true,true,false,false,false,false,false,false,false,false,false,false,false,false,false,false,false,false,false,false,false,false,false,false,false,false,false,false,false,false,false,false,false,false,false,false,false,false,false,false,false,false,false,false],"id":11,"left_children":[1,3,5,7,9,11,13,15,17,19,21,23,25,27,29,31,33,35,37,39,41,43,45,47,49,51,53,55,-1,-1,-1,57,59,61,63,65,67,69,71,73,75,77,79,81,83,85,87,-1,-1,-1,-1,-1,-1,-1,-1,-1,-1,-1,-1,-1,-1,-1,-1,-1,-1,-1,-1,-1,-1,-1,-1,-1,-1,-1,-1,-1,-1,-1,-1,-1,-1,-1,-1,-1,-1,-1,-1,-1,-1],"loss_changes":[6.332519E8,1.1785803E8,9.385914E7,2.9480016E7,3.0050816E7,1.4329504E7,1.1080704E7,5.133754E6,3.712888E6,4.543944E6,5.152856E6,1.837936E6,2.73832E6,1.86528E6,3.36944E5,9.711045E5,6.33184E5,4.57032E5,4.64224E5,5.65008E5,8.24512E5,5.4972E5,4.47956E5,2.2354E5,8.084E4,2.46976E5,1.06208E5,9.12E4,0E0,0E0,0E0,1.4657794E5,1.68066E5,1.07862E5,7.8312E4,7.4064E4,1.06436E5,7.1928E4,1.03564E5,1.3194E5,6.111E4,1.46724E5,1.07018E5,4.61E4,9.3068E4,5.7228E4,2.808E3,0E0,0E0,0E0,0E0,0E0,0E0,0E0,0E0,0E0,0E0,0E0,0E0,0E0,0E0,0E0,0E0,0E0,0E0,0E0,0E0,0E0,0E0,0E0,0E0,0E0,0E0,0E0,0E0,0E0,0E0,0E0,0E0,0E0,0E0,0E0,0E0,0E0,0E0,0E0,0E0,0E0,0E0],"parents":[2147483647,0,0,1,1,2,2,3,3,4,4,5,5,6,6,7,7,8,8,9,9,10,10,11,11,12,12,13,13,14,14,15,15,16,16,17,17,18,18,19,19,20,20,21,21,22,22,23,23,24,24,25,25,26,26,27,27,31,31,32,32,33,33,34,34,35,35,36,36,37,37,38,38,39,39,40,40,41,41,42,42,43,43,44,44,45,45,46,46],"right_children":[2,4,6,8,10,12,14,16,18,20,22,24,26,28,30,32,34,36,38,40,42,44,46,48,50,52,54,56,-1,-1,-1,58,60,62,64,66,68,70,72,74,76,78,80,82,84,86,88,-1,-1,-1,-1,-1,-1,-1,-1,-1,-1,-1,-1,-1,-1,-1,-1,-1,-1,-1,-1,-1,-1,-1,-1,-1,-1,-1,-1,-1,-1,-1,-1,-1,-1,-1,-1,-1,-1,-1,-1,-1,-1],"split_conditions":[1.139925E3,2.3799667E2,2.8142148E3,1.12773346E2,5.21145E2,1.761115E3,4.2395146E3,6.420042E1,1.6858754E2,3.42415E2,8.0230505E2,1.480275E3,2.1662E3,3.463305E3,4.985965E3,3.2593056E1,8.534484E1,1.3257333E2,1.9357501E2,2.87275E2,4.4065002E2,6.28225E2,1.00682E3,1.2658E3,1.6255349E3,1.93554E3,2.319655E3,3.04315E3,9.570888E1,1.16676994E2,1.4115833E2,1.56475E1,4.595433E1,2.0195E3,2.0185E3,2.0185E3,2.0205E3,2.0185E3,2.0195E3,2.0175E3,2.0195E3,2.0195E3,2.0195E3,5.735E2,7.24975E2,9.00005E2,1.066785E3,3.0447126E1,3.4743565E1,3.9021717E1,4.2731617E1,4.669899E1,5.1754482E1,5.691731E1,6.3587025E1,7.506813E1,8.233292E1,4.2562958E-2,5.5949986E-1,9.222903E-1,1.252675E0,1.6069738E0,1.9811838E0,2.143061E0,2.4481971E0,2.6579454E0,3.0680342E0,3.4603517E0,4.015339E0,4.052879E0,4.562199E0,4.9745145E0,5.55477E0,5.3791714E0,6.667052E0,7.453811E0,8.147057E0,8.754393E0,9.945039E0,1.0710602E1,1.2505409E1,1.3725126E1,1.5080942E1,1.6936172E1,1.9195215E1,2.1273863E1,2.3835659E1,2.560658E1,2.7440111E1],"split_indices":[4,4,3,3,4,4,3,3,3,4,4,3,4,4,4,3,3,3,4,4,4,4,3,4,4,3,4,4,0,0,0,3,3,0,0,0,0,0,0,0,0,0,0,3,3,3,3,0,0,0,0,0,0,0,0,0,0,0,0,0,0,0,0,0,0,0,0,0,0,0,0,0,0,0,0,0,0,0,0,0,0,0,0,0,0,0,0,0,0],"split_type":[0,0,0,0,0,0,0,0,0,0,0,0,0,0,0,0,0,0,0,0,0,0,0,0,0,0,0,0,0,0,0,0,0,0,0,0,0,0,0,0,0,0,0,0,0,0,0,0,0,0,0,0,0,0,0,0,0,0,0,0,0,0,0,0,0,0,0,0,0,0,0,0,0,0,0,0,0,0,0,0,0,0,0,0,0,0,0,0,0],"sum_hessian":[5.87438E5,5.81987E5,5.451E3,5.2952E5,5.2467E4,4.262E3,1.189E3,3.80114E5,1.49406E5,4.5442E4,7.025E3,2.375E3,1.887E3,9.78E2,2.11E2,2.19548E5,1.60566E5,9.3971E4,5.5435E4,3.0497E4,1.4945E4,4.838E3,2.187E3,1.36E3,1.015E3,1.247E3,6.4E2,7.05E2,2.73E2,1.63E2,4.8E1,7.6331E4,1.43217E5,8.3608E4,7.6958E4,4.0596E4,5.3375E4,2.7322E4,2.8113E4,1.8345E4,1.2152E4,1.0799E4,4.146E3,2.875E3,1.963E3,1.097E3,1.09E3,8.07E2,5.53E2,5.45E2,4.7E2,6.31E2,6.16E2,2.02E2,4.38E2,2.43E2,4.62E2,1.5482E4,6.0849E4,5.8776E4,8.4441E4,5.9034E4,2.4574E4,3.4025E4,4.2933E4,1.7516E4,2.308E4,4.3865E4,9.51E3,9.898E3,1.7424E4,1.4919E4,1.3194E4,2.042E3,1.6303E4,5.301E3,6.851E3,3.578E3,7.221E3,1.066E3,3.08E3,1.1E3,1.775E3,1.172E3,7.91E2,5.91E2,5.06E2,3.38E2,7.52E2],"tree_param":{"num_deleted":"0","num_feature":"9","num_nodes":"89","size_leaf_vector":"0"}},{"base_weights":[1.8183521E1,1.5488054E1,3.074679E2,1.1528582E1,5.26233E1,2.4818219E2,5.1814716E2,7.381435E0,2.0811483E1,4.4947918E1,1.0582885E2,2.0511838E2,3.0447845E2,4.714085E2,6.7121857E2,4.5884695E0,1.0490712E1,1.7541386E1,2.6381395E1,3.897408E1,5.7617115E1,8.983366E1,1.3969254E2,1.8419638E2,2.3386943E2,2.7773346E2,3.4487653E2,4.4245184E2,5.110121E2,5.9818164E2,7.321543E2,2.4036472E0,5.8493314E0,8.954644E0,1.2361029E1,1.5659813E1,1.9554844E1,2.404274E1,2.8978546E1,3.543828E1,4.325497E1,5.279855E1,6.641431E1,8.235955E1,1.0065537E2,1.23885635E2,1.5034564E2,1.730485E2,1.9797273E2,2.2321002E2,2.4356104E2,2.6161887E2,2.8756778E2,3.1771042E2,3.589974E2,-1.471178E0,2.7673414E0,4.953929E0,6.6579437E0,8.023278E0,9.882494E0,1.1724334E1,1.3610811E1,1.4375451E1,1.6717985E1,1.8563719E1,2.1106041E1,2.3307133E1,2.7093699E1,2.4891722E1,2.9663609E1,3.1731062E1,3.7152313E1,4.118087E1,4.573081E1,4.5836163E1,5.4262653E1,5.8997345E1,6.916732E1,7.862864E1,8.602225E1,9.4912506E1,1.0709788E2,1.18320564E2,1.3025935E2,1.4192632E2,1.5543925E2,1.4952995E2,3.5957306E2],"categories":[],"categories_nodes":[],"categories_segments":[],"categories_sizes":[],"default_left":[true,true,true,true,true,true,true,true,true,true,true,true,true,true,true,true,true,true,true,true,true,true,true,true,true,true,true,false,false,false,false,true,true,true,true,true,true,true,true,true,true,true,true,true,true,true,true,false,false,false,false,false,false,false,false,false,false,false,false,false,false,false,false,false,false,false,false,false,false,false,false,false,false,false,false,false,false,false,false,false,false,false,false,false,false,false,false,false,false],"id":12,"left_children":[1,3,5,7,9,11,13,15,17,19,21,23,25,27,29,31,33,35,37,39,41,43,45,47,49,51,53,-1,-1,-1,-1,55,57,59,61,63,65,67,69,71,73,75,77,79,81,83,85,-1,-1,-1,-1,-1,-1,-1,87,-1,-1,-1,-1,-1,-1,-1,-1,-1,-1,-1,-1,-1,-1,-1,-1,-1,-1,-1,-1,-1,-1,-1,-1,-1,-1,-1,-1,-1,-1,-1,-1,-1,-1],"loss_changes":[4.5805456E8,8.557682E7,6.760611E7,2.0247288E7,2.2895568E7,1.020216E7,8.197248E6,3.15692E6,2.957664E6,3.706936E6,3.816424E6,1.4018E6,1.884688E6,8.232E5,7.904E5,5.2754975E5,4.94106E5,3.8738E5,3.64192E5,5.02628E5,6.62096E5,3.80272E5,3.62956E5,1.7998E5,4.9768E4,1.0036E5,1.64448E5,0E0,0E0,0E0,0E0,9.876441E4,8.7887E4,8.15465E4,6.1565E4,7.166E4,7.5602E4,7.0326E4,7.8942E4,1.14768E5,7.5462E4,1.00978E5,1.09306E5,3.2142E4,6.2278E4,1.7149E4,3.579E4,0E0,0E0,0E0,0E0,0E0,0E0,0E0,2.908E3,0E0,0E0,0E0,0E0,0E0,0E0,0E0,0E0,0E0,0E0,0E0,0E0,0E0,0E0,0E0,0E0,0E0,0E0,0E0,0E0,0E0,0E0,0E0,0E0,0E0,0E0,0E0,0E0,0E0,0E0,0E0,0E0,0E0,0E0],"parents":[2147483647,0,0,1,1,2,2,3,3,4,4,5,5,6,6,7,7,8,8,9,9,10,10,11,11,12,12,13,13,14,14,15,15,16,16,17,17,18,18,19,19,20,20,21,21,22,22,23,23,24,24,25,25,26,26,31,31,32,32,33,33,34,34,35,35,36,36,37,37,38,38,39,39,40,40,41,41,42,42,43,43,44,44,45,45,46,46,54,54],"right_children":[2,4,6,8,10,12,14,16,18,20,22,24,26,28,30,32,34,36,38,40,42,44,46,48,50,52,54,-1,-1,-1,-1,56,58,60,62,64,66,68,70,72,74,76,78,80,82,84,86,-1,-1,-1,-1,-1,-1,-1,88,-1,-1,-1,-1,-1,-1,-1,-1,-1,-1,-1,-1,-1,-1,-1,-1,-1,-1,-1,-1,-1,-1,-1,-1,-1,-1,-1,-1,-1,-1,-1,-1,-1,-1],"split_conditions":[1.1682151E3,2.30985E2,2.73788E3,1.05985E2,5.20895E2,1.77196E3,3.92778E3,5.7878952E1,1.6169608E2,3.38155E2,8.1192004E2,1.49833E3,2.10818E3,3.35013E3,4.684815E3,3.0965555E1,8.069023E1,1.30155E2,1.89015E2,2.74825E2,4.30065E2,6.4244E2,9.6170496E2,1.2658E3,1.626285E3,1.872765E3,2.36017E3,6.636778E1,7.665182E1,8.972725E1,1.0982315E2,1.1805E1,2.0185E3,2.0185E3,2.0195E3,2.0185E3,2.0195E3,2.0205E3,2.0175E3,2.0185E3,3.0460498E2,2.0185E3,2.0195E3,5.7014E2,6.97775E2,8.69445E2,1.03503E3,2.5957275E1,2.9695911E1,3.3481506E1,3.6534157E1,3.9242832E1,4.313517E1,4.7656563E1,-1.3869248E-1,-2.2067672E-1,4.1510123E-1,7.430894E-1,9.986916E-1,1.2034918E0,1.4823742E0,1.7586502E0,2.0416217E0,2.1563177E0,2.5076978E0,2.7845578E0,3.1659062E0,3.4960701E0,4.064055E0,3.7337584E0,4.4495416E0,4.7596593E0,5.5728474E0,6.1771307E0,6.8596215E0,6.875425E0,8.139399E0,8.849602E0,1.0375098E1,1.1794296E1,1.29033375E1,1.42368765E1,1.6064682E1,1.7748085E1,1.9538904E1,2.1288948E1,2.331589E1,2.2429493E1,5.3935963E1],"split_indices":[3,4,4,3,4,4,4,3,3,4,3,3,4,3,3,3,3,3,4,4,3,3,3,4,4,4,3,0,0,0,0,3,0,0,0,0,0,0,0,0,4,0,0,4,4,3,4,0,0,0,0,0,0,0,8,0,0,0,0,0,0,0,0,0,0,0,0,0,0,0,0,0,0,0,0,0,0,0,0,0,0,0,0,0,0,0,0,0,0],"split_type":[0,0,0,0,0,0,0,0,0,0,0,0,0,0,0,0,0,0,0,0,0,0,0,0,0,0,0,0,0,0,0,0,0,0,0,0,0,0,0,0,0,0,0,0,0,0,0,0,0,0,0,0,0,0,0,0,0,0,0,0,0,0,0,0,0,0,0,0,0,0,0,0,0,0,0,0,0,0,0,0,0,0,0,0,0,0,0,0,0],"sum_hessian":[5.87438E5,5.82016E5,5.422E3,5.2594E5,5.6076E4,4.233E3,1.189E3,3.63533E5,1.62407E5,4.9008E4,7.068E3,2.401E3,1.832E3,9.14E2,2.75E2,1.91509E5,1.72024E5,1.02332E5,6.0075E4,3.3307E4,1.5701E4,4.803E3,2.265E3,1.394E3,1.007E3,1.107E3,7.25E2,5.35E2,3.79E2,1.3E2,1.45E2,7.0079E4,1.2143E5,9.4455E4,7.7569E4,5.2903E4,4.9429E4,3.1616E4,2.8459E4,1.8246E4,1.5061E4,1.0149E4,5.552E3,2.846E3,1.957E3,9.17E2,1.348E3,7.78E2,6.16E2,4.91E2,5.16E2,4.3E2,6.77E2,2.56E2,4.69E2,6.013E3,6.4066E4,5.7626E4,6.3804E4,4.7143E4,4.7312E4,5.1396E4,2.6173E4,2.3904E4,2.8999E4,3.0167E4,1.9262E4,2.5481E4,6.135E3,4.091E3,2.4368E4,5.775E3,1.2471E4,8.205E3,6.856E3,1.769E3,8.38E3,1.509E3,4.043E3,1.421E3,1.425E3,1.043E3,9.14E2,5E2,4.17E2,5.19E2,8.29E2,2E0,4.67E2],"tree_param":{"num_deleted":"0","num_feature":"9","num_nodes":"89","size_leaf_vector":"0"}},{"base_weights":[1.5457531E1,1.3171898E1,2.6222723E2,9.991151E0,4.672482E1,2.1161433E2,4.4091843E2,6.437494E0,1.842353E1,4.0062984E1,9.335871E1,1.736601E2,2.573073E2,3.978455E2,5.628321E2,3.9699566E0,9.188124E0,1.5340792E1,2.3054735E1,3.53966E1,5.3036934E1,7.97231E1,1.2133853E2,1.5518927E2,1.9529283E2,2.3306381E2,2.9057422E2,3.791278E2,4.3455695E2,5.276235E2,6.6894714E2,1.8500533E0,4.945827E0,7.7800465E0,1.0820874E1,1.4145277E1,1.7377316E1,2.1187057E1,2.6136723E1,3.2451298E1,3.9728596E1,4.889125E1,6.1080597E1,7.386721E1,9.10144E1,1.1049052E2,1.3024039E2,1.4778491E2,1.6660365E2,1.8387033E2,2.0345264E2,2.2114789E2,2.4213458E2,2.732533E2,3.095265E2,3.4640802E2,3.873192E2,4.8949753E2,5.598134E2,-3.8164E-1,2.3394449E0,4.0389175E0,5.7183337E0,7.223079E0,9.085089E0,9.684046E0,1.1459041E1,1.3299847E1,1.5746799E1,1.5952485E1,1.8280396E1,2.000314E1,2.277822E1,2.519178E1,2.9076511E1,2.5929882E1,3.315591E1,3.5208954E1,4.0969944E1,4.389701E1,5.0980663E1,5.353898E1,6.35773E1,7.10667E1,7.847046E1,8.651141E1,9.640539E1,1.048123E2,1.1585043E2,1.2263571E2,1.3385463E2,1.5786536E2,1.735785E2],"categories":[],"categories_nodes":[],"categories_segments":[],"categories_sizes":[],"default_left":[true,true,true,true,true,true,true,true,true,true,true,true,true,true,true,true,true,true,true,true,true,true,true,true,true,true,true,false,false,true,false,true,true,true,true,true,true,true,true,true,true,true,true,true,true,true,false,false,false,false,false,false,false,false,false,false,false,false,false,false,false,false,false,false,false,false,false,false,false,false,false,false,false,false,false,false,false,false,false,false,false,false,false,false,false,false,false,false,false,false,false,false,false],"id":13,"left_children":[1,3,5,7,9,11,13,15,17,19,21,23,25,27,29,31,33,35,37,39,41,43,45,47,49,51,53,55,-1,57,-1,59,61,63,65,67,69,71,73,75,77,79,81,83,85,87,89,-1,91,-1,-1,-1,-1,-1,-1,-1,-1,-1,-1,-1,-1,-1,-1,-1,-1,-1,-1,-1,-1,-1,-1,-1,-1,-1,-1,-1,-1,-1,-1,-1,-1,-1,-1,-1,-1,-1,-1,-1,-1,-1,-1,-1,-1],"loss_changes":[3.3132694E8,6.2117744E7,4.866333E7,1.593122E7,1.5653584E7,7.244336E6,6.019728E6,2.53859E6,2.250028E6,2.668064E6,2.393532E6,8.88312E5,1.46868E6,4.41328E5,7.97784E5,4.07868E5,4.06539E5,2.30162E5,3.62026E5,4.12588E5,3.85966E5,2.73496E5,1.84734E5,8.06E4,6.0924E4,6.61E4,1.77712E5,2.4496E4,0E0,1.5608E4,0E0,6.788158E4,9.4564E4,6.89655E4,5.9305E4,8.0536E4,4.4746E4,7.344E4,6.5282E4,8.7894E4,7.219E4,7.8134E4,7.1217E4,3.0468E4,2.669E4,1.6344E4,1.4558E4,0E0,1.976E3,0E0,0E0,0E0,0E0,0E0,0E0,0E0,0E0,0E0,0E0,0E0,0E0,0E0,0E0,0E0,0E0,0E0,0E0,0E0,0E0,0E0,0E0,0E0,0E0,0E0,0E0,0E0,0E0,0E0,0E0,0E0,0E0,0E0,0E0,0E0,0E0,0E0,0E0,0E0,0E0,0E0,0E0,0E0,0E0],"parents":[2147483647,0,0,1,1,2,2,3,3,4,4,5,5,6,6,7,7,8,8,9,9,10,10,11,11,12,12,13,13,14,14,15,15,16,16,17,17,18,18,19,19,20,20,21,21,22,22,23,23,24,24,25,25,26,26,27,27,29,29,31,31,32,32,33,33,34,34,35,35,36,36,37,37,38,38,39,39,40,40,41,41,42,42,43,43,44,44,45,45,46,46,48,48],"right_children":[2,4,6,8,10,12,14,16,18,20,22,24,26,28,30,32,34,36,38,40,42,44,46,48,50,52,54,56,-1,58,-1,60,62,64,66,68,70,72,74,76,78,80,82,84,86,88,90,-1,92,-1,-1,-1,-1,-1,-1,-1,-1,-1,-1,-1,-1,-1,-1,-1,-1,-1,-1,-1,-1,-1,-1,-1,-1,-1,-1,-1,-1,-1,-1,-1,-1,-1,-1,-1,-1,-1,-1,-1,-1,-1,-1,-1,-1],"split_conditions":[1.1461E3,2.42535E2,2.815616E3,1.07831665E2,5.48835E2,1.758935E3,3.958565E3,5.9154133E1,1.63965E2,3.68815E2,8.34755E2,1.4298884E3,2.070075E3,3.4044648E3,4.82161E3,2.897395E1,8.231125E1,1.39625E2,2.02005E2,2.98825E2,4.6710498E2,6.7466504E2,9.9234E2,1.301255E3,1.5705E3,1.90497E3,2.3696802E3,-1.2618218E-2,6.518355E1,4.3095E3,1.0034208E2,1.4069523E1,4.373625E1,2.0195E3,8.881851E1,2.0195E3,2.0185E3,2.0195E3,3.97E2,2.0175E3,2.0185E3,2.0195E3,2.0195E3,6.25525E2,7.38345E2,9.06255E2,-4.272051E-3,2.2167738E1,-9.798945E-6,2.7580551E1,3.0517897E1,3.3172184E1,3.632019E1,4.0987995E1,4.6428974E1,5.1961205E1,5.8097885E1,7.342463E1,8.3972015E1,-5.7246E-2,3.5091674E-1,6.0583764E-1,8.577501E-1,1.0834619E0,1.3627634E0,1.4526069E0,1.7188562E0,1.9949771E0,2.36202E0,2.3928728E0,2.7420595E0,3.000471E0,3.416733E0,3.778767E0,4.361477E0,3.8894825E0,4.973387E0,5.2813435E0,6.145492E0,6.584552E0,7.6471E0,8.030848E0,9.536595E0,1.0660006E1,1.1770569E1,1.2976712E1,1.4460809E1,1.5721846E1,1.7377565E1,1.8395357E1,2.0078196E1,2.3679804E1,2.6036777E1],"split_indices":[4,4,3,4,4,4,3,3,3,4,3,4,4,3,4,3,3,3,4,4,3,4,4,3,4,3,4,8,0,3,0,3,3,0,4,0,0,0,7,0,0,0,0,3,4,4,8,0,8,0,0,0,0,0,0,0,0,0,0,0,0,0,0,0,0,0,0,0,0,0,0,0,0,0,0,0,0,0,0,0,0,0,0,0,0,0,0,0,0,0,0,0,0],"split_type":[0,0,0,0,0,0,0,0,0,0,0,0,0,0,0,0,0,0,0,0,0,0,0,0,0,0,0,0,0,0,0,0,0,0,0,0,0,0,0,0,0,0,0,0,0,0,0,0,0,0,0,0,0,0,0,0,0,0,0,0,0,0,0,0,0,0,0,0,0,0,0,0,0,0,0,0,0,0,0,0,0,0,0,0,0,0,0,0,0,0,0,0,0],"sum_hessian":[5.87438E5,5.82048E5,5.39E3,5.3165E5,5.0398E4,4.202E3,1.188E3,3.74026E5,1.57624E5,4.41E4,6.298E3,2.298E3,1.904E3,8.81E2,3.07E2,1.9716E5,1.76866E5,9.4635E4,6.2989E4,3.2437E4,1.1663E4,4.237E3,2.061E3,1.244E3,1.054E3,1.106E3,7.98E2,5.91E2,2.9E2,2.35E2,7.2E1,6.2151E4,1.35009E5,9.497E4,8.1896E4,5.9635E4,3.5E4,3.9226E4,2.3763E4,1.9314E4,1.3123E4,7.701E3,3.962E3,2.795E3,1.442E3,9.35E2,1.126E3,7.63E2,4.81E2,4.49E2,6.05E2,4.89E2,6.17E2,4.25E2,3.73E2,1.27E2,4.64E2,1.15E2,1.2E2,1.1178E4,5.0973E4,6.2105E4,7.2904E4,6.6567E4,2.8403E4,2.945E4,5.2446E4,3.9037E4,2.0598E4,1.3585E4,2.1415E4,2.2499E4,1.6727E4,1.799E4,5.773E3,1.887E3,1.7427E4,2.834E3,1.0289E4,2.278E3,5.423E3,9.91E2,2.971E3,1.748E3,1.047E3,7.95E2,6.47E2,4.64E2,4.71E2,3.74E2,7.52E2,2.24E2,2.57E2],"tree_param":{"num_deleted":"0","num_feature":"9","num_nodes":"93","size_leaf_vector":"0"}},{"base_weights":[1.3140475E1,1.10953045E1,2.1267287E2,7.9747214E0,3.4432808E1,1.6834604E2,3.6219296E2,4.9610543E0,1.3702328E1,2.931351E1,6.6772156E1,1.36314E2,2.0779485E2,3.205668E2,4.6010703E2,2.9822361E0,6.8319483E0,1.1634056E1,1.7512518E1,2.5443079E1,3.744092E1,5.8078823E1,9.172172E1,1.2281177E2,1.5629495E2,1.9130402E2,2.367459E2,2.8492096E2,3.3942166E2,4.1889365E2,5.3319867E2,1.3831743E0,3.7784033E0,5.691109E0,7.9469695E0,1.0231089E1,1.2995886E1,1.625999E1,1.9565628E1,2.3086859E1,2.8623388E1,3.4536E1,4.229619E1,5.3815804E1,6.661293E1,8.334551E1,1.0329322E2,1.1602858E2,1.3039647E2,1.4809177E2,1.6491666E2,1.8277475E2,2.0119188E2,2.2407516E2,2.5094731E2,1.42019E2,2.8620715E2,3.2366226E2,3.5739423E2,5.012957E2,6.2338446E2,-2.9179149E0,1.6033319E0,3.0607116E0,4.4328537E0,5.4146686E0,7.5507383E0,6.289484E0,8.47562E0,9.620613E0,1.1492508E1,1.2521724E1,1.5288848E1,1.38354E1,1.6771097E1,1.8900177E1,2.2732924E1,2.0765198E1,2.428683E1,2.6675148E1,3.0508091E1,3.025428E1,3.5671806E1,3.5144543E1,4.344483E1,4.6402683E1,5.6148937E1,6.2327145E1,6.903451E1,7.9497795E1,8.835672E1,9.94291E1,1.0780506E2,1.0175828E2,1.1757884E2,1.25266754E2,1.3564087E2,1.5634923E2,1.7267766E2,1.7703053E2,1.9244975E2],"categories":[],"categories_nodes":[],"categories_segments":[],"categories_sizes":[],"default_left":[true,true,true,true,true,true,true,true,true,true,true,true,true,true,true,true,true,true,true,true,true,true,true,true,true,true,true,false,false,false,true,true,true,true,true,true,true,true,true,true,true,true,true,true,false,true,true,false,false,false,false,false,false,false,false,false,false,false,false,false,false,false,false,false,false,false,false,false,false,false,false,false,false,false,false,false,false,false,false,false,false,false,false,false,false,false,false,false,false,false,false,false,false,false,false,false,false,false,false,false,false],"id":14,"left_children":[1,3,5,7,9,11,13,15,17,19,21,23,25,27,29,31,33,35,37,39,41,43,45,47,49,51,53,55,57,-1,59,61,63,65,67,69,71,73,75,77,79,81,83,85,87,89,91,93,95,-1,97,99,-1,-1,-1,-1,-1,-1,-1,-1,-1,-1,-1,-1,-1,-1,-1,-1,-1,-1,-1,-1,-1,-1,-1,-1,-1,-1,-1,-1,-1,-1,-1,-1,-1,-1,-1,-1,-1,-1,-1,-1,-1,-1,-1,-1,-1,-1,-1,-1,-1],"loss_changes":[2.397185E8,4.2346944E7,3.9440416E7,8.853132E6,1.1352112E7,5.783096E6,5.403728E6,1.244172E6,1.393292E6,1.861624E6,2.027412E6,6.66336E5,9.37728E5,5.47832E5,9.93632E5,2.0792962E5,2.19698E5,2.18853E5,1.59668E5,2.99926E5,2.67916E5,2.4937E5,2.2595E5,6.3124E4,4.7788E4,7.4296E4,7.7468E4,2.1478E4,6.0504E4,0E0,9.606E4,5.1413758E4,5.12005E4,4.3855E4,7.64935E4,4.33675E4,6.3039E4,4.7659E4,4.9244E4,6.3703E4,6.1854E4,5.706E4,5.7167E4,7.7682E4,1.9692E4,2.0144E4,6.925E3,5.999E3,2.11E3,0E0,5.517E3,5.834E3,0E0,0E0,0E0,0E0,0E0,0E0,0E0,0E0,0E0,0E0,0E0,0E0,0E0,0E0,0E0,0E0,0E0,0E0,0E0,0E0,0E0,0E0,0E0,0E0,0E0,0E0,0E0,0E0,0E0,0E0,0E0,0E0,0E0,0E0,0E0,0E0,0E0,0E0,0E0,0E0,0E0,0E0,0E0,0E0,0E0,0E0,0E0,0E0,0E0],"parents":[2147483647,0,0,1,1,2,2,3,3,4,4,5,5,6,6,7,7,8,8,9,9,10,10,11,11,12,12,13,13,14,14,15,15,16,16,17,17,18,18,19,19,20,20,21,21,22,22,23,23,24,24,25,25,26,26,27,27,28,28,30,30,31,31,32,32,33,33,34,34,35,35,36,36,37,37,38,38,39,39,40,40,41,41,42,42,43,43,44,44,45,45,46,46,47,47,48,48,50,50,51,51],"right_children":[2,4,6,8,10,12,14,16,18,20,22,24,26,28,30,32,34,36,38,40,42,44,46,48,50,52,54,56,58,-1,60,62,64,66,68,70,72,74,76,78,80,82,84,86,88,90,92,94,96,-1,98,100,-1,-1,-1,-1,-1,-1,-1,-1,-1,-1,-1,-1,-1,-1,-1,-1,-1,-1,-1,-1,-1,-1,-1,-1,-1,-1,-1,-1,-1,-1,-1,-1,-1,-1,-1,-1,-1,-1,-1,-1,-1,-1,-1,-1,-1,-1,-1,-1,-1],"split_conditions":[1.104755E3,2.08755E2,2.6473901E3,9.3485E1,4.6168E2,1.67775E3,3.61646E3,5.205816E1,1.4714334E2,3.0745502E2,7.2895496E2,1.3384299E3,2.03423E3,3.0670552E3,4.69734E3,2.7157032E1,7.117375E1,1.17945E2,1.83715E2,2.5235501E2,3.83625E2,5.9737E2,9.2694E2,1.17301E3,1.532718E3,1.8524199E3,2.275085E3,-5.9066765E-2,3.3260675E-3,6.283405E1,5.06884E3,9.975E0,2.0185E3,2.0205E3,2.0175E3,2.0195E3,2.0205E3,2.0175E3,4.275E2,2.0185E3,2.0195E3,2.0185E3,7.85E1,7.85E1,-3.2039983E-3,8.1033997E2,1.012945E3,-2.138966E-2,1.5590212E-3,2.2213766E1,1.6134058E-3,6.03065E-3,3.0178783E1,3.3611275E1,3.7642097E1,2.130285E1,4.2931076E1,4.8549343E1,5.3609135E1,7.519436E1,9.3507675E1,-4.3768725E-1,2.404998E-1,4.5910677E-1,6.649281E-1,8.122003E-1,1.1326108E0,9.434226E-1,1.2713431E0,1.443092E0,1.7238762E0,1.8782586E0,2.2933273E0,2.07531E0,2.5156646E0,2.8350267E0,3.4099386E0,3.1147797E0,3.6430247E0,4.001272E0,4.576214E0,4.538142E0,5.350771E0,5.271682E0,6.516725E0,6.960403E0,8.422341E0,9.349072E0,1.0355177E1,1.1924669E1,1.3253509E1,1.4914366E1,1.617076E1,1.5263742E1,1.7636827E1,1.8790014E1,2.034613E1,2.3452385E1,2.590165E1,2.655458E1,2.8867464E1],"split_indices":[3,4,3,4,4,4,4,3,4,4,3,4,4,3,3,3,3,3,3,4,3,3,3,4,3,4,4,8,8,0,4,3,0,0,0,0,0,0,7,0,0,0,7,7,8,4,4,8,8,0,8,8,0,0,0,0,0,0,0,0,0,0,0,0,0,0,0,0,0,0,0,0,0,0,0,0,0,0,0,0,0,0,0,0,0,0,0,0,0,0,0,0,0,0,0,0,0,0,0,0,0],"split_type":[0,0,0,0,0,0,0,0,0,0,0,0,0,0,0,0,0,0,0,0,0,0,0,0,0,0,0,0,0,0,0,0,0,0,0,0,0,0,0,0,0,0,0,0,0,0,0,0,0,0,0,0,0,0,0,0,0,0,0,0,0,0,0,0,0,0,0,0,0,0,0,0,0,0,0,0,0,0,0,0,0,0,0,0,0,0,0,0,0,0,0,0,0,0,0,0,0,0,0,0,0],"sum_hessian":[5.87438E5,5.81479E5,5.959E3,5.12898E5,6.8581E4,4.598E3,1.361E3,3.36071E5,1.76827E5,5.921E4,9.371E3,2.54E3,2.058E3,9.58E2,4.03E2,1.63326E5,1.72745E5,1.14615E5,6.2212E4,4.0112E4,1.9098E4,6.952E3,2.419E3,1.52E3,1.02E3,1.316E3,7.42E2,3.37E2,6.21E2,2.62E2,1.41E2,5.429E4,1.09036E5,8.5387E4,8.7358E4,5.6459E4,5.8156E4,3.8645E4,2.3567E4,2.3046E4,1.7066E4,1.1954E4,7.144E3,4.641E3,2.311E3,1.408E3,1.011E3,8.11E2,7.09E2,5.32E2,4.88E2,7.17E2,5.99E2,4.01E2,3.41E2,4E0,3.33E2,3.41E2,2.8E2,1.09E2,3.2E1,2.643E3,5.1647E4,5.2008E4,5.7028E4,7.434E4,1.1047E4,2.1128E4,6.623E4,3.8052E4,1.8407E4,4.8196E4,9.96E3,6.733E3,3.1912E4,1.9481E4,4.086E3,7.859E3,1.5187E4,8.399E3,8.667E3,2.512E3,9.442E3,9.93E2,6.151E3,1.116E3,3.525E3,8.44E2,1.467E3,8.06E2,6.02E2,5.57E2,4.54E2,8.6E1,7.25E2,3.71E2,3.38E2,2.42E2,2.46E2,4.62E2,2.55E2],"tree_param":{"num_deleted":"0","num_feature":"9","num_nodes":"101","size_leaf_vector":"0"}},{"base_weights":[1.1170852E1,9.508392E0,1.8879677E2,6.9868827E0,3.1587393E1,1.52496E2,3.203616E2,4.4732413E0,1.2519803E1,2.6686037E1,6.2461105E1,1.2499715E2,1.864226E2,2.9645972E2,4.392087E2,2.7295132E0,6.3169756E0,1.0542222E1,1.575061E1,2.3319057E1,3.422283E1,5.2817642E1,8.387188E1,1.1139628E2,1.4084784E2,1.7206432E2,2.1616182E2,2.7866272E2,3.3823288E2,4.1253995E2,5.1662396E2,1.531487E0,3.5873368E0,5.3501687E0,7.4812565E0,9.469987E0,1.1868001E1,1.4473184E1,1.744026E1,2.1151272E1,2.6057194E1,3.1300823E1,3.8450245E1,4.9240295E1,6.031754E1,7.407474E1,9.175603E1,1.0555902E2,1.1923273E2,1.3314758E2,1.4732492E2,1.65073E2,1.8640643E2,2.0470567E2,2.2762299E2,2.6456305E2,2.9236105E2,-3.9906196E-2,1.9749862E0,2.943926E0,4.1713467E0,5.09484E0,7.0524206E0,7.1981783E0,9.449062E0,9.124081E0,1.1644253E1,1.1466891E1,1.3713146E1,1.18657055E1,1.5013437E1,1.682741E1,2.0437906E1,1.8606594E1,2.2437342E1,2.470892E1,2.8196238E1,2.6979166E1,3.2242077E1,3.4207836E1,4.0146416E1,4.4055527E1,5.1042145E1,5.7264725E1,6.3506638E1,7.119215E1,7.9082375E1,8.702239E1,9.595117E1,1.01827576E2,1.0986215E2,1.13165985E2,1.2564485E2,1.2321081E2,1.3660246E2,1.3535065E2,1.5121507E2,1.5729842E2,1.7060936E2,1.66796E2,2.076398E2,9.3049805E1,2.2821391E2,2.5082628E2,2.795654E2],"categories":[],"categories_nodes":[],"categories_segments":[],"categories_sizes":[],"default_left":[true,true,true,true,true,true,true,true,true,true,true,true,true,true,true,true,true,true,true,true,true,true,true,true,true,true,true,true,false,false,false,true,true,true,true,true,true,true,true,true,false,true,true,true,true,true,true,false,false,true,false,false,false,false,false,false,false,false,false,false,false,false,false,false,false,false,false,false,false,false,false,false,false,false,false,false,false,false,false,false,false,false,false,false,false,false,false,false,false,false,false,false,false,false,false,false,false,false,false,false,false,false,false,false,false],"id":15,"left_children":[1,3,5,7,9,11,13,15,17,19,21,23,25,27,29,31,33,35,37,39,41,43,45,47,49,51,53,55,-1,-1,-1,57,59,61,63,65,67,69,71,73,75,77,79,81,83,85,87,89,91,93,95,97,-1,99,101,103,-1,-1,-1,-1,-1,-1,-1,-1,-1,-1,-1,-1,-1,-1,-1,-1,-1,-1,-1,-1,-1,-1,-1,-1,-1,-1,-1,-1,-1,-1,-1,-1,-1,-1,-1,-1,-1,-1,-1,-1,-1,-1,-1,-1,-1,-1,-1,-1,-1],"loss_changes":[1.734665E8,3.2400732E7,2.5965504E7,7.264546E6,9.025208E6,3.961296E6,3.213264E6,1.1547045E6,1.042368E6,1.305624E6,1.682876E6,4.93516E5,7.78392E5,6.36536E5,1.8946E5,1.8969988E5,1.964705E5,1.43777E5,1.33468E5,2.1069E5,1.9514E5,1.48269E5,1.8909E5,4.5783E4,3.4598E4,9.888E4,3.4548E4,5.6888E4,0E0,0E0,0E0,5.3679688E4,4.0407625E4,4.141975E4,4.4049E4,4.19855E4,3.33365E4,4.95295E4,4.8648E4,6.4603E4,4.4643E4,3.7384E4,4.5342E4,3.3457E4,1.40435E4,1.0768E4,1.9471E4,6.95E2,6.671E3,5.74E2,6.597E3,1.0956E4,0E0,8.49E2,2.622E3,2.626E3,0E0,0E0,0E0,0E0,0E0,0E0,0E0,0E0,0E0,0E0,0E0,0E0,0E0,0E0,0E0,0E0,0E0,0E0,0E0,0E0,0E0,0E0,0E0,0E0,0E0,0E0,0E0,0E0,0E0,0E0,0E0,0E0,0E0,0E0,0E0,0E0,0E0,0E0,0E0,0E0,0E0,0E0,0E0,0E0,0E0,0E0,0E0,0E0,0E0],"parents":[2147483647,0,0,1,1,2,2,3,3,4,4,5,5,6,6,7,7,8,8,9,9,10,10,11,11,12,12,13,13,14,14,15,15,16,16,17,17,18,18,19,19,20,20,21,21,22,22,23,23,24,24,25,25,26,26,27,27,31,31,32,32,33,33,34,34,35,35,36,36,37,37,38,38,39,39,40,40,41,41,42,42,43,43,44,44,45,45,46,46,47,47,48,48,49,49,50,50,51,51,53,53,54,54,55,55],"right_children":[2,4,6,8,10,12,14,16,18,20,22,24,26,28,30,32,34,36,38,40,42,44,46,48,50,52,54,56,-1,-1,-1,58,60,62,64,66,68,70,72,74,76,78,80,82,84,86,88,90,92,94,96,98,-1,100,102,104,-1,-1,-1,-1,-1,-1,-1,-1,-1,-1,-1,-1,-1,-1,-1,-1,-1,-1,-1,-1,-1,-1,-1,-1,-1,-1,-1,-1,-1,-1,-1,-1,-1,-1,-1,-1,-1,-1,-1,-1,-1,-1,-1,-1,-1,-1,-1,-1,-1],"split_conditions":[1.1649199E3,2.2410251E2,2.7509E3,1.01985E2,4.91745E2,1.794525E3,4.2925303E3,5.6331665E1,1.5415332E2,3.3121002E2,7.5667505E2,1.455135E3,2.19923E3,3.53517E3,5.120025E3,3.2769447E1,7.921167E1,1.2942819E2,1.9104333E2,2.69085E2,3.93165E2,6.1680005E2,9.49745E2,1.2754299E3,1.581025E3,2.001345E3,2.493025E3,3.2215E3,5.0734936E1,6.1880993E1,7.74936E1,1.61475E1,2.0185E3,2.0205E3,2.0205E3,2.0205E3,2.0205E3,2.0175E3,4.275E2,2.0185E3,5.327826E-3,2.0185E3,2.0195E3,2.0195E3,6.9463E2,8.569E2,1.0702151E3,2.5767875E-3,3.78158E-3,-6.3105887E-3,-7.906572E-3,-5.469501E-4,2.7960966E1,-1.8247291E-2,-1.3869248E-1,4.1625067E-3,4.385416E1,-5.9859296E-3,2.9624793E-1,4.4158894E-1,6.25702E-1,7.64226E-1,1.0578631E0,1.0797268E0,1.4173594E0,1.3686122E0,1.746638E0,1.7200338E0,2.056972E0,1.7798558E0,2.2520156E0,2.5241115E0,3.065686E0,2.7909892E0,3.3656013E0,3.7063382E0,4.229436E0,4.046875E0,4.836312E0,5.1311755E0,6.0219626E0,6.6083293E0,7.656322E0,8.589709E0,9.525996E0,1.06788225E1,1.1862356E1,1.3053359E1,1.4392676E1,1.5274137E1,1.6479324E1,1.69749E1,1.884673E1,1.8481623E1,2.049037E1,2.0302597E1,2.2682262E1,2.3594763E1,2.5591406E1,2.5019402E1,3.1145971E1,1.3957471E1,3.423209E1,3.7623943E1,4.193481E1],"split_indices":[3,4,4,4,4,3,3,3,4,4,4,3,4,3,3,3,3,3,3,4,4,4,3,3,4,4,3,3,0,0,0,3,0,0,0,0,0,0,7,0,8,0,0,0,3,3,3,8,8,8,8,8,0,8,8,8,0,0,0,0,0,0,0,0,0,0,0,0,0,0,0,0,0,0,0,0,0,0,0,0,0,0,0,0,0,0,0,0,0,0,0,0,0,0,0,0,0,0,0,0,0,0,0,0,0],"split_type":[0,0,0,0,0,0,0,0,0,0,0,0,0,0,0,0,0,0,0,0,0,0,0,0,0,0,0,0,0,0,0,0,0,0,0,0,0,0,0,0,0,0,0,0,0,0,0,0,0,0,0,0,0,0,0,0,0,0,0,0,0,0,0,0,0,0,0,0,0,0,0,0,0,0,0,0,0,0,0,0,0,0,0,0,0,0,0,0,0,0,0,0,0,0,0,0,0,0,0,0,0,0,0,0,0],"sum_hessian":[5.87438E5,5.81992E5,5.446E3,5.2234E5,5.9652E4,4.27E3,1.176E3,3.59169E5,1.63171E5,5.1481E4,8.171E3,2.361E3,1.909E3,9.82E2,1.94E2,1.84592E5,1.74577E5,1.01219E5,6.1952E4,3.5587E4,1.5894E4,5.636E3,2.535E3,1.275E3,1.086E3,1.292E3,6.17E2,6.94E2,2.88E2,1.49E2,4.5E1,7.7024E4,1.07568E5,9.538E4,7.9197E4,5.5965E4,4.5254E4,3.5285E4,2.6667E4,1.9867E4,1.572E4,9.403E3,6.491E3,3.821E3,1.815E3,1.135E3,1.4E3,7.39E2,5.36E2,5.06E2,5.8E2,8.77E2,4.15E2,3.18E2,2.99E2,3.52E2,3.42E2,1.6954E4,6.007E4,5.1184E4,5.6384E4,8.2943E4,1.2437E4,6.9241E4,9.956E3,4.8288E4,7.677E3,3.7179E4,8.075E3,6.06E3,2.9225E4,2.2146E4,4.521E3,6.675E3,1.3192E4,9.65E3,6.07E3,1.687E3,7.716E3,1.86E3,4.631E3,9.92E2,2.829E3,9.37E2,8.78E2,7.3E2,4.05E2,6.68E2,7.32E2,4.09E2,3.3E2,2.85E2,2.51E2,1.4E2,3.66E2,1.51E2,4.29E2,3.77E2,5E2,2.7E1,2.91E2,2E0,2.97E2,1.93E2,1.59E2],"tree_param":{"num_deleted":"0","num_feature":"9","num_nodes":"105","size_leaf_vector":"0"}},{"base_weights":[9.496557E0,8.061054E0,1.5837526E2,5.92688E0,2.6592949E1,1.2711438E2,2.6935983E2,3.548108E0,1.0132147E1,2.2752338E1,5.3452225E1,1.0391163E2,1.562317E2,2.4211076E2,3.482532E2,1.9046212E0,4.7289963E0,8.42505E0,1.31123705E1,1.9634428E1,2.9074492E1,4.5604885E1,7.041962E1,9.210504E1,1.17250374E2,1.4167743E2,1.7614813E2,2.21837E2,2.5772348E2,3.284683E2,4.281971E2,4.5238158E-1,2.3351634E0,3.8176138E0,5.603915E0,7.5717287E0,9.718647E0,1.1602074E1,1.434011E1,1.7999022E1,2.2083649E1,2.6910002E1,3.4032684E1,4.2474644E1,5.1213474E1,6.2615875E1,7.6901474E1,8.6520805E1,9.739698E1,1.08404724E2,1.2236188E2,1.3503102E2,1.4796909E2,1.6351437E2,1.8598222E2,1.462185E2,2.237641E2,2.4559598E2,2.7532635E2,2.8317E2,3.400202E2,-5.0445814E0,6.301019E-1,1.9908379E0,3.0476747E0,4.3482294E0,3.0867548E0,6.7148814E0,5.066022E0,6.7500587E0,8.239356E0,8.697379E0,1.0357166E1,1.3668397E1,1.1088562E1,1.2541062E1,1.5230931E1,1.3917661E1,1.8646126E1,2.1173153E1,2.4780714E1,2.5476643E1,2.9387997E1,2.9867815E1,3.5702656E1,3.6906883E1,4.424905E1,4.8577106E1,5.4000675E1,5.613247E1,6.412948E1,7.470037E1,8.569768E1,3.1272013E1,9.7550674E1,6.517754E1,1.08865974E2,1.0405888E2,1.24091064E2,1.2410841E2,1.388415E2,1.3368758E2,1.660764E2,1.7414818E2,1.9584148E2,6.3121906E1,1.5558862E2,2.1069583E2,2.3351274E2],"categories":[],"categories_nodes":[],"categories_segments":[],"categories_sizes":[],"default_left":[true,true,true,true,true,true,true,true,true,true,true,true,true,true,true,true,true,true,true,true,true,true,true,true,true,true,true,false,false,false,false,true,true,true,true,true,true,true,true,true,true,true,true,true,true,false,false,false,false,false,false,false,false,false,false,true,false,false,false,false,false,false,false,false,false,false,false,false,false,false,false,false,false,false,false,false,false,false,false,false,false,false,false,false,false,false,false,false,false,false,false,false,false,false,false,false,false,false,false,false,false,false,false,false,false,false,false,false,false],"id":16,"left_children":[1,3,5,7,9,11,13,15,17,19,21,23,25,27,29,31,33,35,37,39,41,43,45,47,49,51,53,55,57,59,-1,61,63,65,67,69,71,73,75,77,79,81,83,85,87,89,91,-1,93,95,97,99,-1,101,103,105,107,-1,-1,-1,-1,-1,-1,-1,-1,-1,-1,-1,-1,-1,-1,-1,-1,-1,-1,-1,-1,-1,-1,-1,-1,-1,-1,-1,-1,-1,-1,-1,-1,-1,-1,-1,-1,-1,-1,-1,-1,-1,-1,-1,-1,-1,-1,-1,-1,-1,-1,-1,-1],"loss_changes":[1.2554378E8,2.3011388E7,1.942952E7,5.219184E6,6.196912E6,2.942232E6,2.564208E6,6.467425E5,9.58904E5,1.035684E6,9.97536E5,3.73464E5,5.37392E5,2.3372E5,3.56E5,8.7117E4,1.546015E5,1.32227E5,1.27128E5,1.40635E5,1.85401E5,8.81E4,1.15318E5,2.996E4,3.837E4,2.7104E4,7.0846E4,2.659E4,4.1892E4,3.7674E4,0E0,3.1130852E4,2.6360375E4,3.6820375E4,5.90865E4,3.956275E4,3.0972E4,3.2517E4,6.04895E4,5.55145E4,3.4083E4,4.2193E4,3.56015E4,3.1028E4,1.08755E4,7.028E3,1.86325E4,0E0,3.6475E3,1.4185E3,9.748E3,6.034E3,0E0,5.691E3,1.8515E4,3.0109375E2,1.122E3,0E0,0E0,0E0,0E0,0E0,0E0,0E0,0E0,0E0,0E0,0E0,0E0,0E0,0E0,0E0,0E0,0E0,0E0,0E0,0E0,0E0,0E0,0E0,0E0,0E0,0E0,0E0,0E0,0E0,0E0,0E0,0E0,0E0,0E0,0E0,0E0,0E0,0E0,0E0,0E0,0E0,0E0,0E0,0E0,0E0,0E0,0E0,0E0,0E0,0E0,0E0,0E0],"parents":[2147483647,0,0,1,1,2,2,3,3,4,4,5,5,6,6,7,7,8,8,9,9,10,10,11,11,12,12,13,13,14,14,15,15,16,16,17,17,18,18,19,19,20,20,21,21,22,22,23,23,24,24,25,25,26,26,27,27,28,28,29,29,31,31,32,32,33,33,34,34,35,35,36,36,37,37,38,38,39,39,40,40,41,41,42,42,43,43,44,44,45,45,46,46,48,48,49,49,50,50,51,51,53,53,54,54,55,55,56,56],"right_children":[2,4,6,8,10,12,14,16,18,20,22,24,26,28,30,32,34,36,38,40,42,44,46,48,50,52,54,56,58,60,-1,62,64,66,68,70,72,74,76,78,80,82,84,86,88,90,92,-1,94,96,98,100,-1,102,104,106,108,-1,-1,-1,-1,-1,-1,-1,-1,-1,-1,-1,-1,-1,-1,-1,-1,-1,-1,-1,-1,-1,-1,-1,-1,-1,-1,-1,-1,-1,-1,-1,-1,-1,-1,-1,-1,-1,-1,-1,-1,-1,-1,-1,-1,-1,-1,-1,-1,-1,-1,-1,-1],"split_conditions":[1.12298E3,2.22935E2,2.766185E3,9.2575E1,5.0354498E2,1.7777649E3,3.9371602E3,4.68825E1,1.4884662E2,3.26315E2,7.7268E2,1.421625E3,2.050165E3,3.2215E3,5.035505E3,2.0718761E1,6.754924E1,1.24024994E2,1.7391501E2,2.70985E2,4.1546002E2,6.15125E2,9.2523E2,1.221635E3,1.5396599E3,1.869495E3,2.343355E3,-3.7535064E-2,5.3980695E-3,-1.0667899E-2,6.422957E1,7.615E0,2.0195E3,3.065E2,1.371975E6,2.0185E3,2.0185E3,6.1205E5,2.0185E3,2.0175E3,2.0205E3,5.950886E-3,2.0195E3,7.85E1,6.7696497E2,-7.5304992E-3,1.274162E-2,1.2978122E1,-1.0279876E-1,-4.474146E-2,-1.9716963E-2,-5.968144E-3,2.2195364E1,-1.5882459E-2,1.2518774E-3,2.6855151E3,7.019285E-4,3.6839397E1,4.1298954E1,4.2475502E1,5.1003033E1,-7.566872E-1,9.4515294E-2,2.986257E-1,4.571512E-1,6.5223444E-1,4.6301323E-1,1.0072323E0,7.599033E-1,1.0125089E0,1.2359035E0,1.3046069E0,1.553575E0,2.0502596E0,1.6632844E0,1.8811594E0,2.2846398E0,2.087649E0,2.7969189E0,3.1759732E0,3.7171073E0,3.8214965E0,4.4082E0,4.4801726E0,5.3553987E0,5.5360327E0,6.6373577E0,7.2865663E0,8.100101E0,8.41987E0,9.619422E0,1.1205056E1,1.2854652E1,4.690802E0,1.4632602E1,9.776632E0,1.6329897E1,1.5608833E1,1.861366E1,1.8616262E1,2.0826227E1,2.0053137E1,2.491146E1,2.6122229E1,2.9376223E1,9.4682865E0,2.3338295E1,3.1604376E1,3.5026913E1],"split_indices":[4,4,3,4,4,3,3,3,4,4,3,3,4,3,3,3,3,3,4,4,4,4,4,3,3,4,3,8,8,8,0,3,0,7,6,0,0,6,0,0,0,8,0,7,4,8,8,0,8,8,8,8,0,8,8,4,8,0,0,0,0,0,0,0,0,0,0,0,0,0,0,0,0,0,0,0,0,0,0,0,0,0,0,0,0,0,0,0,0,0,0,0,0,0,0,0,0,0,0,0,0,0,0,0,0,0,0,0,0],"split_type":[0,0,0,0,0,0,0,0,0,0,0,0,0,0,0,0,0,0,0,0,0,0,0,0,0,0,0,0,0,0,0,0,0,0,0,0,0,0,0,0,0,0,0,0,0,0,0,0,0,0,0,0,0,0,0,0,0,0,0,0,0,0,0,0,0,0,0,0,0,0,0,0,0,0,0,0,0,0,0,0,0,0,0,0,0,0,0,0,0,0,0,0,0,0,0,0,0,0,0,0,0,0,0,0,0,0,0,0,0],"sum_hessian":[5.87438E5,5.81829E5,5.609E3,5.21745E5,6.0084E4,4.378E3,1.231E3,3.33243E5,1.88502E5,5.2569E4,7.515E3,2.439E3,1.939E3,9.18E2,3.13E2,1.39332E5,1.93911E5,1.19853E5,6.8649E4,3.5209E4,1.736E4,5.141E3,2.374E3,1.298E3,1.141E3,1.125E3,8.14E2,4.06E2,5.12E2,2.55E2,5.8E1,3.1862E4,1.0747E5,9.4979E4,9.8932E4,7.222E4,4.7633E4,3.0787E4,3.7862E4,2.1117E4,1.4092E4,1.2089E4,5.271E3,3.305E3,1.836E3,1.082E3,1.292E3,6.4E2,6.58E2,4.26E2,7.15E2,5.58E2,5.67E2,3.64E2,4.5E2,1.2E1,3.94E2,3.12E2,2E2,5.7E1,1.98E2,9.97E2,3.0865E4,7.2458E4,3.5012E4,5.5025E4,3.9954E4,3.227E4,6.6662E4,3.238E4,3.984E4,1.833E4,2.9303E4,6.123E3,2.4664E4,1.2544E4,2.5318E4,2.893E3,1.8224E4,1.0542E4,3.55E3,7.666E3,4.423E3,1.514E3,3.757E3,8.04E2,2.501E3,9.53E2,8.83E2,2.12E2,8.7E2,1.041E3,2.51E2,2E0,6.56E2,6E0,4.2E2,6.7E1,6.48E2,1.53E2,4.05E2,3.3E1,3.31E2,2.13E2,2.37E2,2E0,1E1,1.78E2,2.16E2],"tree_param":{"num_deleted":"0","num_feature":"9","num_nodes":"109","size_leaf_vector":"0"}},{"base_weights":[8.073276E0,6.8134427E0,1.308818E2,4.853603E0,2.0910769E1,1.022297E2,2.1930139E2,2.8795648E0,8.110164E0,1.7864372E1,4.1327354E1,8.3743935E1,1.2605791E2,1.9325282E2,2.8392816E2,1.4105114E0,3.756097E0,6.8044796E0,1.041501E1,1.5380398E1,2.2830492E1,3.6054775E1,5.6452045E1,7.5525085E1,9.600596E1,1.1737913E2,1.4253311E2,1.6813577E2,2.0569557E2,2.5683267E2,3.3144073E2,1.18532166E-1,1.7103797E0,3.1538901E0,4.5506296E0,6.113781E0,7.761803E0,1.2863847E1,9.919544E0,